solver_type L2R_LR
nr_class 7
label 0 1 2 5 6 3 4
nr_feature 6580
bias -1
w
0.4010505633899134 -0.4010592928413508 -0.4010602119166192 -0.4010606187031479 -0.4010592017139096 -0.401056009503729 -0.401059782145619 
0.6748167125886594 -0.6748318795628362 -0.6748295655179027 -0.6748244696835621 -0.6748315578415731 -0.6748168439635792 -0.6748317221044651 
0.8796842918941252 -0.8797123120871266 -0.8797206095187823 -0.8797172863930913 -0.8797122261881961 -0.8796953559898226 -0.879712101395546 
0.8796842918941252 -0.8797123120871266 -0.8797206095187823 -0.8797172863930913 -0.8797122261881961 -0.8796953559898226 -0.879712101395546 
0.6748167125886594 -0.6748318795628362 -0.6748295655179027 -0.6748244696835621 -0.6748315578415731 -0.6748168439635792 -0.6748317221044651 
0.6748167125886594 -0.6748318795628362 -0.6748295655179027 -0.6748244696835621 -0.6748315578415731 -0.6748168439635792 -0.6748317221044651 
-0.4687279154535904 0.5726784410938655 0.6150004831804994 -0.09696741999636103 -0.1102690735282446 -0.232386736316654 -0.09403830248110213 
0.6748167125886594 -0.6748318795628362 -0.6748295655179027 -0.6748244696835621 -0.6748315578415731 -0.6748168439635792 -0.6748317221044651 
0.4010505633899134 -0.4010592928413508 -0.4010602119166192 -0.4010606187031479 -0.4010592017139096 -0.401056009503729 -0.401059782145619 
0.2353615844746217 -0.2191954666783844 -0.1922429796195694 -0.09696741999636103 -0.1102690735282446 0.5525359595753704 -0.09403830248110213 
0.8796842918941252 -0.8797123120871266 -0.8797206095187823 -0.8797172863930913 -0.8797122261881961 -0.8796953559898226 -0.879712101395546 
0.6748167125886594 -0.6748318795628362 -0.6748295655179027 -0.6748244696835621 -0.6748315578415731 -0.6748168439635792 -0.6748317221044651 
0.4010505633899134 -0.4010592928413508 -0.4010602119166192 -0.4010606187031479 -0.4010592017139096 -0.401056009503729 -0.401059782145619 
0.6748167125886594 -0.6748318795628362 -0.6748295655179027 -0.6748244696835621 -0.6748315578415731 -0.6748168439635792 -0.6748317221044651 
0.4010505633899134 -0.4010592928413508 -0.4010602119166192 -0.4010606187031479 -0.4010592017139096 -0.401056009503729 -0.401059782145619 
0.4010505633899134 -0.4010592928413508 -0.4010602119166192 -0.4010606187031479 -0.4010592017139096 -0.401056009503729 -0.401059782145619 
0.8796842918941252 -0.8797123120871266 -0.8797206095187823 -0.8797172863930913 -0.8797122261881961 -0.8796953559898226 -0.879712101395546 
0.5429239469276361 -0.1196867782879502 -0.104051042641258 -0.05066215268619275 -0.05792419892710609 -0.1274013376737158 -0.04907348961026063 
0.4010505633899134 -0.4010592928413508 -0.4010602119166192 -0.4010606187031479 -0.4010592017139096 -0.401056009503729 -0.401059782145619 
0.4010505633899134 -0.4010592928413508 -0.4010602119166192 -0.4010606187031479 -0.4010592017139096 -0.401056009503729 -0.401059782145619 
0.5429239469276361 -0.1196867782879502 -0.104051042641258 -0.05066215268619275 -0.05792419892710609 -0.1274013376737158 -0.04907348961026063 
1.166809041572067 -0.3046093329318574 -0.2689771268643139 -0.1396585200249386 -0.1580887451203659 -0.3219287468966319 -0.1355797272685711 
-0.2715584736024393 -0.1196867782879502 0.7804510810975854 -0.05066215268619275 -0.05792419892710609 -0.1274013376737158 -0.04907348961026063 
-0.8584926442400486 -0.4465124710899928 -0.3982527209173828 -0.2163287482548011 -0.2430612011519421 2.110619632934357 -0.2103698918034705 
0.5429239469276361 -0.1196867782879502 -0.104051042641258 -0.05066215268619275 -0.05792419892710609 -0.1274013376737158 -0.04907348961026063 
0.8796842918941252 -0.8797123120871266 -0.8797206095187823 -0.8797172863930913 -0.8797122261881961 -0.8796953559898226 -0.879712101395546 
-0.4687279154535904 -0.2191954666783844 -0.1922429796195694 0.7814906112508146 0.7562420648252226 -0.232386736316654 -0.09403830248110213 
0.4010505633899134 -0.4010592928413508 -0.4010602119166192 -0.4010606187031479 -0.4010592017139096 -0.401056009503729 -0.401059782145619 
0.4010505633899134 -0.4010592928413508 -0.4010602119166192 -0.4010606187031479 -0.4010592017139096 -0.401056009503729 -0.401059782145619 
0.4010505633899134 -0.4010592928413508 -0.4010602119166192 -0.4010606187031479 -0.4010592017139096 -0.401056009503729 -0.401059782145619 
0.9051945211410743 -0.2191954666783844 -0.1922429796195694 -0.09696741999636103 -0.1102690735282446 -0.232386736316654 -0.09403830248110213 
-0.6232964541186914 1.660648694237014 -0.2689771268643139 -0.1396585200249386 -0.1580887451203659 -0.3219287468966319 -0.1355797272685711 
-0.4687279154535904 -0.2191954666783844 -0.1922429796195694 -0.09696741999636103 -0.1102690735282446 1.261358054622965 -0.09403830248110213 
0.4010505633899134 -0.4010592928413508 -0.4010602119166192 -0.4010606187031479 -0.4010592017139096 -0.401056009503729 -0.401059782145619 
0.4010505633899134 -0.4010592928413508 -0.4010602119166192 -0.4010606187031479 -0.4010592017139096 -0.401056009503729 -0.401059782145619 
0.6748167125886594 -0.6748318795628362 -0.6748295655179027 -0.6748244696835621 -0.6748315578415731 -0.6748168439635792 -0.6748317221044651 
1.292544765273352 -1.292542185106164 -1.292525433385472 -1.292528671850503 -1.292537534324456 -1.292539214580559 -1.292541378305161 
0.4010505633899134 -0.4010592928413508 -0.4010602119166192 -0.4010606187031479 -0.4010592017139096 -0.401056009503729 -0.401059782145619 
0.4010505633899134 -0.4010592928413508 -0.4010602119166192 -0.4010606187031479 -0.4010592017139096 -0.401056009503729 -0.401059782145619 
0.5429239469276361 -0.1196867782879502 -0.104051042641258 -0.05066215268619275 -0.05792419892710609 -0.1274013376737158 -0.04907348961026063 
-0.4687279154535904 -0.2191954666783844 1.340197708894153 -0.09696741999636103 -0.1102690735282446 -0.232386736316654 -0.09403830248110213 
0.4010505633899134 -0.4010592928413508 -0.4010602119166192 -0.4010606187031479 -0.4010592017139096 -0.401056009503729 -0.401059782145619 
1.561231451172968 -1.561247843823356 -1.561205119954546 -1.561186198344471 -1.561230352015674 -1.561221463487787 -1.561245449748421 
0.8796842918941252 -0.8797123120871266 -0.8797206095187823 -0.8797172863930913 -0.8797122261881961 -0.8796953559898226 -0.879712101395546 
0.4010505633899134 -0.4010592928413508 -0.4010602119166192 -0.4010606187031479 -0.4010592017139096 -0.401056009503729 -0.401059782145619 
-0.2715584736024393 -0.1196867782879502 -0.104051042641258 -0.05066215268619275 0.8658738957821178 -0.1274013376737158 -0.04907348961026063 
0.5429239469276361 -0.1196867782879502 -0.104051042641258 -0.05066215268619275 -0.05792419892710609 -0.1274013376737158 -0.04907348961026063 
0.6748167125886594 -0.6748318795628362 -0.6748295655179027 -0.6748244696835621 -0.6748315578415731 -0.6748168439635792 -0.6748317221044651 
-1.239992700641993 -0.7043515205971238 -0.6377126883895414 3.499218595306358 -0.4132054889236906 -0.7360110838448032 -0.3632555587963921 
0.5429239469276361 -0.1196867782879502 -0.104051042641258 -0.05066215268619275 -0.05792419892710609 -0.1274013376737158 -0.04907348961026063 
-1.456352563196561 2.480078101298205 0.5646971321770256 -0.6701520821837983 -0.7303655525706019 -1.172347153702607 -0.6563732942304962 
2.429222949861553 -2.429168269253049 -2.429173223528793 -2.429193779013064 -2.429205912115135 -2.429217218732669 -2.429157311623148 
0.4010505633899134 -0.4010592928413508 -0.4010602119166192 -0.4010606187031479 -0.4010592017139096 -0.401056009503729 -0.401059782145619 
1.042580553435523 -1.042596577009934 -1.042608687583916 -1.042609871630706 -1.042596018150822 -1.042591864612327 -1.042595749410701 
0.4010505633899134 -0.4010592928413508 -0.4010602119166192 -0.4010606187031479 -0.4010592017139096 -0.401056009503729 -0.401059782145619 
-0.2715584736024393 -0.1196867782879502 -0.104051042641258 -0.05066215268619275 -0.05792419892710609 0.7416776662480304 -0.04907348961026063 
0.4010505633899134 -0.4010592928413508 -0.4010602119166192 -0.4010606187031479 -0.4010592017139096 -0.401056009503729 -0.401059782145619 
0.5429239469276361 -0.1196867782879502 -0.104051042641258 -0.05066215268619275 -0.05792419892710609 -0.1274013376737158 -0.04907348961026063 
0.4010505633899134 -0.4010592928413508 -0.4010602119166192 -0.4010606187031479 -0.4010592017139096 -0.401056009503729 -0.401059782145619 
0.8796842918941252 -0.8797123120871266 -0.8797206095187823 -0.8797172863930913 -0.8797122261881961 -0.8796953559898226 -0.879712101395546 
0.4010505633899134 -0.4010592928413508 -0.4010602119166192 -0.4010606187031479 -0.4010592017139096 -0.401056009503729 -0.401059782145619 
0.4010505633899134 -0.4010592928413508 -0.4010602119166192 -0.4010606187031479 -0.4010592017139096 -0.401056009503729 -0.401059782145619 
-0.6232964541186914 1.660648694237014 -0.2689771268643139 -0.1396585200249386 -0.1580887451203659 -0.3219287468966319 -0.1355797272685711 
0.4010505633899134 -0.4010592928413508 -0.4010602119166192 -0.4010606187031479 -0.4010592017139096 -0.401056009503729 -0.401059782145619 
0.4010505633899134 -0.4010592928413508 -0.4010602119166192 -0.4010606187031479 -0.4010592017139096 -0.401056009503729 -0.401059782145619 
0.4010505633899134 -0.4010592928413508 -0.4010602119166192 -0.4010606187031479 -0.4010592017139096 -0.401056009503729 -0.401059782145619 
0.6748167125886594 -0.6748318795628362 -0.6748295655179027 -0.6748244696835621 -0.6748315578415731 -0.6748168439635792 -0.6748317221044651 
0.4010505633899134 -0.4010592928413508 -0.4010602119166192 -0.4010606187031479 -0.4010592017139096 -0.401056009503729 -0.401059782145619 
-0.2715584736024393 -0.1196867782879502 0.7804510810975854 -0.05066215268619275 -0.05792419892710609 -0.1274013376737158 -0.04907348961026063 
0.5429239469276361 -0.1196867782879502 -0.104051042641258 -0.05066215268619275 -0.05792419892710609 -0.1274013376737158 -0.04907348961026063 
0.4010505633899134 -0.4010592928413508 -0.4010602119166192 -0.4010606187031479 -0.4010592017139096 -0.401056009503729 -0.401059782145619 
1.292544765273352 -1.292542185106164 -1.292525433385472 -1.292528671850503 -1.292537534324456 -1.292539214580559 -1.292541378305161 
0.4010505633899134 -0.4010592928413508 -0.4010602119166192 -0.4010606187031479 -0.4010592017139096 -0.401056009503729 -0.401059782145619 
0.6748167125886594 -0.6748318795628362 -0.6748295655179027 -0.6748244696835621 -0.6748315578415731 -0.6748168439635792 -0.6748317221044651 
-0.4687279154535904 -0.2191954666783844 -0.1922429796195694 0.7814906112508146 0.7562420648252226 -0.232386736316654 -0.09403830248110213 
-0.4387326111821063 -0.5070151347939132 -0.4539638065676304 1.646506165762864 0.4458393759360665 0.08345954917142621 -0.2443526926421698 
-0.2715584736024393 -0.1196867782879502 -0.104051042641258 -0.05066215268619275 -0.05792419892710609 0.7416776662480304 -0.04907348961026063 
0.6748167125886594 -0.6748318795628362 -0.6748295655179027 -0.6748244696835621 -0.6748315578415731 -0.6748168439635792 -0.6748317221044651 
0.5429239469276361 -0.1196867782879502 -0.104051042641258 -0.05066215268619275 -0.05792419892710609 -0.1274013376737158 -0.04907348961026063 
-0.7504459887974344 1.937846300650209 -0.3370270226917529 -0.1792994567944242 -0.2021574028766977 -0.4001614583766235 -0.1742207452884658 
-0.2715584736024393 -0.1196867782879502 0.7804510810975854 -0.05066215268619275 -0.05792419892710609 -0.1274013376737158 -0.04907348961026063 
4.712010202275684 -4.711929451237802 -4.712005652490832 -4.711985048170551 -4.711940734302602 -4.712007735275997 -4.711941767199033 
-0.2715584736024393 0.7542429977285292 -0.104051042641258 -0.05066215268619275 -0.05792419892710609 -0.1274013376737158 -0.04907348961026063 
0.9051945211410743 -0.2191954666783844 -0.1922429796195694 -0.09696741999636103 -0.1102690735282446 -0.232386736316654 -0.09403830248110213 
-0.4687279154535904 -0.2191954666783844 -0.1922429796195694 -0.09696741999636103 -0.1102690735282446 1.261358054622965 -0.09403830248110213 
0.4010505633899134 -0.4010592928413508 -0.4010602119166192 -0.4010606187031479 -0.4010592017139096 -0.401056009503729 -0.401059782145619 
0.4010505633899134 -0.4010592928413508 -0.4010602119166192 -0.4010606187031479 -0.4010592017139096 -0.401056009503729 -0.401059782145619 
0.6748167125886594 -0.6748318795628362 -0.6748295655179027 -0.6748244696835621 -0.6748315578415731 -0.6748168439635792 -0.6748317221044651 
-0.4687279154535904 -0.2191954666783844 -0.1922429796195694 -0.09696741999636103 -0.1102690735282446 1.261358054622965 -0.09403830248110213 
0.4010505633899134 -0.4010592928413508 -0.4010602119166192 -0.4010606187031479 -0.4010592017139096 -0.401056009503729 -0.401059782145619 
0.4010505633899134 -0.4010592928413508 -0.4010602119166192 -0.4010606187031479 -0.4010592017139096 -0.401056009503729 -0.401059782145619 
-0.2715584736024393 -0.1196867782879502 0.7804510810975854 -0.05066215268619275 -0.05792419892710609 -0.1274013376737158 -0.04907348961026063 
0.8796842918941252 -0.8797123120871266 -0.8797206095187823 -0.8797172863930913 -0.8797122261881961 -0.8796953559898226 -0.879712101395546 
0.6748167125886594 -0.6748318795628362 -0.6748295655179027 -0.6748244696835621 -0.6748315578415731 -0.6748168439635792 -0.6748317221044651 
0.8796842918941252 -0.8797123120871266 -0.8797206095187823 -0.8797172863930913 -0.8797122261881961 -0.8796953559898226 -0.879712101395546 
-0.2715584736024393 -0.1196867782879502 -0.104051042641258 -0.05066215268619275 -0.05792419892710609 -0.1274013376737158 0.8839706160633117 
0.5429239469276361 -0.1196867782879502 -0.104051042641258 -0.05066215268619275 -0.05792419892710609 -0.1274013376737158 -0.04907348961026063 
-0.2715584736024393 -0.1196867782879502 -0.104051042641258 -0.05066215268619275 -0.05792419892710609 -0.1274013376737158 0.8839706160633117 
0.8796842918941252 -0.8797123120871266 -0.8797206095187823 -0.8797172863930913 -0.8797122261881961 -0.8796953559898226 -0.879712101395546 
0.4010505633899134 -0.4010592928413508 -0.4010602119166192 -0.4010606187031479 -0.4010592017139096 -0.401056009503729 -0.401059782145619 
-0.2715584736024393 0.7542429977285292 -0.104051042641258 -0.05066215268619275 -0.05792419892710609 -0.1274013376737158 -0.04907348961026063 
0.4010505633899134 -0.4010592928413508 -0.4010602119166192 -0.4010606187031479 -0.4010592017139096 -0.401056009503729 -0.401059782145619 
-0.2715584736024393 -0.1196867782879502 0.7804510810975854 -0.05066215268619275 -0.05792419892710609 -0.1274013376737158 -0.04907348961026063 
0.4010505633899134 -0.4010592928413508 -0.4010602119166192 -0.4010606187031479 -0.4010592017139096 -0.401056009503729 -0.401059782145619 
0.4010505633899134 -0.4010592928413508 -0.4010602119166192 -0.4010606187031479 -0.4010592017139096 -0.401056009503729 -0.401059782145619 
-0.2715584736024393 0.7542429977285292 -0.104051042641258 -0.05066215268619275 -0.05792419892710609 -0.1274013376737158 -0.04907348961026063 
0.4010505633899134 -0.4010592928413508 -0.4010602119166192 -0.4010606187031479 -0.4010592017139096 -0.401056009503729 -0.401059782145619 
0.4010505633899134 -0.4010592928413508 -0.4010602119166192 -0.4010606187031479 -0.4010592017139096 -0.401056009503729 -0.401059782145619 
-0.2715584736024393 -0.1196867782879502 0.7804510810975854 -0.05066215268619275 -0.05792419892710609 -0.1274013376737158 -0.04907348961026063 
1.392772012155952 -1.39277321242195 -1.392740569326131 -1.392738888087885 -1.392764256201475 -1.39276138216871 -1.392772212770584 
0.4010505633899134 -0.4010592928413508 -0.4010602119166192 -0.4010606187031479 -0.4010592017139096 -0.401056009503729 -0.401059782145619 
0.6748167125886594 -0.6748318795628362 -0.6748295655179027 -0.6748244696835621 -0.6748315578415731 -0.6748168439635792 -0.6748317221044651 
-0.2715584736024393 -0.1196867782879502 -0.104051042641258 -0.05066215268619275 -0.05792419892710609 0.7416776662480304 -0.04907348961026063 
-0.2715584736024393 -0.1196867782879502 -0.104051042641258 -0.05066215268619275 -0.05792419892710609 0.7416776662480304 -0.04907348961026063 
1.042580553435523 -1.042596577009934 -1.042608687583916 -1.042609871630706 -1.042596018150822 -1.042591864612327 -1.042595749410701 
-0.2715584736024393 -0.1196867782879502 -0.104051042641258 -0.05066215268619275 -0.05792419892710609 0.7416776662480304 -0.04907348961026063 
0.4010505633899134 -0.4010592928413508 -0.4010602119166192 -0.4010606187031479 -0.4010592017139096 -0.401056009503729 -0.401059782145619 
0.5429239469276361 -0.1196867782879502 -0.104051042641258 -0.05066215268619275 -0.05792419892710609 -0.1274013376737158 -0.04907348961026063 
0.6748167125886594 -0.6748318795628362 -0.6748295655179027 -0.6748244696835621 -0.6748315578415731 -0.6748168439635792 -0.6748317221044651 
-0.2715584736024393 -0.1196867782879502 -0.104051042641258 -0.05066215268619275 -0.05792419892710609 0.7416776662480304 -0.04907348961026063 
0.4010505633899134 -0.4010592928413508 -0.4010602119166192 -0.4010606187031479 -0.4010592017139096 -0.401056009503729 -0.401059782145619 
0.4010505633899134 -0.4010592928413508 -0.4010602119166192 -0.4010606187031479 -0.4010592017139096 -0.401056009503729 -0.401059782145619 
1.177503097715039 -1.177505171692748 -1.17750633747102 -1.177510472661501 -1.177503409626847 -1.177506232663603 -1.177504268967737 
0.8796842918941252 -0.8797123120871266 -0.8797206095187823 -0.8797172863930913 -0.8797122261881961 -0.8796953559898226 -0.879712101395546 
-0.4687279154535904 1.286397656813981 -0.1922429796195694 -0.09696741999636103 -0.1102690735282446 -0.232386736316654 -0.09403830248110213 
1.292544765273352 -1.292542185106164 -1.292525433385472 -1.292528671850503 -1.292537534324456 -1.292539214580559 -1.292541378305161 
1.177503097715039 -1.177505171692748 -1.17750633747102 -1.177510472661501 -1.177503409626847 -1.177506232663603 -1.177504268967737 
1.177503097715039 -1.177505171692748 -1.17750633747102 -1.177510472661501 -1.177503409626847 -1.177506232663603 -1.177504268967737 
-0.2715584736024393 -0.1196867782879502 0.7804510810975854 -0.05066215268619275 -0.05792419892710609 -0.1274013376737158 -0.04907348961026063 
0.6748167125886594 -0.6748318795628362 -0.6748295655179027 -0.6748244696835621 -0.6748315578415731 -0.6748168439635792 -0.6748317221044651 
-0.6232964541186914 -0.3046093329318574 -0.2689771268643139 -0.1396585200249386 -0.1580887451203659 1.626924453597202 -0.1355797272685711 
0.8796842918941252 -0.8797123120871266 -0.8797206095187823 -0.8797172863930913 -0.8797122261881961 -0.8796953559898226 -0.879712101395546 
0.8796842918941252 -0.8797123120871266 -0.8797206095187823 -0.8797172863930913 -0.8797122261881961 -0.8796953559898226 -0.879712101395546 
0.4010505633899134 -0.4010592928413508 -0.4010602119166192 -0.4010606187031479 -0.4010592017139096 -0.401056009503729 -0.401059782145619 
-0.2715584736024393 0.7542429977285292 -0.104051042641258 -0.05066215268619275 -0.05792419892710609 -0.1274013376737158 -0.04907348961026063 
0.4010505633899134 -0.4010592928413508 -0.4010602119166192 -0.4010606187031479 -0.4010592017139096 -0.401056009503729 -0.401059782145619 
1.042580553435523 -1.042596577009934 -1.042608687583916 -1.042609871630706 -1.042596018150822 -1.042591864612327 -1.042595749410701 
1.481552480158063 -1.481561330639618 -1.481519696280242 -1.481510139758417 -1.481547734663674 -1.481540800387849 -1.481559763093828 
0.4010505633899134 -0.4010592928413508 -0.4010602119166192 -0.4010606187031479 -0.4010592017139096 -0.401056009503729 -0.401059782145619 
0.4010505633899134 -0.4010592928413508 -0.4010602119166192 -0.4010606187031479 -0.4010592017139096 -0.401056009503729 -0.401059782145619 
-0.2715584736024393 -0.1196867782879502 0.7804510810975854 -0.05066215268619275 -0.05792419892710609 -0.1274013376737158 -0.04907348961026063 
-0.2715584736024393 -0.1196867782879502 0.7804510810975854 -0.05066215268619275 -0.05792419892710609 -0.1274013376737158 -0.04907348961026063 
0.6748167125886594 -0.6748318795628362 -0.6748295655179027 -0.6748244696835621 -0.6748315578415731 -0.6748168439635792 -0.6748317221044651 
1.042580553435523 -1.042596577009934 -1.042608687583916 -1.042609871630706 -1.042596018150822 -1.042591864612327 -1.042595749410701 
0.4010505633899134 -0.4010592928413508 -0.4010602119166192 -0.4010606187031479 -0.4010592017139096 -0.401056009503729 -0.401059782145619 
0.4010505633899134 -0.4010592928413508 -0.4010602119166192 -0.4010606187031479 -0.4010592017139096 -0.401056009503729 -0.401059782145619 
-0.2715584736024393 -0.1196867782879502 -0.104051042641258 -0.05066215268619275 0.8658738957821178 -0.1274013376737158 -0.04907348961026063 
0.8796842918941252 -0.8797123120871266 -0.8797206095187823 -0.8797172863930913 -0.8797122261881961 -0.8796953559898226 -0.879712101395546 
-0.2715584736024393 -0.1196867782879502 0.7804510810975854 -0.05066215268619275 -0.05792419892710609 -0.1274013376737158 -0.04907348961026063 
0.5429239469276361 -0.1196867782879502 -0.104051042641258 -0.05066215268619275 -0.05792419892710609 -0.1274013376737158 -0.04907348961026063 
0.4010505633899134 -0.4010592928413508 -0.4010602119166192 -0.4010606187031479 -0.4010592017139096 -0.401056009503729 -0.401059782145619 
1.042580553435523 -1.042596577009934 -1.042608687583916 -1.042609871630706 -1.042596018150822 -1.042591864612327 -1.042595749410701 
1.042580553435523 -1.042596577009934 -1.042608687583916 -1.042609871630706 -1.042596018150822 -1.042591864612327 -1.042595749410701 
1.699635357427815 -1.699658723466896 -1.69963172347631 -1.699594704920708 -1.699637996195589 -1.699631073877704 -1.699654359250935 
0.5429239469276361 -0.1196867782879502 -0.104051042641258 -0.05066215268619275 -0.05792419892710609 -0.1274013376737158 -0.04907348961026063 
0.8796842918941252 -0.8797123120871266 -0.8797206095187823 -0.8797172863930913 -0.8797122261881961 -0.8796953559898226 -0.879712101395546 
-0.2715584736024393 -0.1196867782879502 0.7804510810975854 -0.05066215268619275 -0.05792419892710609 -0.1274013376737158 -0.04907348961026063 
-0.2715584736024393 -0.1196867782879502 -0.104051042641258 0.8806446958591204 -0.05792419892710609 -0.1274013376737158 -0.04907348961026063 
-0.2715584736024393 -0.1196867782879502 -0.104051042641258 -0.05066215268619275 -0.05792419892710609 0.7416776662480304 -0.04907348961026063 
0.2353615844746217 0.5726784410938655 -0.1922429796195694 -0.09696741999636103 -0.1102690735282446 -0.232386736316654 -0.09403830248110213 
0.5429239469276361 -0.1196867782879502 -0.104051042641258 -0.05066215268619275 -0.05792419892710609 -0.1274013376737158 -0.04907348961026063 
0.4010505633899134 -0.4010592928413508 -0.4010602119166192 -0.4010606187031479 -0.4010592017139096 -0.401056009503729 -0.401059782145619 
0.6748167125886594 -0.6748318795628362 -0.6748295655179027 -0.6748244696835621 -0.6748315578415731 -0.6748168439635792 -0.6748317221044651 
0.4010505633899134 -0.4010592928413508 -0.4010602119166192 -0.4010606187031479 -0.4010592017139096 -0.401056009503729 -0.401059782145619 
0.4010505633899134 -0.4010592928413508 -0.4010602119166192 -0.4010606187031479 -0.4010592017139096 -0.401056009503729 -0.401059782145619 
0.4010505633899134 -0.4010592928413508 -0.4010602119166192 -0.4010606187031479 -0.4010592017139096 -0.401056009503729 -0.401059782145619 
0.8796842918941252 -0.8797123120871266 -0.8797206095187823 -0.8797172863930913 -0.8797122261881961 -0.8796953559898226 -0.879712101395546 
-0.2715584736024393 -0.1196867782879502 0.7804510810975854 -0.05066215268619275 -0.05792419892710609 -0.1274013376737158 -0.04907348961026063 
0.4010505633899134 -0.4010592928413508 -0.4010602119166192 -0.4010606187031479 -0.4010592017139096 -0.401056009503729 -0.401059782145619 
0.4010505633899134 -0.4010592928413508 -0.4010602119166192 -0.4010606187031479 -0.4010592017139096 -0.401056009503729 -0.401059782145619 
1.817126409627579 -1.817144373342087 -1.817143277644105 -1.817094107449122 -1.817126815029714 -1.817125410964282 -1.817137893172878 
0.6748167125886594 -0.6748318795628362 -0.6748295655179027 -0.6748244696835621 -0.6748315578415731 -0.6748168439635792 -0.6748317221044651 
0.4010505633899134 -0.4010592928413508 -0.4010602119166192 -0.4010606187031479 -0.4010592017139096 -0.401056009503729 -0.401059782145619 
0.4010505633899134 -0.4010592928413508 -0.4010602119166192 -0.4010606187031479 -0.4010592017139096 -0.401056009503729 -0.401059782145619 
0.4010505633899134 -0.4010592928413508 -0.4010602119166192 -0.4010606187031479 -0.4010592017139096 -0.401056009503729 -0.401059782145619 
0.6748167125886594 -0.6748318795628362 -0.6748295655179027 -0.6748244696835621 -0.6748315578415731 -0.6748168439635792 -0.6748317221044651 
-0.4687279154535904 -0.2191954666783844 -0.1922429796195694 -0.09696741999636103 -0.1102690735282446 -0.232386736316654 1.582505801750715 
0.6748167125886594 -0.6748318795628362 -0.6748295655179027 -0.6748244696835621 -0.6748315578415731 -0.6748168439635792 -0.6748317221044651 
0.4010505633899134 -0.4010592928413508 -0.4010602119166192 -0.4010606187031479 -0.4010592017139096 -0.401056009503729 -0.401059782145619 
0.4010505633899134 -0.4010592928413508 -0.4010602119166192 -0.4010606187031479 -0.4010592017139096 -0.401056009503729 -0.401059782145619 
0.4010505633899134 -0.4010592928413508 -0.4010602119166192 -0.4010606187031479 -0.4010592017139096 -0.401056009503729 -0.401059782145619 
0.6748167125886594 -0.6748318795628362 -0.6748295655179027 -0.6748244696835621 -0.6748315578415731 -0.6748168439635792 -0.6748317221044651 
0.6748167125886594 -0.6748318795628362 -0.6748295655179027 -0.6748244696835621 -0.6748315578415731 -0.6748168439635792 -0.6748317221044651 
-0.4387326111821063 -0.5070151347939132 -0.4539638065676304 -0.2510942896488514 -0.2812552383557093 1.877963411696322 -0.2443526926421698 
-0.2715584736024393 0.7542429977285292 -0.104051042641258 -0.05066215268619275 -0.05792419892710609 -0.1274013376737158 -0.04907348961026063 
0.4010505633899134 -0.4010592928413508 -0.4010602119166192 -0.4010606187031479 -0.4010592017139096 -0.401056009503729 -0.401059782145619 
0.5429239469276361 -0.1196867782879502 -0.104051042641258 -0.05066215268619275 -0.05792419892710609 -0.1274013376737158 -0.04907348961026063 
-0.2715584736024393 -0.1196867782879502 -0.104051042641258 -0.05066215268619275 0.8658738957821178 -0.1274013376737158 -0.04907348961026063 
0.8796842918941252 -0.8797123120871266 -0.8797206095187823 -0.8797172863930913 -0.8797122261881961 -0.8796953559898226 -0.879712101395546 
0.4010505633899134 -0.4010592928413508 -0.4010602119166192 -0.4010606187031479 -0.4010592017139096 -0.401056009503729 -0.401059782145619 
0.4010505633899134 -0.4010592928413508 -0.4010602119166192 -0.4010606187031479 -0.4010592017139096 -0.401056009503729 -0.401059782145619 
0.5429239469276361 -0.1196867782879502 -0.104051042641258 -0.05066215268619275 -0.05792419892710609 -0.1274013376737158 -0.04907348961026063 
1.91922852042071 -1.919233238994833 -1.919256089359563 -1.919202660921706 -1.919223286874921 -1.919227252556801 -1.919224586551802 
0.5429239469276361 -0.1196867782879502 -0.104051042641258 -0.05066215268619275 -0.05792419892710609 -0.1274013376737158 -0.04907348961026063 
-0.2715584736024393 -0.1196867782879502 -0.104051042641258 -0.05066215268619275 -0.05792419892710609 -0.1274013376737158 0.8839706160633117 
0.6748167125886594 -0.6748318795628362 -0.6748295655179027 -0.6748244696835621 -0.6748315578415731 -0.6748168439635792 -0.6748317221044651 
0.4010505633899134 -0.4010592928413508 -0.4010602119166192 -0.4010606187031479 -0.4010592017139096 -0.401056009503729 -0.401059782145619 
0.2353615844746217 -0.2191954666783844 -0.1922429796195694 -0.09696741999636103 -0.1102690735282446 0.5525359595753704 -0.09403830248110213 
0.5429239469276361 -0.1196867782879502 -0.104051042641258 -0.05066215268619275 -0.05792419892710609 -0.1274013376737158 -0.04907348961026063 
0.9051945211410743 -0.2191954666783844 -0.1922429796195694 -0.09696741999636103 -0.1102690735282446 -0.232386736316654 -0.09403830248110213 
-0.2715584736024393 -0.1196867782879502 0.7804510810975854 -0.05066215268619275 -0.05792419892710609 -0.1274013376737158 -0.04907348961026063 
0.9051945211410743 -0.2191954666783844 -0.1922429796195694 -0.09696741999636103 -0.1102690735282446 -0.232386736316654 -0.09403830248110213 
0.4010505633899134 -0.4010592928413508 -0.4010602119166192 -0.4010606187031479 -0.4010592017139096 -0.401056009503729 -0.401059782145619 
0.4010505633899134 -0.4010592928413508 -0.4010602119166192 -0.4010606187031479 -0.4010592017139096 -0.401056009503729 -0.401059782145619 
0.4010505633899134 -0.4010592928413508 -0.4010602119166192 -0.4010606187031479 -0.4010592017139096 -0.401056009503729 -0.401059782145619 
0.4010505633899134 -0.4010592928413508 -0.4010602119166192 -0.4010606187031479 -0.4010592017139096 -0.401056009503729 -0.401059782145619 
0.592102981707427 -0.3046093329318574 -0.2689771268643139 0.6962928516152492 -0.1580887451203659 -0.3219287468966319 -0.1355797272685711 
0.4010505633899134 -0.4010592928413508 -0.4010602119166192 -0.4010606187031479 -0.4010592017139096 -0.401056009503729 -0.401059782145619 
0.9051945211410743 -0.2191954666783844 -0.1922429796195694 -0.09696741999636103 -0.1102690735282446 -0.232386736316654 -0.09403830248110213 
0.6748167125886594 -0.6748318795628362 -0.6748295655179027 -0.6748244696835621 -0.6748315578415731 -0.6748168439635792 -0.6748317221044651 
0.4010505633899134 -0.4010592928413508 -0.4010602119166192 -0.4010606187031479 -0.4010592017139096 -0.401056009503729 -0.401059782145619 
0.4010505633899134 -0.4010592928413508 -0.4010602119166192 -0.4010606187031479 -0.4010592017139096 -0.401056009503729 -0.401059782145619 
1.699635357427815 -1.699658723466896 -1.69963172347631 -1.699594704920708 -1.699637996195589 -1.699631073877704 -1.699654359250935 
0.4010505633899134 -0.4010592928413508 -0.4010602119166192 -0.4010606187031479 -0.4010592017139096 -0.401056009503729 -0.401059782145619 
0.6748167125886594 -0.6748318795628362 -0.6748295655179027 -0.6748244696835621 -0.6748315578415731 -0.6748168439635792 -0.6748317221044651 
-0.2715584736024393 0.7542429977285292 -0.104051042641258 -0.05066215268619275 -0.05792419892710609 -0.1274013376737158 -0.04907348961026063 
0.4010505633899134 -0.4010592928413508 -0.4010602119166192 -0.4010606187031479 -0.4010592017139096 -0.401056009503729 -0.401059782145619 
0.6748167125886594 -0.6748318795628362 -0.6748295655179027 -0.6748244696835621 -0.6748315578415731 -0.6748168439635792 -0.6748317221044651 
1.177503097715039 -1.177505171692748 -1.17750633747102 -1.177510472661501 -1.177503409626847 -1.177506232663603 -1.177504268967737 
-0.8703156427011011 -0.7456000088136661 -0.6764634278809604 -0.3992444909248404 -0.4421005414003582 2.54149313711662 -0.3895705541013519 
-0.2715584736024393 -0.1196867782879502 0.7804510810975854 -0.05066215268619275 -0.05792419892710609 -0.1274013376737158 -0.04907348961026063 
0.4010505633899134 -0.4010592928413508 -0.4010602119166192 -0.4010606187031479 -0.4010592017139096 -0.401056009503729 -0.401059782145619 
-0.1691694814301633 -0.37958903403411 -0.3370270226917529 -0.1792994567944242 -0.2021574028766977 -0.4001614583766235 1.920151477019761 
0.4010505633899134 -0.4010592928413508 -0.4010602119166192 -0.4010606187031479 -0.4010592017139096 -0.401056009503729 -0.401059782145619 
0.4010505633899134 -0.4010592928413508 -0.4010602119166192 -0.4010606187031479 -0.4010592017139096 -0.401056009503729 -0.401059782145619 
0.4010505633899134 -0.4010592928413508 -0.4010602119166192 -0.4010606187031479 -0.4010592017139096 -0.401056009503729 -0.401059782145619 
0.4010505633899134 -0.4010592928413508 -0.4010602119166192 -0.4010606187031479 -0.4010592017139096 -0.401056009503729 -0.401059782145619 
-0.2715584736024393 -0.1196867782879502 0.7804510810975854 -0.05066215268619275 -0.05792419892710609 -0.1274013376737158 -0.04907348961026063 
0.6748167125886594 -0.6748318795628362 -0.6748295655179027 -0.6748244696835621 -0.6748315578415731 -0.6748168439635792 -0.6748317221044651 
0.4010505633899134 -0.4010592928413508 -0.4010602119166192 -0.4010606187031479 -0.4010592017139096 -0.401056009503729 -0.401059782145619 
0.4010505633899134 -0.4010592928413508 -0.4010602119166192 -0.4010606187031479 -0.4010592017139096 -0.401056009503729 -0.401059782145619 
0.4010505633899134 -0.4010592928413508 -0.4010602119166192 -0.4010606187031479 -0.4010592017139096 -0.401056009503729 -0.401059782145619 
-0.6232964541186914 0.4286288049099612 1.138957690640433 -0.1396585200249386 -0.1580887451203659 -0.3219287468966319 -0.1355797272685711 
0.4010505633899134 -0.4010592928413508 -0.4010602119166192 -0.4010606187031479 -0.4010592017139096 -0.401056009503729 -0.401059782145619 
-1.973384997426341 -1.274107373177775 -1.18041919172744 1.544321128108188 -0.8444471519091411 2.470000768007786 -0.7636781140208945 
-0.2715584736024393 -0.1196867782879502 -0.104051042641258 -0.05066215268619275 -0.05792419892710609 0.7416776662480304 -0.04907348961026063 
0.8796842918941252 -0.8797123120871266 -0.8797206095187823 -0.8797172863930913 -0.8797122261881961 -0.8796953559898226 -0.879712101395546 
1.699635357427815 -1.699658723466896 -1.69963172347631 -1.699594704920708 -1.699637996195589 -1.699631073877704 -1.699654359250935 
0.5429239469276361 -0.1196867782879502 -0.104051042641258 -0.05066215268619275 -0.05792419892710609 -0.1274013376737158 -0.04907348961026063 
0.4010505633899134 -0.4010592928413508 -0.4010602119166192 -0.4010606187031479 -0.4010592017139096 -0.401056009503729 -0.401059782145619 
3.374943767626249 -3.37494994049146 -3.374925545673628 -3.37494053981951 -3.374942842748152 -3.374942250251671 -3.374960846382485 
0.5429239469276361 -0.1196867782879502 -0.104051042641258 -0.05066215268619275 -0.05792419892710609 -0.1274013376737158 -0.04907348961026063 
0.2353615844746217 -0.2191954666783844 -0.1922429796195694 -0.09696741999636103 -0.1102690735282446 0.5525359595753704 -0.09403830248110213 
0.6748167125886594 -0.6748318795628362 -0.6748295655179027 -0.6748244696835621 -0.6748315578415731 -0.6748168439635792 -0.6748317221044651 
0.4010505633899134 -0.4010592928413508 -0.4010602119166192 -0.4010606187031479 -0.4010592017139096 -0.401056009503729 -0.401059782145619 
0.5429239469276361 -0.1196867782879502 -0.104051042641258 -0.05066215268619275 -0.05792419892710609 -0.1274013376737158 -0.04907348961026063 
-0.2715584736024393 -0.1196867782879502 0.7804510810975854 -0.05066215268619275 -0.05792419892710609 -0.1274013376737158 -0.04907348961026063 
1.177503097715039 -1.177505171692748 -1.17750633747102 -1.177510472661501 -1.177503409626847 -1.177506232663603 -1.177504268967737 
0.6748167125886594 -0.6748318795628362 -0.6748295655179027 -0.6748244696835621 -0.6748315578415731 -0.6748168439635792 -0.6748317221044651 
-0.2715584736024393 -0.1196867782879502 -0.104051042641258 -0.05066215268619275 0.8658738957821178 -0.1274013376737158 -0.04907348961026063 
-0.2715584736024393 0.7542429977285292 -0.104051042641258 -0.05066215268619275 -0.05792419892710609 -0.1274013376737158 -0.04907348961026063 
0.5429239469276361 -0.1196867782879502 -0.104051042641258 -0.05066215268619275 -0.05792419892710609 -0.1274013376737158 -0.04907348961026063 
1.177503097715039 -1.177505171692748 -1.17750633747102 -1.177510472661501 -1.177503409626847 -1.177506232663603 -1.177504268967737 
0.5429239469276361 -0.1196867782879502 -0.104051042641258 -0.05066215268619275 -0.05792419892710609 -0.1274013376737158 -0.04907348961026063 
0.4010505633899134 -0.4010592928413508 -0.4010602119166192 -0.4010606187031479 -0.4010592017139096 -0.401056009503729 -0.401059782145619 
0.8796842918941252 -0.8797123120871266 -0.8797206095187823 -0.8797172863930913 -0.8797122261881961 -0.8796953559898226 -0.879712101395546 
1.481552480158063 -1.481561330639618 -1.481519696280242 -1.481510139758417 -1.481547734663674 -1.481540800387849 -1.481559763093828 
-0.2715584736024393 -0.1196867782879502 -0.104051042641258 -0.05066215268619275 0.8658738957821178 -0.1274013376737158 -0.04907348961026063 
-0.2715584736024393 -0.1196867782879502 -0.104051042641258 -0.05066215268619275 0.8658738957821178 -0.1274013376737158 -0.04907348961026063 
0.4010505633899134 -0.4010592928413508 -0.4010602119166192 -0.4010606187031479 -0.4010592017139096 -0.401056009503729 -0.401059782145619 
0.8796842918941252 -0.8797123120871266 -0.8797206095187823 -0.8797172863930913 -0.8797122261881961 -0.8796953559898226 -0.879712101395546 
0.4010505633899134 -0.4010592928413508 -0.4010602119166192 -0.4010606187031479 -0.4010592017139096 -0.401056009503729 -0.401059782145619 
0.5429239469276361 -0.1196867782879502 -0.104051042641258 -0.05066215268619275 -0.05792419892710609 -0.1274013376737158 -0.04907348961026063 
-0.2715584736024393 -0.1196867782879502 -0.104051042641258 -0.05066215268619275 -0.05792419892710609 0.7416776662480304 -0.04907348961026063 
0.4010505633899134 -0.4010592928413508 -0.4010602119166192 -0.4010606187031479 -0.4010592017139096 -0.401056009503729 -0.401059782145619 
0.4010505633899134 -0.4010592928413508 -0.4010602119166192 -0.4010606187031479 -0.4010592017139096 -0.401056009503729 -0.401059782145619 
0.8796842918941252 -0.8797123120871266 -0.8797206095187823 -0.8797172863930913 -0.8797122261881961 -0.8796953559898226 -0.879712101395546 
0.4010505633899134 -0.4010592928413508 -0.4010602119166192 -0.4010606187031479 -0.4010592017139096 -0.401056009503729 -0.401059782145619 
0.4010505633899134 -0.4010592928413508 -0.4010602119166192 -0.4010606187031479 -0.4010592017139096 -0.401056009503729 -0.401059782145619 
0.4010505633899134 -0.4010592928413508 -0.4010602119166192 -0.4010606187031479 -0.4010592017139096 -0.401056009503729 -0.401059782145619 
0.8796842918941252 -0.8797123120871266 -0.8797206095187823 -0.8797172863930913 -0.8797122261881961 -0.8796953559898226 -0.879712101395546 
-0.6232964541186914 1.660648694237014 -0.2689771268643139 -0.1396585200249386 -0.1580887451203659 -0.3219287468966319 -0.1355797272685711 
-0.6232964541186914 1.660648694237014 -0.2689771268643139 -0.1396585200249386 -0.1580887451203659 -0.3219287468966319 -0.1355797272685711 
0.4010505633899134 -0.4010592928413508 -0.4010602119166192 -0.4010606187031479 -0.4010592017139096 -0.401056009503729 -0.401059782145619 
0.4010505633899134 -0.4010592928413508 -0.4010602119166192 -0.4010606187031479 -0.4010592017139096 -0.401056009503729 -0.401059782145619 
0.4010505633899134 -0.4010592928413508 -0.4010602119166192 -0.4010606187031479 -0.4010592017139096 -0.401056009503729 -0.401059782145619 
-0.7504459887974344 -0.37958903403411 2.024437664151433 -0.1792994567944242 -0.2021574028766977 -0.4001614583766235 -0.1742207452884658 
0.4010505633899134 -0.4010592928413508 -0.4010602119166192 -0.4010606187031479 -0.4010592017139096 -0.401056009503729 -0.401059782145619 
0.6748167125886594 -0.6748318795628362 -0.6748295655179027 -0.6748244696835621 -0.6748315578415731 -0.6748168439635792 -0.6748317221044651 
0.8796842918941252 -0.8797123120871266 -0.8797206095187823 -0.8797172863930913 -0.8797122261881961 -0.8796953559898226 -0.879712101395546 
0.5429239469276361 -0.1196867782879502 -0.104051042641258 -0.05066215268619275 -0.05792419892710609 -0.1274013376737158 -0.04907348961026063 
0.4010505633899134 -0.4010592928413508 -0.4010602119166192 -0.4010606187031479 -0.4010592017139096 -0.401056009503729 -0.401059782145619 
0.4010505633899134 -0.4010592928413508 -0.4010602119166192 -0.4010606187031479 -0.4010592017139096 -0.401056009503729 -0.401059782145619 
0.4010505633899134 -0.4010592928413508 -0.4010602119166192 -0.4010606187031479 -0.4010592017139096 -0.401056009503729 -0.401059782145619 
0.4010505633899134 -0.4010592928413508 -0.4010602119166192 -0.4010606187031479 -0.4010592017139096 -0.401056009503729 -0.401059782145619 
0.4010505633899134 -0.4010592928413508 -0.4010602119166192 -0.4010606187031479 -0.4010592017139096 -0.401056009503729 -0.401059782145619 
0.4010505633899134 -0.4010592928413508 -0.4010602119166192 -0.4010606187031479 -0.4010592017139096 -0.401056009503729 -0.401059782145619 
0.4010505633899134 -0.4010592928413508 -0.4010602119166192 -0.4010606187031479 -0.4010592017139096 -0.401056009503729 -0.401059782145619 
0.6748167125886594 -0.6748318795628362 -0.6748295655179027 -0.6748244696835621 -0.6748315578415731 -0.6748168439635792 -0.6748317221044651 
0.4010505633899134 -0.4010592928413508 -0.4010602119166192 -0.4010606187031479 -0.4010592017139096 -0.401056009503729 -0.401059782145619 
0.8796842918941252 -0.8797123120871266 -0.8797206095187823 -0.8797172863930913 -0.8797122261881961 -0.8796953559898226 -0.879712101395546 
0.4010505633899134 -0.4010592928413508 -0.4010602119166192 -0.4010606187031479 -0.4010592017139096 -0.401056009503729 -0.401059782145619 
1.177503097715039 -1.177505171692748 -1.17750633747102 -1.177510472661501 -1.177503409626847 -1.177506232663603 -1.177504268967737 
0.4010505633899134 -0.4010592928413508 -0.4010602119166192 -0.4010606187031479 -0.4010592017139096 -0.401056009503729 -0.401059782145619 
-0.4687279154535904 -0.2191954666783844 0.6150004831804994 -0.09696741999636103 -0.1102690735282446 -0.232386736316654 0.7871553653843444 
1.042580553435523 -1.042596577009934 -1.042608687583916 -1.042609871630706 -1.042596018150822 -1.042591864612327 -1.042595749410701 
0.6748167125886594 -0.6748318795628362 -0.6748295655179027 -0.6748244696835621 -0.6748315578415731 -0.6748168439635792 -0.6748317221044651 
1.177503097715039 -1.177505171692748 -1.17750633747102 -1.177510472661501 -1.177503409626847 -1.177506232663603 -1.177504268967737 
0.4010505633899134 -0.4010592928413508 -0.4010602119166192 -0.4010606187031479 -0.4010592017139096 -0.401056009503729 -0.401059782145619 
3.503959517819499 -3.50396557688989 -3.503953066269828 -3.503960373889453 -3.503958968786693 -3.503960326197336 -3.503973819998337 
0.6748167125886594 -0.6748318795628362 -0.6748295655179027 -0.6748244696835621 -0.6748315578415731 -0.6748168439635792 -0.6748317221044651 
0.4010505633899134 -0.4010592928413508 -0.4010602119166192 -0.4010606187031479 -0.4010592017139096 -0.401056009503729 -0.401059782145619 
-0.2715584736024393 -0.1196867782879502 -0.104051042641258 -0.05066215268619275 -0.05792419892710609 -0.1274013376737158 0.8839706160633117 
0.4010505633899134 -0.4010592928413508 -0.4010602119166192 -0.4010606187031479 -0.4010592017139096 -0.401056009503729 -0.401059782145619 
0.5429239469276361 -0.1196867782879502 -0.104051042641258 -0.05066215268619275 -0.05792419892710609 -0.1274013376737158 -0.04907348961026063 
-0.2715584736024393 0.7542429977285292 -0.104051042641258 -0.05066215268619275 -0.05792419892710609 -0.1274013376737158 -0.04907348961026063 
0.6748167125886594 -0.6748318795628362 -0.6748295655179027 -0.6748244696835621 -0.6748315578415731 -0.6748168439635792 -0.6748317221044651 
0.4010505633899134 -0.4010592928413508 -0.4010602119166192 -0.4010606187031479 -0.4010592017139096 -0.401056009503729 -0.401059782145619 
-0.4387326111821063 -0.5070151347939132 -0.4539638065676304 2.525663176416334 -0.2812552383557093 -0.5324519706948828 -0.2443526926421698 
-0.2715584736024393 -0.1196867782879502 -0.104051042641258 -0.05066215268619275 -0.05792419892710609 0.7416776662480304 -0.04907348961026063 
-0.2715584736024393 -0.1196867782879502 0.7804510810975854 -0.05066215268619275 -0.05792419892710609 -0.1274013376737158 -0.04907348961026063 
1.561231451172968 -1.561247843823356 -1.561205119954546 -1.561186198344471 -1.561230352015674 -1.561221463487787 -1.561245449748421 
-0.4010505633899134 -0.4010592928413508 -0.4010602119166192 -0.4010606187031479 0.4010592017139096 -0.401056009503729 -0.401059782145619 
0.5429239469276361 -0.1196867782879502 -0.104051042641258 -0.05066215268619275 -0.05792419892710609 -0.1274013376737158 -0.04907348961026063 
-0.2715584736024393 -0.1196867782879502 -0.104051042641258 -0.05066215268619275 -0.05792419892710609 -0.1274013376737158 0.8839706160633117 
0.6748167125886594 -0.6748318795628362 -0.6748295655179027 -0.6748244696835621 -0.6748315578415731 -0.6748168439635792 -0.6748317221044651 
0.4010505633899134 -0.4010592928413508 -0.4010602119166192 -0.4010606187031479 -0.4010592017139096 -0.401056009503729 -0.401059782145619 
0.6748167125886594 -0.6748318795628362 -0.6748295655179027 -0.6748244696835621 -0.6748315578415731 -0.6748168439635792 -0.6748317221044651 
1.292544765273352 -1.292542185106164 -1.292525433385472 -1.292528671850503 -1.292537534324456 -1.292539214580559 -1.292541378305161 
0.8796842918941252 -0.8797123120871266 -0.8797206095187823 -0.8797172863930913 -0.8797122261881961 -0.8796953559898226 -0.879712101395546 
-0.2715584736024393 -0.1196867782879502 -0.104051042641258 -0.05066215268619275 -0.05792419892710609 0.7416776662480304 -0.04907348961026063 
-0.2715584736024393 -0.1196867782879502 -0.104051042641258 0.8806446958591204 -0.05792419892710609 -0.1274013376737158 -0.04907348961026063 
0.4010505633899134 -0.4010592928413508 -0.4010602119166192 -0.4010606187031479 -0.4010592017139096 -0.401056009503729 -0.401059782145619 
0.5429239469276361 -0.1196867782879502 -0.104051042641258 -0.05066215268619275 -0.05792419892710609 -0.1274013376737158 -0.04907348961026063 
0.4010505633899134 -0.4010592928413508 -0.4010602119166192 -0.4010606187031479 -0.4010592017139096 -0.401056009503729 -0.401059782145619 
-0.2715584736024393 -0.1196867782879502 -0.104051042641258 -0.05066215268619275 -0.05792419892710609 0.7416776662480304 -0.04907348961026063 
1.561231451172968 -1.561247843823356 -1.561205119954546 -1.561186198344471 -1.561230352015674 -1.561221463487787 -1.561245449748421 
0.3556405053864928 0.9027809680129885 -0.3370270226917529 -0.1792994567944242 -0.2021574028766977 -0.4001614583766235 -0.1742207452884658 
-0.2715584736024393 -0.1196867782879502 0.7804510810975854 -0.05066215268619275 -0.05792419892710609 -0.1274013376737158 -0.04907348961026063 
0.4010505633899134 -0.4010592928413508 -0.4010602119166192 -0.4010606187031479 -0.4010592017139096 -0.401056009503729 -0.401059782145619 
0.4010505633899134 -0.4010592928413508 -0.4010602119166192 -0.4010606187031479 -0.4010592017139096 -0.401056009503729 -0.401059782145619 
0.4010505633899134 -0.4010592928413508 -0.4010602119166192 -0.4010606187031479 -0.4010592017139096 -0.401056009503729 -0.401059782145619 
1.965680788867578 -1.965677633991618 -1.965709792968583 -1.96565698037762 -1.965672382214052 -1.965678530375019 -1.965667927986451 
1.042580553435523 -1.042596577009934 -1.042608687583916 -1.042609871630706 -1.042596018150822 -1.042591864612327 -1.042595749410701 
-0.4687279154535904 0.5726784410938655 0.6150004831804994 -0.09696741999636103 -0.1102690735282446 -0.232386736316654 -0.09403830248110213 
0.4010505633899134 -0.4010592928413508 -0.4010602119166192 -0.4010606187031479 -0.4010592017139096 -0.401056009503729 -0.401059782145619 
0.2353615844746217 0.5726784410938655 -0.1922429796195694 -0.09696741999636103 -0.1102690735282446 -0.232386736316654 -0.09403830248110213 
0.6748167125886594 -0.6748318795628362 -0.6748295655179027 -0.6748244696835621 -0.6748315578415731 -0.6748168439635792 -0.6748317221044651 
0.5429239469276361 -0.1196867782879502 -0.104051042641258 -0.05066215268619275 -0.05792419892710609 -0.1274013376737158 -0.04907348961026063 
0.5429239469276361 -0.1196867782879502 -0.104051042641258 -0.05066215268619275 -0.05792419892710609 -0.1274013376737158 -0.04907348961026063 
-0.2715584736024393 -0.1196867782879502 -0.104051042641258 -0.05066215268619275 -0.05792419892710609 0.7416776662480304 -0.04907348961026063 
0.6748167125886594 -0.6748318795628362 -0.6748295655179027 -0.6748244696835621 -0.6748315578415731 -0.6748168439635792 -0.6748317221044651 
0.4010505633899134 -0.4010592928413508 -0.4010602119166192 -0.4010606187031479 -0.4010592017139096 -0.401056009503729 -0.401059782145619 
0.8796842918941252 -0.8797123120871266 -0.8797206095187823 -0.8797172863930913 -0.8797122261881961 -0.8796953559898226 -0.879712101395546 
0.4010505633899134 -0.4010592928413508 -0.4010602119166192 -0.4010606187031479 -0.4010592017139096 -0.401056009503729 -0.401059782145619 
1.042580553435523 -1.042596577009934 -1.042608687583916 -1.042609871630706 -1.042596018150822 -1.042591864612327 -1.042595749410701 
0.4010505633899134 -0.4010592928413508 -0.4010602119166192 -0.4010606187031479 -0.4010592017139096 -0.401056009503729 -0.401059782145619 
0.4010505633899134 -0.4010592928413508 -0.4010602119166192 -0.4010606187031479 -0.4010592017139096 -0.401056009503729 -0.401059782145619 
-0.2715584736024393 0.7542429977285292 -0.104051042641258 -0.05066215268619275 -0.05792419892710609 -0.1274013376737158 -0.04907348961026063 
1.177503097715039 -1.177505171692748 -1.17750633747102 -1.177510472661501 -1.177503409626847 -1.177506232663603 -1.177504268967737 
0.6748167125886594 -0.6748318795628362 -0.6748295655179027 -0.6748244696835621 -0.6748315578415731 -0.6748168439635792 -0.6748317221044651 
0.5429239469276361 -0.1196867782879502 -0.104051042641258 -0.05066215268619275 -0.05792419892710609 -0.1274013376737158 -0.04907348961026063 
0.4010505633899134 -0.4010592928413508 -0.4010602119166192 -0.4010606187031479 -0.4010592017139096 -0.401056009503729 -0.401059782145619 
0.6748167125886594 -0.6748318795628362 -0.6748295655179027 -0.6748244696835621 -0.6748315578415731 -0.6748168439635792 -0.6748317221044651 
0.5429239469276361 -0.1196867782879502 -0.104051042641258 -0.05066215268619275 -0.05792419892710609 -0.1274013376737158 -0.04907348961026063 
1.292544765273352 -1.292542185106164 -1.292525433385472 -1.292528671850503 -1.292537534324456 -1.292539214580559 -1.292541378305161 
0.8796842918941252 -0.8797123120871266 -0.8797206095187823 -0.8797172863930913 -0.8797122261881961 -0.8796953559898226 -0.879712101395546 
0.4010505633899134 -0.4010592928413508 -0.4010602119166192 -0.4010606187031479 -0.4010592017139096 -0.401056009503729 -0.401059782145619 
0.4010505633899134 -0.4010592928413508 -0.4010602119166192 -0.4010606187031479 -0.4010592017139096 -0.401056009503729 -0.401059782145619 
-0.2715584736024393 -0.1196867782879502 -0.104051042641258 -0.05066215268619275 -0.05792419892710609 0.7416776662480304 -0.04907348961026063 
0.4010505633899134 -0.4010592928413508 -0.4010602119166192 -0.4010606187031479 -0.4010592017139096 -0.401056009503729 -0.401059782145619 
0.4010505633899134 -0.4010592928413508 -0.4010602119166192 -0.4010606187031479 -0.4010592017139096 -0.401056009503729 -0.401059782145619 
0.4010505633899134 -0.4010592928413508 -0.4010602119166192 -0.4010606187031479 -0.4010592017139096 -0.401056009503729 -0.401059782145619 
0.4010505633899134 -0.4010592928413508 -0.4010602119166192 -0.4010606187031479 -0.4010592017139096 -0.401056009503729 -0.401059782145619 
0.4010505633899134 -0.4010592928413508 -0.4010602119166192 -0.4010606187031479 -0.4010592017139096 -0.401056009503729 -0.401059782145619 
0.4010505633899134 -0.4010592928413508 -0.4010602119166192 -0.4010606187031479 -0.4010592017139096 -0.401056009503729 -0.401059782145619 
-2.152087226858633 -1.423708380529518 -1.324946470954905 -0.8961023190671132 4.738142936083857 -1.469750265437189 -0.8797671269073447 
0.4010505633899134 -0.4010592928413508 -0.4010602119166192 -0.4010606187031479 -0.4010592017139096 -0.401056009503729 -0.401059782145619 
-1.487668096615808 -1.153325854176804 -1.064244575755111 1.392391748264488 3.116996245222671 -1.195070451479207 -0.6728498984764129 
0.4010505633899134 -0.4010592928413508 -0.4010602119166192 -0.4010606187031479 -0.4010592017139096 -0.401056009503729 -0.401059782145619 
0.5429239469276361 -0.1196867782879502 -0.104051042641258 -0.05066215268619275 -0.05792419892710609 -0.1274013376737158 -0.04907348961026063 
0.4010505633899134 -0.4010592928413508 -0.4010602119166192 -0.4010606187031479 -0.4010592017139096 -0.401056009503729 -0.401059782145619 
-0.7504459887974344 1.434320662399995 0.3706612615230933 -0.1792994567944242 -0.2021574028766977 -0.4001614583766235 -0.1742207452884658 
0.5429239469276361 -0.1196867782879502 -0.104051042641258 -0.05066215268619275 -0.05792419892710609 -0.1274013376737158 -0.04907348961026063 
0.8796842918941252 -0.8797123120871266 -0.8797206095187823 -0.8797172863930913 -0.8797122261881961 -0.8796953559898226 -0.879712101395546 
0.6748167125886594 -0.6748318795628362 -0.6748295655179027 -0.6748244696835621 -0.6748315578415731 -0.6748168439635792 -0.6748317221044651 
-0.4687279154535904 1.286397656813981 -0.1922429796195694 -0.09696741999636103 -0.1102690735282446 -0.232386736316654 -0.09403830248110213 
0.4010505633899134 -0.4010592928413508 -0.4010602119166192 -0.4010606187031479 -0.4010592017139096 -0.401056009503729 -0.401059782145619 
0.4010505633899134 -0.4010592928413508 -0.4010602119166192 -0.4010606187031479 -0.4010592017139096 -0.401056009503729 -0.401059782145619 
0.5429239469276361 -0.1196867782879502 -0.104051042641258 -0.05066215268619275 -0.05792419892710609 -0.1274013376737158 -0.04907348961026063 
0.5429239469276361 -0.1196867782879502 -0.104051042641258 -0.05066215268619275 -0.05792419892710609 -0.1274013376737158 -0.04907348961026063 
0.8796842918941252 -0.8797123120871266 -0.8797206095187823 -0.8797172863930913 -0.8797122261881961 -0.8796953559898226 -0.879712101395546 
0.4010505633899134 -0.4010592928413508 -0.4010602119166192 -0.4010606187031479 -0.4010592017139096 -0.401056009503729 -0.401059782145619 
1.042580553435523 -1.042596577009934 -1.042608687583916 -1.042609871630706 -1.042596018150822 -1.042591864612327 -1.042595749410701 
0.4010505633899134 -0.4010592928413508 -0.4010602119166192 -0.4010606187031479 -0.4010592017139096 -0.401056009503729 -0.401059782145619 
0.6748167125886594 -0.6748318795628362 -0.6748295655179027 -0.6748244696835621 -0.6748315578415731 -0.6748168439635792 -0.6748317221044651 
2.737059194618169 -2.737020998771009 -2.736967379998117 -2.737019810990883 -2.737045363370803 -2.737046050197661 -2.737022512177413 
-0.2715584736024393 -0.1196867782879502 0.7804510810975854 -0.05066215268619275 -0.05792419892710609 -0.1274013376737158 -0.04907348961026063 
0.5429239469276361 -0.1196867782879502 -0.104051042641258 -0.05066215268619275 -0.05792419892710609 -0.1274013376737158 -0.04907348961026063 
1.042580553435523 -1.042596577009934 -1.042608687583916 -1.042609871630706 -1.042596018150822 -1.042591864612327 -1.042595749410701 
0.9051945211410743 -0.2191954666783844 -0.1922429796195694 -0.09696741999636103 -0.1102690735282446 -0.232386736316654 -0.09403830248110213 
0.8796842918941252 -0.8797123120871266 -0.8797206095187823 -0.8797172863930913 -0.8797122261881961 -0.8796953559898226 -0.879712101395546 
0.4010505633899134 -0.4010592928413508 -0.4010602119166192 -0.4010606187031479 -0.4010592017139096 -0.401056009503729 -0.401059782145619 
-1.035654792068783 -0.5622724408443202 -0.5051186478812397 -0.2838769184302939 -0.317100393521176 2.428898356469521 -0.2764329823096232 
1.042580553435523 -1.042596577009934 -1.042608687583916 -1.042609871630706 -1.042596018150822 -1.042591864612327 -1.042595749410701 
1.177503097715039 -1.177505171692748 -1.17750633747102 -1.177510472661501 -1.177503409626847 -1.177506232663603 -1.177504268967737 
1.177503097715039 -1.177505171692748 -1.17750633747102 -1.177510472661501 -1.177503409626847 -1.177506232663603 -1.177504268967737 
0.4010505633899134 -0.4010592928413508 -0.4010602119166192 -0.4010606187031479 -0.4010592017139096 -0.401056009503729 -0.401059782145619 
0.6748167125886594 -0.6748318795628362 -0.6748295655179027 -0.6748244696835621 -0.6748315578415731 -0.6748168439635792 -0.6748317221044651 
1.368704015538171 -0.37958903403411 -0.3370270226917529 -0.1792994567944242 -0.2021574028766977 -0.4001614583766235 -0.1742207452884658 
0.4010505633899134 -0.4010592928413508 -0.4010602119166192 -0.4010606187031479 -0.4010592017139096 -0.401056009503729 -0.401059782145619 
0.2353615844746217 0.5726784410938655 -0.1922429796195694 -0.09696741999636103 -0.1102690735282446 -0.232386736316654 -0.09403830248110213 
0.6748167125886594 -0.6748318795628362 -0.6748295655179027 -0.6748244696835621 -0.6748315578415731 -0.6748168439635792 -0.6748317221044651 
0.4010505633899134 -0.4010592928413508 -0.4010602119166192 -0.4010606187031479 -0.4010592017139096 -0.401056009503729 -0.401059782145619 
-0.2715584736024393 -0.1196867782879502 0.7804510810975854 -0.05066215268619275 -0.05792419892710609 -0.1274013376737158 -0.04907348961026063 
3.367144860657904 -3.367151924970808 -3.367126808645183 -3.367142297070041 -3.367144861297826 -3.367144151459396 -3.367162968763598 
1.042580553435523 -1.042596577009934 -1.042608687583916 -1.042609871630706 -1.042596018150822 -1.042591864612327 -1.042595749410701 
-0.6232964541186914 1.660648694237014 -0.2689771268643139 -0.1396585200249386 -0.1580887451203659 -0.3219287468966319 -0.1355797272685711 
3.455612962682593 -1.642140718179528 -1.5370216739696 -1.073391654999482 -1.151014138010184 -1.691022712426559 -1.055442923333453 
-0.4687279154535904 0.5726784410938655 0.6150004831804994 -0.09696741999636103 -0.1102690735282446 -0.232386736316654 -0.09403830248110213 
0.8796842918941252 -0.8797123120871266 -0.8797206095187823 -0.8797172863930913 -0.8797122261881961 -0.8796953559898226 -0.879712101395546 
0.4010505633899134 -0.4010592928413508 -0.4010602119166192 -0.4010606187031479 -0.4010592017139096 -0.401056009503729 -0.401059782145619 
0.4010505633899134 -0.4010592928413508 -0.4010602119166192 -0.4010606187031479 -0.4010592017139096 -0.401056009503729 -0.401059782145619 
0.4010505633899134 -0.4010592928413508 -0.4010602119166192 -0.4010606187031479 -0.4010592017139096 -0.401056009503729 -0.401059782145619 
0.8796842918941252 -0.8797123120871266 -0.8797206095187823 -0.8797172863930913 -0.8797122261881961 -0.8796953559898226 -0.879712101395546 
-0.4010505633899134 -0.4010592928413508 -0.4010602119166192 -0.4010606187031479 -0.4010592017139096 -0.401056009503729 0.401059782145619 
0.4010505633899134 -0.4010592928413508 -0.4010602119166192 -0.4010606187031479 -0.4010592017139096 -0.401056009503729 -0.401059782145619 
0.4010505633899134 -0.4010592928413508 -0.4010602119166192 -0.4010606187031479 -0.4010592017139096 -0.401056009503729 -0.401059782145619 
0.4010505633899134 -0.4010592928413508 -0.4010602119166192 -0.4010606187031479 -0.4010592017139096 -0.401056009503729 -0.401059782145619 
0.4010505633899134 -0.4010592928413508 -0.4010602119166192 -0.4010606187031479 -0.4010592017139096 -0.401056009503729 -0.401059782145619 
0.4010505633899134 -0.4010592928413508 -0.4010602119166192 -0.4010606187031479 -0.4010592017139096 -0.401056009503729 -0.401059782145619 
-0.2715584736024393 -0.1196867782879502 0.7804510810975854 -0.05066215268619275 -0.05792419892710609 -0.1274013376737158 -0.04907348961026063 
1.042580553435523 -1.042596577009934 -1.042608687583916 -1.042609871630706 -1.042596018150822 -1.042591864612327 -1.042595749410701 
1.292544765273352 -1.292542185106164 -1.292525433385472 -1.292528671850503 -1.292537534324456 -1.292539214580559 -1.292541378305161 
2.877386970285162 -2.877349549843338 -2.877289289119016 -2.877339003639872 -2.877362601359831 -2.877359388410614 -2.877356642098387 
0.6748167125886594 -0.6748318795628362 -0.6748295655179027 -0.6748244696835621 -0.6748315578415731 -0.6748168439635792 -0.6748317221044651 
-0.4010505633899134 -0.4010592928413508 -0.4010602119166192 -0.4010606187031479 -0.4010592017139096 -0.401056009503729 0.401059782145619 
-0.2715584736024393 -0.1196867782879502 0.7804510810975854 -0.05066215268619275 -0.05792419892710609 -0.1274013376737158 -0.04907348961026063 
0.6748167125886594 -0.6748318795628362 -0.6748295655179027 -0.6748244696835621 -0.6748315578415731 -0.6748168439635792 -0.6748317221044651 
-0.2715584736024393 0.7542429977285292 -0.104051042641258 -0.05066215268619275 -0.05792419892710609 -0.1274013376737158 -0.04907348961026063 
-0.2715584736024393 0.7542429977285292 -0.104051042641258 -0.05066215268619275 -0.05792419892710609 -0.1274013376737158 -0.04907348961026063 
0.6748167125886594 -0.6748318795628362 -0.6748295655179027 -0.6748244696835621 -0.6748315578415731 -0.6748168439635792 -0.6748317221044651 
0.4010505633899134 -0.4010592928413508 -0.4010602119166192 -0.4010606187031479 -0.4010592017139096 -0.401056009503729 -0.401059782145619 
1.561231451172968 -1.561247843823356 -1.561205119954546 -1.561186198344471 -1.561230352015674 -1.561221463487787 -1.561245449748421 
-0.2715584736024393 -0.1196867782879502 -0.104051042641258 -0.05066215268619275 0.8658738957821178 -0.1274013376737158 -0.04907348961026063 
-0.2715584736024393 -0.1196867782879502 -0.104051042641258 -0.05066215268619275 -0.05792419892710609 0.7416776662480304 -0.04907348961026063 
-0.4687279154535904 1.286397656813981 -0.1922429796195694 -0.09696741999636103 -0.1102690735282446 -0.232386736316654 -0.09403830248110213 
1.292544765273352 -1.292542185106164 -1.292525433385472 -1.292528671850503 -1.292537534324456 -1.292539214580559 -1.292541378305161 
0.4010505633899134 -0.4010592928413508 -0.4010602119166192 -0.4010606187031479 -0.4010592017139096 -0.401056009503729 -0.401059782145619 
0.5429239469276361 -0.1196867782879502 -0.104051042641258 -0.05066215268619275 -0.05792419892710609 -0.1274013376737158 -0.04907348961026063 
-0.2715584736024393 -0.1196867782879502 -0.104051042641258 -0.05066215268619275 0.8658738957821178 -0.1274013376737158 -0.04907348961026063 
2.16389844049458 -2.163860228544921 -2.16390793486569 -2.163876113852977 -2.163878644146163 -2.163890758588611 -2.163846818945108 
-1.11029769878915 -0.6131589751394032 -0.5524408560960838 0.3883426401580452 -0.3508880019245537 2.201430756639918 -0.3068277675907221 
-0.2715584736024393 -0.1196867782879502 0.7804510810975854 -0.05066215268619275 -0.05792419892710609 -0.1274013376737158 -0.04907348961026063 
1.760590864359998 -1.760612865503771 -1.760598470547772 -1.760554419250779 -1.760593013653489 -1.760588705650357 -1.760607455945468 
-0.2715584736024393 -0.1196867782879502 0.7804510810975854 -0.05066215268619275 -0.05792419892710609 -0.1274013376737158 -0.04907348961026063 
0.4010505633899134 -0.4010592928413508 -0.4010602119166192 -0.4010606187031479 -0.4010592017139096 -0.401056009503729 -0.401059782145619 
0.6748167125886594 -0.6748318795628362 -0.6748295655179027 -0.6748244696835621 -0.6748315578415731 -0.6748168439635792 -0.6748317221044651 
0.5429239469276361 -0.1196867782879502 -0.104051042641258 -0.05066215268619275 -0.05792419892710609 -0.1274013376737158 -0.04907348961026063 
0.4010505633899134 -0.4010592928413508 -0.4010602119166192 -0.4010606187031479 -0.4010592017139096 -0.401056009503729 -0.401059782145619 
-0.2715584736024393 -0.1196867782879502 -0.104051042641258 -0.05066215268619275 -0.05792419892710609 0.7416776662480304 -0.04907348961026063 
0.4010505633899134 -0.4010592928413508 -0.4010602119166192 -0.4010606187031479 -0.4010592017139096 -0.401056009503729 -0.401059782145619 
0.5429239469276361 -0.1196867782879502 -0.104051042641258 -0.05066215268619275 -0.05792419892710609 -0.1274013376737158 -0.04907348961026063 
-0.2715584736024393 -0.1196867782879502 -0.104051042641258 -0.05066215268619275 -0.05792419892710609 0.7416776662480304 -0.04907348961026063 
1.786271867281704 -0.5622724408443202 -0.5051186478812397 -0.2838769184302939 -0.317100393521176 -0.5895963381740428 -0.2764329823096232 
0.4010505633899134 -0.4010592928413508 -0.4010602119166192 -0.4010606187031479 -0.4010592017139096 -0.401056009503729 -0.401059782145619 
-0.2715584736024393 -0.1196867782879502 0.7804510810975854 -0.05066215268619275 -0.05792419892710609 -0.1274013376737158 -0.04907348961026063 
0.4010505633899134 -0.4010592928413508 -0.4010602119166192 -0.4010606187031479 -0.4010592017139096 -0.401056009503729 -0.401059782145619 
1.561231451172968 -1.561247843823356 -1.561205119954546 -1.561186198344471 -1.561230352015674 -1.561221463487787 -1.561245449748421 
-0.2715584736024393 0.7542429977285292 -0.104051042641258 -0.05066215268619275 -0.05792419892710609 -0.1274013376737158 -0.04907348961026063 
0.6748167125886594 -0.6748318795628362 -0.6748295655179027 -0.6748244696835621 -0.6748315578415731 -0.6748168439635792 -0.6748317221044651 
0.8796842918941252 -0.8797123120871266 -0.8797206095187823 -0.8797172863930913 -0.8797122261881961 -0.8796953559898226 -0.879712101395546 
0.8796842918941252 -0.8797123120871266 -0.8797206095187823 -0.8797172863930913 -0.8797122261881961 -0.8796953559898226 -0.879712101395546 
1.392772012155952 -1.39277321242195 -1.392740569326131 -1.392738888087885 -1.392764256201475 -1.39276138216871 -1.392772212770584 
0.6748167125886594 -0.6748318795628362 -0.6748295655179027 -0.6748244696835621 -0.6748315578415731 -0.6748168439635792 -0.6748317221044651 
0.6748167125886594 -0.6748318795628362 -0.6748295655179027 -0.6748244696835621 -0.6748315578415731 -0.6748168439635792 -0.6748317221044651 
1.177503097715039 -1.177505171692748 -1.17750633747102 -1.177510472661501 -1.177503409626847 -1.177506232663603 -1.177504268967737 
0.4010505633899134 -0.4010592928413508 -0.4010602119166192 -0.4010606187031479 -0.4010592017139096 -0.401056009503729 -0.401059782145619 
0.4010505633899134 -0.4010592928413508 -0.4010602119166192 -0.4010606187031479 -0.4010592017139096 -0.401056009503729 -0.401059782145619 
1.392772012155952 -1.39277321242195 -1.392740569326131 -1.392738888087885 -1.392764256201475 -1.39276138216871 -1.392772212770584 
-0.2715584736024393 0.7542429977285292 -0.104051042641258 -0.05066215268619275 -0.05792419892710609 -0.1274013376737158 -0.04907348961026063 
0.4010505633899134 -0.4010592928413508 -0.4010602119166192 -0.4010606187031479 -0.4010592017139096 -0.401056009503729 -0.401059782145619 
0.6748167125886594 -0.6748318795628362 -0.6748295655179027 -0.6748244696835621 -0.6748315578415731 -0.6748168439635792 -0.6748317221044651 
0.8796842918941252 -0.8797123120871266 -0.8797206095187823 -0.8797172863930913 -0.8797122261881961 -0.8796953559898226 -0.879712101395546 
1.889085827321056 -0.6131589751394032 -0.5524408560960838 -0.3149067861108902 -0.3508880019245537 -0.6421165131912318 -0.3068277675907221 
-0.8584926442400486 2.154165334689297 -0.3982527209173828 -0.2163287482548011 -0.2430612011519421 -0.4697349872531833 -0.2103698918034705 
0.4010505633899134 -0.4010592928413508 -0.4010602119166192 -0.4010606187031479 -0.4010592017139096 -0.401056009503729 -0.401059782145619 
0.4010505633899134 -0.4010592928413508 -0.4010602119166192 -0.4010606187031479 -0.4010592017139096 -0.401056009503729 -0.401059782145619 
-0.2715584736024393 -0.1196867782879502 -0.104051042641258 -0.05066215268619275 -0.05792419892710609 0.7416776662480304 -0.04907348961026063 
1.042580553435523 -1.042596577009934 -1.042608687583916 -1.042609871630706 -1.042596018150822 -1.042591864612327 -1.042595749410701 
-0.4687279154535904 -0.2191954666783844 -0.1922429796195694 -0.09696741999636103 -0.1102690735282446 1.261358054622965 -0.09403830248110213 
0.4010505633899134 -0.4010592928413508 -0.4010602119166192 -0.4010606187031479 -0.4010592017139096 -0.401056009503729 -0.401059782145619 
0.6748167125886594 -0.6748318795628362 -0.6748295655179027 -0.6748244696835621 -0.6748315578415731 -0.6748168439635792 -0.6748317221044651 
0.4010505633899134 -0.4010592928413508 -0.4010602119166192 -0.4010606187031479 -0.4010592017139096 -0.401056009503729 -0.401059782145619 
0.4010505633899134 -0.4010592928413508 -0.4010602119166192 -0.4010606187031479 -0.4010592017139096 -0.401056009503729 -0.401059782145619 
0.5429239469276361 -0.1196867782879502 -0.104051042641258 -0.05066215268619275 -0.05792419892710609 -0.1274013376737158 -0.04907348961026063 
0.4010505633899134 -0.4010592928413508 -0.4010602119166192 -0.4010606187031479 -0.4010592017139096 -0.401056009503729 -0.401059782145619 
0.8796842918941252 -0.8797123120871266 -0.8797206095187823 -0.8797172863930913 -0.8797122261881961 -0.8796953559898226 -0.879712101395546 
0.8796842918941252 -0.8797123120871266 -0.8797206095187823 -0.8797172863930913 -0.8797122261881961 -0.8796953559898226 -0.879712101395546 
-0.2715584736024393 -0.1196867782879502 -0.104051042641258 -0.05066215268619275 0.8658738957821178 -0.1274013376737158 -0.04907348961026063 
0.8796842918941252 -0.8797123120871266 -0.8797206095187823 -0.8797172863930913 -0.8797122261881961 -0.8796953559898226 -0.879712101395546 
-0.2715584736024393 -0.1196867782879502 -0.104051042641258 -0.05066215268619275 -0.05792419892710609 0.7416776662480304 -0.04907348961026063 
0.8796842918941252 -0.8797123120871266 -0.8797206095187823 -0.8797172863930913 -0.8797122261881961 -0.8796953559898226 -0.879712101395546 
0.8796842918941252 -0.8797123120871266 -0.8797206095187823 -0.8797172863930913 -0.8797122261881961 -0.8796953559898226 -0.879712101395546 
1.760590864359998 -1.760612865503771 -1.760598470547772 -1.760554419250779 -1.760593013653489 -1.760588705650357 -1.760607455945468 
0.5429239469276361 -0.1196867782879502 -0.104051042641258 -0.05066215268619275 -0.05792419892710609 -0.1274013376737158 -0.04907348961026063 
-0.2715584736024393 0.7542429977285292 -0.104051042641258 -0.05066215268619275 -0.05792419892710609 -0.1274013376737158 -0.04907348961026063 
0.4010505633899134 -0.4010592928413508 -0.4010602119166192 -0.4010606187031479 -0.4010592017139096 -0.401056009503729 -0.401059782145619 
4.715147853043089 -4.715063216093147 -4.715155933730655 -4.715118797326498 -4.715076885493988 -4.715152515548563 -4.715077938628637 
0.6748167125886594 -0.6748318795628362 -0.6748295655179027 -0.6748244696835621 -0.6748315578415731 -0.6748168439635792 -0.6748317221044651 
1.042580553435523 -1.042596577009934 -1.042608687583916 -1.042609871630706 -1.042596018150822 -1.042591864612327 -1.042595749410701 
0.6748167125886594 -0.6748318795628362 -0.6748295655179027 -0.6748244696835621 -0.6748315578415731 -0.6748168439635792 -0.6748317221044651 
0.4010505633899134 -0.4010592928413508 -0.4010602119166192 -0.4010606187031479 -0.4010592017139096 -0.401056009503729 -0.401059782145619 
-0.2715584736024393 -0.1196867782879502 0.7804510810975854 -0.05066215268619275 -0.05792419892710609 -0.1274013376737158 -0.04907348961026063 
0.4010505633899134 -0.4010592928413508 -0.4010602119166192 -0.4010606187031479 -0.4010592017139096 -0.401056009503729 -0.401059782145619 
1.177503097715039 -1.177505171692748 -1.17750633747102 -1.177510472661501 -1.177503409626847 -1.177506232663603 -1.177504268967737 
-0.9524701705439834 1.523268316391116 0.7319786554879474 -0.2510942896488514 -0.2812552383557093 -0.5324519706948828 -0.2443526926421698 
0.9051945211410743 -0.2191954666783844 -0.1922429796195694 -0.09696741999636103 -0.1102690735282446 -0.232386736316654 -0.09403830248110213 
0.4010505633899134 -0.4010592928413508 -0.4010602119166192 -0.4010606187031479 -0.4010592017139096 -0.401056009503729 -0.401059782145619 
0.4010505633899134 -0.4010592928413508 -0.4010602119166192 -0.4010606187031479 -0.4010592017139096 -0.401056009503729 -0.401059782145619 
1.177503097715039 -1.177505171692748 -1.17750633747102 -1.177510472661501 -1.177503409626847 -1.177506232663603 -1.177504268967737 
0.4010505633899134 -0.4010592928413508 -0.4010602119166192 -0.4010606187031479 -0.4010592017139096 -0.401056009503729 -0.401059782145619 
1.042580553435523 -1.042596577009934 -1.042608687583916 -1.042609871630706 -1.042596018150822 -1.042591864612327 -1.042595749410701 
1.166809041572067 -0.3046093329318574 -0.2689771268643139 -0.1396585200249386 -0.1580887451203659 -0.3219287468966319 -0.1355797272685711 
0.4010505633899134 -0.4010592928413508 -0.4010602119166192 -0.4010606187031479 -0.4010592017139096 -0.401056009503729 -0.401059782145619 
1.481552480158063 -1.481561330639618 -1.481519696280242 -1.481510139758417 -1.481547734663674 -1.481540800387849 -1.481559763093828 
-0.2715584736024393 0.7542429977285292 -0.104051042641258 -0.05066215268619275 -0.05792419892710609 -0.1274013376737158 -0.04907348961026063 
-0.2715584736024393 0.7542429977285292 -0.104051042641258 -0.05066215268619275 -0.05792419892710609 -0.1274013376737158 -0.04907348961026063 
-0.2715584736024393 -0.1196867782879502 -0.104051042641258 -0.05066215268619275 -0.05792419892710609 0.7416776662480304 -0.04907348961026063 
1.177503097715039 -1.177505171692748 -1.17750633747102 -1.177510472661501 -1.177503409626847 -1.177506232663603 -1.177504268967737 
0.6748167125886594 -0.6748318795628362 -0.6748295655179027 -0.6748244696835621 -0.6748315578415731 -0.6748168439635792 -0.6748317221044651 
-0.2715584736024393 -0.1196867782879502 -0.104051042641258 -0.05066215268619275 0.8658738957821178 -0.1274013376737158 -0.04907348961026063 
0.6748167125886594 -0.6748318795628362 -0.6748295655179027 -0.6748244696835621 -0.6748315578415731 -0.6748168439635792 -0.6748317221044651 
-0.2715584736024393 -0.1196867782879502 0.7804510810975854 -0.05066215268619275 -0.05792419892710609 -0.1274013376737158 -0.04907348961026063 
0.6748167125886594 -0.6748318795628362 -0.6748295655179027 -0.6748244696835621 -0.6748315578415731 -0.6748168439635792 -0.6748317221044651 
0.4010505633899134 -0.4010592928413508 -0.4010602119166192 -0.4010606187031479 -0.4010592017139096 -0.401056009503729 -0.401059782145619 
0.4010505633899134 -0.4010592928413508 -0.4010602119166192 -0.4010606187031479 -0.4010592017139096 -0.401056009503729 -0.401059782145619 
0.4010505633899134 -0.4010592928413508 -0.4010602119166192 -0.4010606187031479 -0.4010592017139096 -0.401056009503729 -0.401059782145619 
1.292544765273352 -1.292542185106164 -1.292525433385472 -1.292528671850503 -1.292537534324456 -1.292539214580559 -1.292541378305161 
1.177503097715039 -1.177505171692748 -1.17750633747102 -1.177510472661501 -1.177503409626847 -1.177506232663603 -1.177504268967737 
1.292544765273352 -1.292542185106164 -1.292525433385472 -1.292528671850503 -1.292537534324456 -1.292539214580559 -1.292541378305161 
0.4010505633899134 -0.4010592928413508 -0.4010602119166192 -0.4010606187031479 -0.4010592017139096 -0.401056009503729 -0.401059782145619 
1.633504432825791 -1.633525951098014 -1.63348880231149 -1.633460382720093 -1.633505994473158 -1.633497310930958 -1.633522600523559 
0.4010505633899134 -0.4010592928413508 -0.4010602119166192 -0.4010606187031479 -0.4010592017139096 -0.401056009503729 -0.401059782145619 
0.5429239469276361 -0.1196867782879502 -0.104051042641258 -0.05066215268619275 -0.05792419892710609 -0.1274013376737158 -0.04907348961026063 
1.042580553435523 -1.042596577009934 -1.042608687583916 -1.042609871630706 -1.042596018150822 -1.042591864612327 -1.042595749410701 
0.4010505633899134 -0.4010592928413508 -0.4010602119166192 -0.4010606187031479 -0.4010592017139096 -0.401056009503729 -0.401059782145619 
0.6748167125886594 -0.6748318795628362 -0.6748295655179027 -0.6748244696835621 -0.6748315578415731 -0.6748168439635792 -0.6748317221044651 
0.5429239469276361 -0.1196867782879502 -0.104051042641258 -0.05066215268619275 -0.05792419892710609 -0.1274013376737158 -0.04907348961026063 
0.4010505633899134 -0.4010592928413508 -0.4010602119166192 -0.4010606187031479 -0.4010592017139096 -0.401056009503729 -0.401059782145619 
0.4010505633899134 -0.4010592928413508 -0.4010602119166192 -0.4010606187031479 -0.4010592017139096 -0.401056009503729 -0.401059782145619 
-0.4687279154535904 1.286397656813981 -0.1922429796195694 -0.09696741999636103 -0.1102690735282446 -0.232386736316654 -0.09403830248110213 
-0.2715584736024393 -0.1196867782879502 -0.104051042641258 -0.05066215268619275 0.8658738957821178 -0.1274013376737158 -0.04907348961026063 
1.166809041572067 -0.3046093329318574 -0.2689771268643139 -0.1396585200249386 -0.1580887451203659 -0.3219287468966319 -0.1355797272685711 
1.379023114069166 -0.5622724408443202 -0.5051186478812397 0.4391408581317237 -0.317100393521176 -0.5895963381740428 -0.2764329823096232 
-0.2715584736024393 -0.1196867782879502 -0.104051042641258 -0.05066215268619275 -0.05792419892710609 0.7416776662480304 -0.04907348961026063 
0.6748167125886594 -0.6748318795628362 -0.6748295655179027 -0.6748244696835621 -0.6748315578415731 -0.6748168439635792 -0.6748317221044651 
0.4010505633899134 -0.4010592928413508 -0.4010602119166192 -0.4010606187031479 -0.4010592017139096 -0.401056009503729 -0.401059782145619 
0.6748167125886594 -0.6748318795628362 -0.6748295655179027 -0.6748244696835621 -0.6748315578415731 -0.6748168439635792 -0.6748317221044651 
-0.2715584736024393 0.7542429977285292 -0.104051042641258 -0.05066215268619275 -0.05792419892710609 -0.1274013376737158 -0.04907348961026063 
0.4010505633899134 -0.4010592928413508 -0.4010602119166192 -0.4010606187031479 -0.4010592017139096 -0.401056009503729 -0.401059782145619 
1.699635357427815 -1.699658723466896 -1.69963172347631 -1.699594704920708 -1.699637996195589 -1.699631073877704 -1.699654359250935 
0.6748167125886594 -0.6748318795628362 -0.6748295655179027 -0.6748244696835621 -0.6748315578415731 -0.6748168439635792 -0.6748317221044651 
-0.2715584736024393 -0.1196867782879502 -0.104051042641258 0.8806446958591204 -0.05792419892710609 -0.1274013376737158 -0.04907348961026063 
0.4010505633899134 -0.4010592928413508 -0.4010602119166192 -0.4010606187031479 -0.4010592017139096 -0.401056009503729 -0.401059782145619 
0.5429239469276361 -0.1196867782879502 -0.104051042641258 -0.05066215268619275 -0.05792419892710609 -0.1274013376737158 -0.04907348961026063 
0.5429239469276361 -0.1196867782879502 -0.104051042641258 -0.05066215268619275 -0.05792419892710609 -0.1274013376737158 -0.04907348961026063 
1.042580553435523 -1.042596577009934 -1.042608687583916 -1.042609871630706 -1.042596018150822 -1.042591864612327 -1.042595749410701 
-0.4687279154535904 -0.2191954666783844 -0.1922429796195694 -0.09696741999636103 -0.1102690735282446 1.261358054622965 -0.09403830248110213 
0.6748167125886594 -0.6748318795628362 -0.6748295655179027 -0.6748244696835621 -0.6748315578415731 -0.6748168439635792 -0.6748317221044651 
0.5429239469276361 -0.1196867782879502 -0.104051042641258 -0.05066215268619275 -0.05792419892710609 -0.1274013376737158 -0.04907348961026063 
0.6748167125886594 -0.6748318795628362 -0.6748295655179027 -0.6748244696835621 -0.6748315578415731 -0.6748168439635792 -0.6748317221044651 
0.4010505633899134 -0.4010592928413508 -0.4010602119166192 -0.4010606187031479 -0.4010592017139096 -0.401056009503729 -0.401059782145619 
0.4010505633899134 -0.4010592928413508 -0.4010602119166192 -0.4010606187031479 -0.4010592017139096 -0.401056009503729 -0.401059782145619 
-0.2715584736024393 -0.1196867782879502 0.7804510810975854 -0.05066215268619275 -0.05792419892710609 -0.1274013376737158 -0.04907348961026063 
-0.2715584736024393 -0.1196867782879502 -0.104051042641258 -0.05066215268619275 -0.05792419892710609 0.7416776662480304 -0.04907348961026063 
-0.2715584736024393 -0.1196867782879502 -0.104051042641258 -0.05066215268619275 0.8658738957821178 -0.1274013376737158 -0.04907348961026063 
-0.1691694814301633 -0.37958903403411 -0.3370270226917529 -0.1792994567944242 -0.2021574028766977 1.395665254212354 -0.1742207452884658 
0.8796842918941252 -0.8797123120871266 -0.8797206095187823 -0.8797172863930913 -0.8797122261881961 -0.8796953559898226 -0.879712101395546 
-0.2715584736024393 -0.1196867782879502 -0.104051042641258 0.8806446958591204 -0.05792419892710609 -0.1274013376737158 -0.04907348961026063 
0.4010505633899134 -0.4010592928413508 -0.4010602119166192 -0.4010606187031479 -0.4010592017139096 -0.401056009503729 -0.401059782145619 
0.8796842918941252 -0.8797123120871266 -0.8797206095187823 -0.8797172863930913 -0.8797122261881961 -0.8796953559898226 -0.879712101395546 
0.6748167125886594 -0.6748318795628362 -0.6748295655179027 -0.6748244696835621 -0.6748315578415731 -0.6748168439635792 -0.6748317221044651 
0.8796842918941252 -0.8797123120871266 -0.8797206095187823 -0.8797172863930913 -0.8797122261881961 -0.8796953559898226 -0.879712101395546 
0.5429239469276361 -0.1196867782879502 -0.104051042641258 -0.05066215268619275 -0.05792419892710609 -0.1274013376737158 -0.04907348961026063 
0.4010505633899134 -0.4010592928413508 -0.4010602119166192 -0.4010606187031479 -0.4010592017139096 -0.401056009503729 -0.401059782145619 
0.6748167125886594 -0.6748318795628362 -0.6748295655179027 -0.6748244696835621 -0.6748315578415731 -0.6748168439635792 -0.6748317221044651 
1.668831202160471 -0.5070151347939132 -0.4539638065676304 -0.2510942896488514 -0.2812552383557093 -0.5324519706948828 -0.2443526926421698 
0.4010505633899134 -0.4010592928413508 -0.4010602119166192 -0.4010606187031479 -0.4010592017139096 -0.401056009503729 -0.401059782145619 
0.4010505633899134 -0.4010592928413508 -0.4010602119166192 -0.4010606187031479 -0.4010592017139096 -0.401056009503729 -0.401059782145619 
0.4010505633899134 -0.4010592928413508 -0.4010602119166192 -0.4010606187031479 -0.4010592017139096 -0.401056009503729 -0.401059782145619 
1.817126409627579 -1.817144373342087 -1.817143277644105 -1.817094107449122 -1.817126815029714 -1.817125410964282 -1.817137893172878 
0.4010505633899134 -0.4010592928413508 -0.4010602119166192 -0.4010606187031479 -0.4010592017139096 -0.401056009503729 -0.401059782145619 
-0.2715584736024393 0.7542429977285292 -0.104051042641258 -0.05066215268619275 -0.05792419892710609 -0.1274013376737158 -0.04907348961026063 
0.4010505633899134 -0.4010592928413508 -0.4010602119166192 -0.4010606187031479 -0.4010592017139096 -0.401056009503729 -0.401059782145619 
0.5429239469276361 -0.1196867782879502 -0.104051042641258 -0.05066215268619275 -0.05792419892710609 -0.1274013376737158 -0.04907348961026063 
0.8796842918941252 -0.8797123120871266 -0.8797206095187823 -0.8797172863930913 -0.8797122261881961 -0.8796953559898226 -0.879712101395546 
1.633504432825791 -1.633525951098014 -1.63348880231149 -1.633460382720093 -1.633505994473158 -1.633497310930958 -1.633522600523559 
0.4010505633899134 -0.4010592928413508 -0.4010602119166192 -0.4010606187031479 -0.4010592017139096 -0.401056009503729 -0.401059782145619 
0.4010505633899134 -0.4010592928413508 -0.4010602119166192 -0.4010606187031479 -0.4010592017139096 -0.401056009503729 -0.401059782145619 
0.4010505633899134 -0.4010592928413508 -0.4010602119166192 -0.4010606187031479 -0.4010592017139096 -0.401056009503729 -0.401059782145619 
0.6748167125886594 -0.6748318795628362 -0.6748295655179027 -0.6748244696835621 -0.6748315578415731 -0.6748168439635792 -0.6748317221044651 
0.6748167125886594 -0.6748318795628362 -0.6748295655179027 -0.6748244696835621 -0.6748315578415731 -0.6748168439635792 -0.6748317221044651 
-1.239992700641993 2.49624617764337 -0.07142221645554404 -0.372442152593231 -0.4132054889236906 -0.7360110838448032 -0.3632555587963921 
0.4010505633899134 -0.4010592928413508 -0.4010602119166192 -0.4010606187031479 -0.4010592017139096 -0.401056009503729 -0.401059782145619 
1.91922852042071 -1.919233238994833 -1.919256089359563 -1.919202660921706 -1.919223286874921 -1.919227252556801 -1.919224586551802 
-0.4687279154535904 -0.2191954666783844 1.340197708894153 -0.09696741999636103 -0.1102690735282446 -0.232386736316654 -0.09403830248110213 
0.4010505633899134 -0.4010592928413508 -0.4010602119166192 -0.4010606187031479 -0.4010592017139096 -0.401056009503729 -0.401059782145619 
1.481552480158063 -1.481561330639618 -1.481519696280242 -1.481510139758417 -1.481547734663674 -1.481540800387849 -1.481559763093828 
0.01254153257601356 -0.5070151347939132 -0.4539638065676304 2.106042666919409 -0.2812552383557093 -0.5324519706948828 -0.2443526926421698 
0.8796842918941252 -0.8797123120871266 -0.8797206095187823 -0.8797172863930913 -0.8797122261881961 -0.8796953559898226 -0.879712101395546 
0.6748167125886594 -0.6748318795628362 -0.6748295655179027 -0.6748244696835621 -0.6748315578415731 -0.6748168439635792 -0.6748317221044651 
-0.2715584736024393 0.7542429977285292 -0.104051042641258 -0.05066215268619275 -0.05792419892710609 -0.1274013376737158 -0.04907348961026063 
0.4010505633899134 -0.4010592928413508 -0.4010602119166192 -0.4010606187031479 -0.4010592017139096 -0.401056009503729 -0.401059782145619 
-0.4687279154535904 0.5726784410938655 0.6150004831804994 -0.09696741999636103 -0.1102690735282446 -0.232386736316654 -0.09403830248110213 
0.8796842918941252 -0.8797123120871266 -0.8797206095187823 -0.8797172863930913 -0.8797122261881961 -0.8796953559898226 -0.879712101395546 
0.5429239469276361 -0.1196867782879502 -0.104051042641258 -0.05066215268619275 -0.05792419892710609 -0.1274013376737158 -0.04907348961026063 
0.6748167125886594 -0.6748318795628362 -0.6748295655179027 -0.6748244696835621 -0.6748315578415731 -0.6748168439635792 -0.6748317221044651 
-0.2715584736024393 -0.1196867782879502 0.7804510810975854 -0.05066215268619275 -0.05792419892710609 -0.1274013376737158 -0.04907348961026063 
0.4010505633899134 -0.4010592928413508 -0.4010602119166192 -0.4010606187031479 -0.4010592017139096 -0.401056009503729 -0.401059782145619 
-0.2715584736024393 -0.1196867782879502 0.7804510810975854 -0.05066215268619275 -0.05792419892710609 -0.1274013376737158 -0.04907348961026063 
0.4010505633899134 -0.4010592928413508 -0.4010602119166192 -0.4010606187031479 -0.4010592017139096 -0.401056009503729 -0.401059782145619 
0.6748167125886594 -0.6748318795628362 -0.6748295655179027 -0.6748244696835621 -0.6748315578415731 -0.6748168439635792 -0.6748317221044651 
-0.2715584736024393 -0.1196867782879502 -0.104051042641258 -0.05066215268619275 -0.05792419892710609 -0.1274013376737158 0.8839706160633117 
-0.2715584736024393 -0.1196867782879502 -0.104051042641258 -0.05066215268619275 -0.05792419892710609 0.7416776662480304 -0.04907348961026063 
0.4010505633899134 -0.4010592928413508 -0.4010602119166192 -0.4010606187031479 -0.4010592017139096 -0.401056009503729 -0.401059782145619 
2.607952859697868 -2.607908042262264 -2.607873126280168 -2.607918976952543 -2.607941498938425 -2.607947101371655 -2.607903854057062 
0.8796842918941252 -0.8797123120871266 -0.8797206095187823 -0.8797172863930913 -0.8797122261881961 -0.8796953559898226 -0.879712101395546 
1.042580553435523 -1.042596577009934 -1.042608687583916 -1.042609871630706 -1.042596018150822 -1.042591864612327 -1.042595749410701 
0.4010505633899134 -0.4010592928413508 -0.4010602119166192 -0.4010606187031479 -0.4010592017139096 -0.401056009503729 -0.401059782145619 
0.4010505633899134 -0.4010592928413508 -0.4010602119166192 -0.4010606187031479 -0.4010592017139096 -0.401056009503729 -0.401059782145619 
2.877386970285162 -2.877349549843338 -2.877289289119016 -2.877339003639872 -2.877362601359831 -2.877359388410614 -2.877356642098387 
0.4010505633899134 -0.4010592928413508 -0.4010602119166192 -0.4010606187031479 -0.4010592017139096 -0.401056009503729 -0.401059782145619 
1.292544765273352 -1.292542185106164 -1.292525433385472 -1.292528671850503 -1.292537534324456 -1.292539214580559 -1.292541378305161 
0.4010505633899134 -0.4010592928413508 -0.4010602119166192 -0.4010606187031479 -0.4010592017139096 -0.401056009503729 -0.401059782145619 
0.4010505633899134 -0.4010592928413508 -0.4010602119166192 -0.4010606187031479 -0.4010592017139096 -0.401056009503729 -0.401059782145619 
0.6748167125886594 -0.6748318795628362 -0.6748295655179027 -0.6748244696835621 -0.6748315578415731 -0.6748168439635792 -0.6748317221044651 
0.4010505633899134 -0.4010592928413508 -0.4010602119166192 -0.4010606187031479 -0.4010592017139096 -0.401056009503729 -0.401059782145619 
0.5429239469276361 -0.1196867782879502 -0.104051042641258 -0.05066215268619275 -0.05792419892710609 -0.1274013376737158 -0.04907348961026063 
0.8796842918941252 -0.8797123120871266 -0.8797206095187823 -0.8797172863930913 -0.8797122261881961 -0.8796953559898226 -0.879712101395546 
0.4010505633899134 -0.4010592928413508 -0.4010602119166192 -0.4010606187031479 -0.4010592017139096 -0.401056009503729 -0.401059782145619 
-0.2715584736024393 -0.1196867782879502 0.7804510810975854 -0.05066215268619275 -0.05792419892710609 -0.1274013376737158 -0.04907348961026063 
-0.2715584736024393 -0.1196867782879502 -0.104051042641258 -0.05066215268619275 -0.05792419892710609 -0.1274013376737158 0.8839706160633117 
1.292544765273352 -1.292542185106164 -1.292525433385472 -1.292528671850503 -1.292537534324456 -1.292539214580559 -1.292541378305161 
0.6748167125886594 -0.6748318795628362 -0.6748295655179027 -0.6748244696835621 -0.6748315578415731 -0.6748168439635792 -0.6748317221044651 
-0.2715584736024393 -0.1196867782879502 -0.104051042641258 -0.05066215268619275 -0.05792419892710609 0.7416776662480304 -0.04907348961026063 
-0.6232964541186914 1.660648694237014 -0.2689771268643139 -0.1396585200249386 -0.1580887451203659 -0.3219287468966319 -0.1355797272685711 
-0.2715584736024393 -0.1196867782879502 -0.104051042641258 0.8806446958591204 -0.05792419892710609 -0.1274013376737158 -0.04907348961026063 
0.5429239469276361 -0.1196867782879502 -0.104051042641258 -0.05066215268619275 -0.05792419892710609 -0.1274013376737158 -0.04907348961026063 
0.6748167125886594 -0.6748318795628362 -0.6748295655179027 -0.6748244696835621 -0.6748315578415731 -0.6748168439635792 -0.6748317221044651 
0.5429239469276361 -0.1196867782879502 -0.104051042641258 -0.05066215268619275 -0.05792419892710609 -0.1274013376737158 -0.04907348961026063 
0.9051945211410743 -0.2191954666783844 -0.1922429796195694 -0.09696741999636103 -0.1102690735282446 -0.232386736316654 -0.09403830248110213 
1.292544765273352 -1.292542185106164 -1.292525433385472 -1.292528671850503 -1.292537534324456 -1.292539214580559 -1.292541378305161 
0.4010505633899134 -0.4010592928413508 -0.4010602119166192 -0.4010606187031479 -0.4010592017139096 -0.401056009503729 -0.401059782145619 
0.4010505633899134 -0.4010592928413508 -0.4010602119166192 -0.4010606187031479 -0.4010592017139096 -0.401056009503729 -0.401059782145619 
0.6748167125886594 -0.6748318795628362 -0.6748295655179027 -0.6748244696835621 -0.6748315578415731 -0.6748168439635792 -0.6748317221044651 
0.4010505633899134 -0.4010592928413508 -0.4010602119166192 -0.4010606187031479 -0.4010592017139096 -0.401056009503729 -0.401059782145619 
1.481552480158063 -1.481561330639618 -1.481519696280242 -1.481510139758417 -1.481547734663674 -1.481540800387849 -1.481559763093828 
1.042580553435523 -1.042596577009934 -1.042608687583916 -1.042609871630706 -1.042596018150822 -1.042591864612327 -1.042595749410701 
-0.6482064454673488 -0.821118171869972 -0.74767224372853 2.308279357825612 0.1147203351422067 -0.8558648224170027 1.130810622430749 
-0.2715584736024393 -0.1196867782879502 0.7804510810975854 -0.05066215268619275 -0.05792419892710609 -0.1274013376737158 -0.04907348961026063 
0.4010505633899134 -0.4010592928413508 -0.4010602119166192 -0.4010606187031479 -0.4010592017139096 -0.401056009503729 -0.401059782145619 
0.8796842918941252 -0.8797123120871266 -0.8797206095187823 -0.8797172863930913 -0.8797122261881961 -0.8796953559898226 -0.879712101395546 
0.4010505633899134 -0.4010592928413508 -0.4010602119166192 -0.4010606187031479 -0.4010592017139096 -0.401056009503729 -0.401059782145619 
0.5429239469276361 -0.1196867782879502 -0.104051042641258 -0.05066215268619275 -0.05792419892710609 -0.1274013376737158 -0.04907348961026063 
-0.2715584736024393 -0.1196867782879502 0.7804510810975854 -0.05066215268619275 -0.05792419892710609 -0.1274013376737158 -0.04907348961026063 
0.4010505633899134 -0.4010592928413508 -0.4010602119166192 -0.4010606187031479 -0.4010592017139096 -0.401056009503729 -0.401059782145619 
0.4010505633899134 -0.4010592928413508 -0.4010602119166192 -0.4010606187031479 -0.4010592017139096 -0.401056009503729 -0.401059782145619 
-0.6748167125886594 -0.6748318795628362 -0.6748295655179027 -0.6748244696835621 -0.6748315578415731 -0.6748168439635792 0.6748317221044651 
0.8796842918941252 -0.8797123120871266 -0.8797206095187823 -0.8797172863930913 -0.8797122261881961 -0.8796953559898226 -0.879712101395546 
0.4010505633899134 -0.4010592928413508 -0.4010602119166192 -0.4010606187031479 -0.4010592017139096 -0.401056009503729 -0.401059782145619 
0.4010505633899134 -0.4010592928413508 -0.4010602119166192 -0.4010606187031479 -0.4010592017139096 -0.401056009503729 -0.401059782145619 
0.4010505633899134 -0.4010592928413508 -0.4010602119166192 -0.4010606187031479 -0.4010592017139096 -0.401056009503729 -0.401059782145619 
0.4010505633899134 -0.4010592928413508 -0.4010602119166192 -0.4010606187031479 -0.4010592017139096 -0.401056009503729 -0.401059782145619 
0.4010505633899134 -0.4010592928413508 -0.4010602119166192 -0.4010606187031479 -0.4010592017139096 -0.401056009503729 -0.401059782145619 
-0.8584926442400486 -0.4465124710899928 -0.3982527209173828 2.710784369209434 -0.2430612011519421 -0.4697349872531833 -0.2103698918034705 
-0.6232964541186914 1.072169897208033 0.4819997695993333 -0.1396585200249386 -0.1580887451203659 -0.3219287468966319 -0.1355797272685711 
1.699635357427815 -1.699658723466896 -1.69963172347631 -1.699594704920708 -1.699637996195589 -1.699631073877704 -1.699654359250935 
-0.8584926442400486 0.7630690563319684 1.345098283972291 -0.2163287482548011 -0.2430612011519421 -0.4697349872531833 -0.2103698918034705 
1.481552480158063 -1.481561330639618 -1.481519696280242 -1.481510139758417 -1.481547734663674 -1.481540800387849 -1.481559763093828 
0.4010505633899134 -0.4010592928413508 -0.4010602119166192 -0.4010606187031479 -0.4010592017139096 -0.401056009503729 -0.401059782145619 
0.4010505633899134 -0.4010592928413508 -0.4010602119166192 -0.4010606187031479 -0.4010592017139096 -0.401056009503729 -0.401059782145619 
0.8796842918941252 -0.8797123120871266 -0.8797206095187823 -0.8797172863930913 -0.8797122261881961 -0.8796953559898226 -0.879712101395546 
0.4010505633899134 -0.4010592928413508 -0.4010602119166192 -0.4010606187031479 -0.4010592017139096 -0.401056009503729 -0.401059782145619 
0.4010505633899134 -0.4010592928413508 -0.4010602119166192 -0.4010606187031479 -0.4010592017139096 -0.401056009503729 -0.401059782145619 
1.481552480158063 -1.481561330639618 -1.481519696280242 -1.481510139758417 -1.481547734663674 -1.481540800387849 -1.481559763093828 
0.6748167125886594 -0.6748318795628362 -0.6748295655179027 -0.6748244696835621 -0.6748315578415731 -0.6748168439635792 -0.6748317221044651 
0.8796842918941252 -0.8797123120871266 -0.8797206095187823 -0.8797172863930913 -0.8797122261881961 -0.8796953559898226 -0.879712101395546 
0.4010505633899134 -0.4010592928413508 -0.4010602119166192 -0.4010606187031479 -0.4010592017139096 -0.401056009503729 -0.401059782145619 
1.177503097715039 -1.177505171692748 -1.17750633747102 -1.177510472661501 -1.177503409626847 -1.177506232663603 -1.177504268967737 
0.4010505633899134 -0.4010592928413508 -0.4010602119166192 -0.4010606187031479 -0.4010592017139096 -0.401056009503729 -0.401059782145619 
0.6748167125886594 -0.6748318795628362 -0.6748295655179027 -0.6748244696835621 -0.6748315578415731 -0.6748168439635792 -0.6748317221044651 
0.4010505633899134 -0.4010592928413508 -0.4010602119166192 -0.4010606187031479 -0.4010592017139096 -0.401056009503729 -0.401059782145619 
-0.4687279154535904 -0.2191954666783844 -0.1922429796195694 1.573714533470957 -0.1102690735282446 -0.232386736316654 -0.09403830248110213 
0.4010505633899134 -0.4010592928413508 -0.4010602119166192 -0.4010606187031479 -0.4010592017139096 -0.401056009503729 -0.401059782145619 
2.292900316786431 -2.292848017118751 -2.292881731836824 -2.29287485581919 -2.292879244281565 -2.292892226585054 -2.292834432279074 
0.6748167125886594 -0.6748318795628362 -0.6748295655179027 -0.6748244696835621 -0.6748315578415731 -0.6748168439635792 -0.6748317221044651 
0.4010505633899134 -0.4010592928413508 -0.4010602119166192 -0.4010606187031479 -0.4010592017139096 -0.401056009503729 -0.401059782145619 
0.5429239469276361 -0.1196867782879502 -0.104051042641258 -0.05066215268619275 -0.05792419892710609 -0.1274013376737158 -0.04907348961026063 
0.4010505633899134 -0.4010592928413508 -0.4010602119166192 -0.4010606187031479 -0.4010592017139096 -0.401056009503729 -0.401059782145619 
0.4010505633899134 -0.4010592928413508 -0.4010602119166192 -0.4010606187031479 -0.4010592017139096 -0.401056009503729 -0.401059782145619 
0.4010505633899134 -0.4010592928413508 -0.4010602119166192 -0.4010606187031479 -0.4010592017139096 -0.401056009503729 -0.401059782145619 
0.4010505633899134 -0.4010592928413508 -0.4010602119166192 -0.4010606187031479 -0.4010592017139096 -0.401056009503729 -0.401059782145619 
2.009531712347757 -2.009520563003424 -2.009559880089956 -2.009509219200019 -2.009520257854992 -2.009528214893657 -2.009509868794486 
0.4010505633899134 -0.4010592928413508 -0.4010602119166192 -0.4010606187031479 -0.4010592017139096 -0.401056009503729 -0.401059782145619 
1.817126409627579 -1.817144373342087 -1.817143277644105 -1.817094107449122 -1.817126815029714 -1.817125410964282 -1.817137893172878 
1.177503097715039 -1.177505171692748 -1.17750633747102 -1.177510472661501 -1.177503409626847 -1.177506232663603 -1.177504268967737 
0.4010505633899134 -0.4010592928413508 -0.4010602119166192 -0.4010606187031479 -0.4010592017139096 -0.401056009503729 -0.401059782145619 
-0.4687279154535904 -0.2191954666783844 -0.1922429796195694 -0.09696741999636103 1.535459746470694 -0.232386736316654 -0.09403830248110213 
-0.2715584736024393 -0.1196867782879502 0.7804510810975854 -0.05066215268619275 -0.05792419892710609 -0.1274013376737158 -0.04907348961026063 
-0.2715584736024393 0.7542429977285292 -0.104051042641258 -0.05066215268619275 -0.05792419892710609 -0.1274013376737158 -0.04907348961026063 
0.6748167125886594 -0.6748318795628362 -0.6748295655179027 -0.6748244696835621 -0.6748315578415731 -0.6748168439635792 -0.6748317221044651 
-0.2715584736024393 -0.1196867782879502 0.7804510810975854 -0.05066215268619275 -0.05792419892710609 -0.1274013376737158 -0.04907348961026063 
-0.2715584736024393 -0.1196867782879502 0.7804510810975854 -0.05066215268619275 -0.05792419892710609 -0.1274013376737158 -0.04907348961026063 
0.4010505633899134 -0.4010592928413508 -0.4010602119166192 -0.4010606187031479 -0.4010592017139096 -0.401056009503729 -0.401059782145619 
-0.6232964541186914 1.660648694237014 -0.2689771268643139 -0.1396585200249386 -0.1580887451203659 -0.3219287468966319 -0.1355797272685711 
-0.2715584736024393 0.7542429977285292 -0.104051042641258 -0.05066215268619275 -0.05792419892710609 -0.1274013376737158 -0.04907348961026063 
0.8796842918941252 -0.8797123120871266 -0.8797206095187823 -0.8797172863930913 -0.8797122261881961 -0.8796953559898226 -0.879712101395546 
-0.4687279154535904 -0.2191954666783844 -0.1922429796195694 -0.09696741999636103 -0.1102690735282446 1.261358054622965 -0.09403830248110213 
0.4010505633899134 -0.4010592928413508 -0.4010602119166192 -0.4010606187031479 -0.4010592017139096 -0.401056009503729 -0.401059782145619 
0.4010505633899134 -0.4010592928413508 -0.4010602119166192 -0.4010606187031479 -0.4010592017139096 -0.401056009503729 -0.401059782145619 
1.292544765273352 -1.292542185106164 -1.292525433385472 -1.292528671850503 -1.292537534324456 -1.292539214580559 -1.292541378305161 
-0.2715584736024393 -0.1196867782879502 0.7804510810975854 -0.05066215268619275 -0.05792419892710609 -0.1274013376737158 -0.04907348961026063 
0.4010505633899134 -0.4010592928413508 -0.4010602119166192 -0.4010606187031479 -0.4010592017139096 -0.401056009503729 -0.401059782145619 
0.4010505633899134 -0.4010592928413508 -0.4010602119166192 -0.4010606187031479 -0.4010592017139096 -0.401056009503729 -0.401059782145619 
0.6748167125886594 -0.6748318795628362 -0.6748295655179027 -0.6748244696835621 -0.6748315578415731 -0.6748168439635792 -0.6748317221044651 
0.4010505633899134 -0.4010592928413508 -0.4010602119166192 -0.4010606187031479 -0.4010592017139096 -0.401056009503729 -0.401059782145619 
2.128055208994587 -2.128022653744396 -2.128070947231729 -2.12803336944587 -2.128036800229846 -2.128048257433112 -2.128009695230133 
2.205823846933995 -0.7844290376810237 -0.7130357476439102 -0.4248987634335251 -0.4696836540099119 -0.8182471973690674 -0.4147741549877496 
-1.489738327568616 -0.8889721059950616 -0.8119208593456076 -0.4959180890378573 -0.5456950037414618 3.129705028543116 -0.4846203502427095 
