solver_type L2R_LR
nr_class 2
label 1 0
nr_feature 100
bias -1
w
-0.07216938709203922 
-0.07401775689598608 
0.07326631164895103 
0.09182913569122564 
0.3082371590179288 
0.147499420753591 
-0.1181574393781085 
0.06435737033092968 
-0.0713229548908943 
-0.006242628172639119 
0.09581985248853397 
-0.02843706845426592 
-0.01963515067439001 
0.1161143085878988 
-0.1459057823537225 
-0.07851236951094988 
0.2327337759101673 
0.1826515747608365 
0.2812882006313595 
-0.3764226161032419 
0.1733545055169019 
-0.2149853859377953 
0.224052701459855 
-0.2338821048666759 
-0.1790041270206147 
-0.09437963708394559 
0.06120509828693163 
-0.5576728125375497 
0.09515777296575342 
-0.006490842497789626 
-0.1265065174560425 
0.1054910862935706 
0.2518344238387005 
-0.1261562633742535 
0.06173356560898079 
0.09798347474184256 
0.149190413528159 
-0.4939691689261489 
-0.3752916619235789 
-0.1023249547772028 
-0.4108553074720629 
-0.2863951712221258 
0.0807321472604608 
-0.2727653743912924 
-1.424540490346824 
-0.4458784738831609 
-0.188500924244585 
0.3966793977526272 
0.1549460484649146 
0.2149196626391673 
-0.1388776581962568 
-0.6087921061448581 
-0.0264440720747569 
0.2899914103021226 
0.1452816507922173 
0.04407305915683701 
0.006511386727492528 
0.2396399353488072 
-0.4412948818898987 
0.2432174626458418 
-0.2347972284049355 
0.6026063001496023 
-0.8472378966559451 
-0.07168129324514398 
-0.128385524750214 
-0.3740505365069797 
-0.2859496702077042 
0.1772306981496051 
0.3288372838551191 
-0.06527780896009952 
0.08805101833973693 
0.3497627329234756 
0.06701465752915645 
-1.80592371634317 
0.007508584551219062 
0.1451932000062853 
0.9230880845298295 
-0.5318584273022393 
-0.4685849474533338 
0.1497941645495799 
-0.7928873900471869 
0.3679196858635608 
0.3117543996809239 
-0.001218981746828229 
0.2495021121753266 
0.1848140650732015 
0.3854689433288037 
-0.6903323554539563 
0.06550593298531594 
0.8302544596391261 
-0.3253964436479388 
0.5064079436465708 
-0.4901805239645116 
-0.2384260028761228 
-0.5303048176653138 
0.1148751897142766 
-0.5184257713334808 
0.2244040091114377 
0.2581088408720638 
0.2151860564196836 
