solver_type L2R_LR
nr_class 2
label 1 0
nr_feature 100
bias -1
w
-0.1892123737566001 
-0.07712073663586169 
0.1468823381999984 
0.2330637344211689 
0.3840123457494616 
0.1289250685331403 
-0.1487431586729631 
0.05556592834319218 
-0.1168832362501832 
0.0167398719593469 
0.1123187068236929 
-0.0921188068435493 
-0.02561710180878563 
0.1238049519323493 
-0.09551983308521547 
-0.1289936344134311 
0.2103195963136289 
0.2690296351985845 
0.3321083576687035 
-0.4341237098182573 
0.2234309889204108 
-0.2264801170863761 
0.2602927319852065 
-0.2331699767931379 
-0.128278365927163 
-0.08938400324616573 
0.08028686442519473 
-0.5714109120131026 
0.09372132338781131 
0.04284215727062465 
-0.1245637401741695 
0.08268471475249822 
0.2836780973034562 
-0.09658673243152111 
0.0667763613277285 
0.3227831766650344 
0.1790173095696332 
-0.5388549492526372 
-0.3201935037925978 
-0.1564170459881299 
-0.4722209999120364 
-0.2896801697500059 
0.1146775510580034 
-0.3986403484204255 
-1.665008027836419 
-0.4097993021944819 
-0.2182602960024226 
0.447833332007635 
0.2286539143119168 
0.252123043240919 
-0.1416653507736815 
-0.6866822444320158 
-0.03019550721351097 
0.2971971631686706 
0.2156117726733776 
0.04485069810599013 
0.009296947684932109 
0.2401197326687561 
-0.4988763111440835 
0.2363817488911853 
-0.2963662968629809 
0.6046018671048915 
-0.8223799131420922 
-0.08331970529546309 
-0.1551115858871749 
-0.4339271088012148 
-0.2492945436608253 
0.2157214064650829 
0.4542013854061256 
-0.05730215931548568 
0.1047140421356022 
0.465267826021982 
0.0163538205206895 
-1.885818736811793 
0.06379326407134653 
0.1793612700762231 
0.9542953430112999 
-0.4745661542190688 
-0.5101916335611191 
0.1525751258748509 
-0.8865124767152157 
0.418912498947434 
0.3581858977461716 
-0.03654375714766463 
0.277637616460563 
0.199348698756533 
0.480435950371518 
-0.7230655004367912 
0.01138333099315805 
0.8421838856293126 
-0.3368369784464051 
0.5053725291240199 
-0.4364507981671905 
-0.2798526013466582 
-0.4673456035493525 
0.1304661047875078 
-0.5124464277874142 
0.2120500545112289 
0.1231647732461036 
0.1874308301490418 
