solver_type L2R_LR
nr_class 7
label 0 1 2 5 6 3 4
nr_feature 6578
bias -1
w
0.4010052306188176 -0.4010546547968658 -0.4010547341853262 -0.4010554653868701 -0.4010577084015841 -0.4010544458758178 -0.4010569756214186 
-0.6748498183402597 0.6748271356477814 -0.6748272140949633 -0.6748273411469111 -0.6748312509191903 -0.674827029114189 -0.6748298509535946 
0.8797151963172535 -0.8797101778262305 -0.8797103614178889 -0.8797099079544174 -0.8797125627327036 -0.8797097276663487 -0.8797108006711177 
0.4010052306188176 -0.4010546547968658 -0.4010547341853262 -0.4010554653868701 -0.4010577084015841 -0.4010544458758178 -0.4010569756214186 
-0.4010052306188176 0.4010546547968658 -0.4010547341853262 -0.4010554653868701 -0.4010577084015841 -0.4010544458758178 -0.4010569756214186 
0.4010052306188176 -0.4010546547968658 -0.4010547341853262 -0.4010554653868701 -0.4010577084015841 -0.4010544458758178 -0.4010569756214186 
1.042596732657728 -1.042602212369455 -1.042602367746173 -1.042600096996421 -1.042597274293537 -1.042601273153722 -1.042596870327917 
0.4010052306188176 -0.4010546547968658 -0.4010547341853262 -0.4010554653868701 -0.4010577084015841 -0.4010544458758178 -0.4010569756214186 
0.4010052306188176 -0.4010546547968658 -0.4010547341853262 -0.4010554653868701 -0.4010577084015841 -0.4010544458758178 -0.4010569756214186 
-1.561209817358419 -0.4672994818106725 -0.7966549444977885 -0.1540572901177328 -1.561234339093539 -1.561200689697846 -1.561232254254795 
0.4010052306188176 -0.4010546547968658 -0.4010547341853262 -0.4010554653868701 -0.4010577084015841 -0.4010544458758178 -0.4010569756214186 
0.6748498183402597 -0.6748271356477814 -0.6748272140949633 -0.6748273411469111 -0.6748312509191903 -0.674827029114189 -0.6748298509535946 
-0.4010052306188176 -0.4010546547968658 -0.4010547341853262 -0.4010554653868701 -0.4010577084015841 0.4010544458758178 -0.4010569756214186 
0.8797151963172535 -0.8797101778262305 -0.8797103614178889 -0.8797099079544174 -0.8797125627327036 -0.8797097276663487 -0.8797108006711177 
-0.4010052306188176 -0.4010546547968658 0.4010547341853262 -0.4010554653868701 -0.4010577084015841 -0.4010544458758178 -0.4010569756214186 
0.8797151963172535 -0.8797101778262305 -0.8797103614178889 -0.8797099079544174 -0.8797125627327036 -0.8797097276663487 -0.8797108006711177 
0.4010052306188176 -0.4010546547968658 -0.4010547341853262 -0.4010554653868701 -0.4010577084015841 -0.4010544458758178 -0.4010569756214186 
-0.4010052306188176 -0.4010546547968658 -0.4010547341853262 -0.4010554653868701 -0.4010577084015841 0.4010544458758178 -0.4010569756214186 
0.4010052306188176 -0.4010546547968658 -0.4010547341853262 -0.4010554653868701 -0.4010577084015841 -0.4010544458758178 -0.4010569756214186 
-2.12801078460256 -1.810806115476906 -1.810806041442151 -1.810804535500699 -1.537623500341004 0.6882891906400281 -1.810807899414776 
0.4010052306188176 -0.4010546547968658 -0.4010547341853262 -0.4010554653868701 -0.4010577084015841 -0.4010544458758178 -0.4010569756214186 
-0.4010052306188176 0.4010546547968658 -0.4010547341853262 -0.4010554653868701 -0.4010577084015841 -0.4010544458758178 -0.4010569756214186 
0.4010052306188176 -0.4010546547968658 -0.4010547341853262 -0.4010554653868701 -0.4010577084015841 -0.4010544458758178 -0.4010569756214186 
0.4010052306188176 -0.4010546547968658 -0.4010547341853262 -0.4010554653868701 -0.4010577084015841 -0.4010544458758178 -0.4010569756214186 
0.4010052306188176 -0.4010546547968658 -0.4010547341853262 -0.4010554653868701 -0.4010577084015841 -0.4010544458758178 -0.4010569756214186 
0.4010052306188176 -0.4010546547968658 -0.4010547341853262 -0.4010554653868701 -0.4010577084015841 -0.4010544458758178 -0.4010569756214186 
1.292545014904755 -1.292535494740637 -1.292535565553812 -1.292536074377273 -1.292539832753697 -1.292534048112827 -1.292539453020553 
0.6748498183402597 -0.6748271356477814 -0.6748272140949633 -0.6748273411469111 -0.6748312509191903 -0.674827029114189 -0.6748298509535946 
-0.4010052306188176 -0.4010546547968658 -0.4010547341853262 -0.4010554653868701 0.4010577084015841 -0.4010544458758178 -0.4010569756214186 
0.4010052306188176 -0.4010546547968658 -0.4010547341853262 -0.4010554653868701 -0.4010577084015841 -0.4010544458758178 -0.4010569756214186 
0.4010052306188176 -0.4010546547968658 -0.4010547341853262 -0.4010554653868701 -0.4010577084015841 -0.4010544458758178 -0.4010569756214186 
0.4010052306188176 -0.4010546547968658 -0.4010547341853262 -0.4010554653868701 -0.4010577084015841 -0.4010544458758178 -0.4010569756214186 
0.4010052306188176 -0.4010546547968658 -0.4010547341853262 -0.4010554653868701 -0.4010577084015841 -0.4010544458758178 -0.4010569756214186 
1.561209817358419 -1.56120157665386 -1.561201792772799 -1.561212461969406 -1.561234339093539 -1.561200689697846 -1.561232254254795 
0.8797151963172535 -0.8797101778262305 -0.8797103614178889 -0.8797099079544174 -0.8797125627327036 -0.8797097276663487 -0.8797108006711177 
-0.4010052306188176 -0.4010546547968658 0.4010547341853262 -0.4010554653868701 -0.4010577084015841 -0.4010544458758178 -0.4010569756214186 
0.4010052306188176 -0.4010546547968658 -0.4010547341853262 -0.4010554653868701 -0.4010577084015841 -0.4010544458758178 -0.4010569756214186 
0.4010052306188176 -0.4010546547968658 -0.4010547341853262 -0.4010554653868701 -0.4010577084015841 -0.4010544458758178 -0.4010569756214186 
-0.4010052306188176 -0.4010546547968658 -0.4010547341853262 -0.4010554653868701 0.4010577084015841 -0.4010544458758178 -0.4010569756214186 
-0.4010052306188176 -0.4010546547968658 0.4010547341853262 -0.4010554653868701 -0.4010577084015841 -0.4010544458758178 -0.4010569756214186 
0.4010052306188176 -0.4010546547968658 -0.4010547341853262 -0.4010554653868701 -0.4010577084015841 -0.4010544458758178 -0.4010569756214186 
-0.8797151963172535 -0.8797101778262305 -0.8797103614178889 -0.8797099079544174 -0.2865478994948381 -0.8797097276663487 0.286547588863914 
0.4010052306188176 -0.4010546547968658 -0.4010547341853262 -0.4010554653868701 -0.4010577084015841 -0.4010544458758178 -0.4010569756214186 
1.177509710855569 -1.177509538125357 -1.177509631533568 -1.177507583450723 -1.1775052640289 -1.177508236769899 -1.177505374185998 
0.4010052306188176 -0.4010546547968658 -0.4010547341853262 -0.4010554653868701 -0.4010577084015841 -0.4010544458758178 -0.4010569756214186 
0.4010052306188176 -0.4010546547968658 -0.4010547341853262 -0.4010554653868701 -0.4010577084015841 -0.4010544458758178 -0.4010569756214186 
-0.4010052306188176 -0.4010546547968658 0.4010547341853262 -0.4010554653868701 -0.4010577084015841 -0.4010544458758178 -0.4010569756214186 
-0.4010052306188176 -0.4010546547968658 -0.4010547341853262 -0.4010554653868701 -0.4010577084015841 0.4010544458758178 -0.4010569756214186 
-0.6748498183402597 -0.6748271356477814 -0.6748272140949633 0.6748273411469111 -0.6748312509191903 -0.674827029114189 -0.6748298509535946 
1.177509710855569 -1.177509538125357 -1.177509631533568 -1.177507583450723 -1.1775052640289 -1.177508236769899 -1.177505374185998 
-0.4010052306188176 -0.4010546547968658 -0.4010547341853262 -0.4010554653868701 0.4010577084015841 -0.4010544458758178 -0.4010569756214186 
0.4010052306188176 -0.4010546547968658 -0.4010547341853262 -0.4010554653868701 -0.4010577084015841 -0.4010544458758178 -0.4010569756214186 
-0.4010052306188176 -0.4010546547968658 0.4010547341853262 -0.4010554653868701 -0.4010577084015841 -0.4010544458758178 -0.4010569756214186 
-0.4010052306188176 -0.4010546547968658 -0.4010547341853262 -0.4010554653868701 0.4010577084015841 -0.4010544458758178 -0.4010569756214186 
1.042596732657728 -1.042602212369455 -1.042602367746173 -1.042600096996421 -1.042597274293537 -1.042601273153722 -1.042596870327917 
0.4010052306188176 -0.4010546547968658 -0.4010547341853262 -0.4010554653868701 -0.4010577084015841 -0.4010544458758178 -0.4010569756214186 
1.292545014904755 -1.292535494740637 -1.292535565553812 -1.292536074377273 -1.292539832753697 -1.292534048112827 -1.292539453020553 
0.4010052306188176 -0.4010546547968658 -0.4010547341853262 -0.4010554653868701 -0.4010577084015841 -0.4010544458758178 -0.4010569756214186 
-0.4010052306188176 0.4010546547968658 -0.4010547341853262 -0.4010554653868701 -0.4010577084015841 -0.4010544458758178 -0.4010569756214186 
-0.4010052306188176 -0.4010546547968658 -0.4010547341853262 -0.4010554653868701 -0.4010577084015841 0.4010544458758178 -0.4010569756214186 
0.6748498183402597 -0.6748271356477814 -0.6748272140949633 -0.6748273411469111 -0.6748312509191903 -0.674827029114189 -0.6748298509535946 
-0.4010052306188176 -0.4010546547968658 -0.4010547341853262 0.4010554653868701 -0.4010577084015841 -0.4010544458758178 -0.4010569756214186 
0.6748498183402597 -0.6748271356477814 -0.6748272140949633 -0.6748273411469111 -0.6748312509191903 -0.674827029114189 -0.6748298509535946 
0.4010052306188176 -0.4010546547968658 -0.4010547341853262 -0.4010554653868701 -0.4010577084015841 -0.4010544458758178 -0.4010569756214186 
-0.4010052306188176 0.4010546547968658 -0.4010547341853262 -0.4010554653868701 -0.4010577084015841 -0.4010544458758178 -0.4010569756214186 
0.4010052306188176 -0.4010546547968658 -0.4010547341853262 -0.4010554653868701 -0.4010577084015841 -0.4010544458758178 -0.4010569756214186 
0.4010052306188176 -0.4010546547968658 -0.4010547341853262 -0.4010554653868701 -0.4010577084015841 -0.4010544458758178 -0.4010569756214186 
0.4010052306188176 -0.4010546547968658 -0.4010547341853262 -0.4010554653868701 -0.4010577084015841 -0.4010544458758178 -0.4010569756214186 
0.4010052306188176 -0.4010546547968658 -0.4010547341853262 -0.4010554653868701 -0.4010577084015841 -0.4010544458758178 -0.4010569756214186 
-0.8797151963172535 -0.8797101778262305 -0.8797103614178889 -0.8797099079544174 -0.8797125627327036 -0.2865488698624533 0.286547588863914 
-0.6748498183402597 -0.6748271356477814 0 -0.6748273411469111 0 -0.674827029114189 -0.6748298509535946 
-0.4010052306188176 -0.4010546547968658 0.4010547341853262 -0.4010554653868701 -0.4010577084015841 -0.4010544458758178 -0.4010569756214186 
0.4010052306188176 -0.4010546547968658 -0.4010547341853262 -0.4010554653868701 -0.4010577084015841 -0.4010544458758178 -0.4010569756214186 
0.4010052306188176 -0.4010546547968658 -0.4010547341853262 -0.4010554653868701 -0.4010577084015841 -0.4010544458758178 -0.4010569756214186 
1.561209817358419 -1.56120157665386 -1.561201792772799 -1.561212461969406 -1.561234339093539 -1.561200689697846 -1.561232254254795 
0.8797151963172535 -0.8797101778262305 -0.8797103614178889 -0.8797099079544174 -0.8797125627327036 -0.8797097276663487 -0.8797108006711177 
1.919177924391939 -1.919205699160878 -1.919205983779666 -1.919215795240858 -1.919226588436816 -1.919206378581039 -1.919226700029918 
0.4010052306188176 -0.4010546547968658 -0.4010547341853262 -0.4010554653868701 -0.4010577084015841 -0.4010544458758178 -0.4010569756214186 
-1.177509710855569 0.6806115539895885 -0.6806116153882624 -1.177507583450723 -1.1775052640289 -1.177508236769899 -1.177505374185998 
0.6748498183402597 -0.6748271356477814 -0.6748272140949633 -0.6748273411469111 -0.6748312509191903 -0.674827029114189 -0.6748298509535946 
-1.481538993529653 -1.481525193077275 -1.481525345826418 -1.481533172070923 1.481551141387587 -1.481524010452209 -1.481549312074077 
0.4010052306188176 -0.4010546547968658 -0.4010547341853262 -0.4010554653868701 -0.4010577084015841 -0.4010544458758178 -0.4010569756214186 
0.4010052306188176 -0.4010546547968658 -0.4010547341853262 -0.4010554653868701 -0.4010577084015841 -0.4010544458758178 -0.4010569756214186 
0.4010052306188176 -0.4010546547968658 -0.4010547341853262 -0.4010554653868701 -0.4010577084015841 -0.4010544458758178 -0.4010569756214186 
1.561209817358419 -1.56120157665386 -1.561201792772799 -1.561212461969406 -1.561234339093539 -1.561200689697846 -1.561232254254795 
0.4010052306188176 -0.4010546547968658 -0.4010547341853262 -0.4010554653868701 -0.4010577084015841 -0.4010544458758178 -0.4010569756214186 
-0.8797151963172535 -0.8797101778262305 -0.8797103614178889 -0.8797099079544174 0.2865478994948381 -0.8797097276663487 -0.286547588863914 
0.4010052306188176 -0.4010546547968658 -0.4010547341853262 -0.4010554653868701 -0.4010577084015841 -0.4010544458758178 -0.4010569756214186 
1.042596732657728 -1.042602212369455 -1.042602367746173 -1.042600096996421 -1.042597274293537 -1.042601273153722 -1.042596870327917 
0.4010052306188176 -0.4010546547968658 -0.4010547341853262 -0.4010554653868701 -0.4010577084015841 -0.4010544458758178 -0.4010569756214186 
-0.4010052306188176 -0.4010546547968658 -0.4010547341853262 -0.4010554653868701 -0.4010577084015841 0.4010544458758178 -0.4010569756214186 
0.8797151963172535 -0.8797101778262305 -0.8797103614178889 -0.8797099079544174 -0.8797125627327036 -0.8797097276663487 -0.8797108006711177 
1.561209817358419 -1.56120157665386 -1.561201792772799 -1.561212461969406 -1.561234339093539 -1.561200689697846 -1.561232254254795 
-0.6748498183402597 0.6748271356477814 -0.6748272140949633 -0.6748273411469111 -0.6748312509191903 -0.674827029114189 -0.6748298509535946 
0.4010052306188176 -0.4010546547968658 -0.4010547341853262 -0.4010554653868701 -0.4010577084015841 -0.4010544458758178 -0.4010569756214186 
0.4010052306188176 -0.4010546547968658 -0.4010547341853262 -0.4010554653868701 -0.4010577084015841 -0.4010544458758178 -0.4010569756214186 
-0.4010052306188176 -0.4010546547968658 0.4010547341853262 -0.4010554653868701 -0.4010577084015841 -0.4010544458758178 -0.4010569756214186 
0.4010052306188176 -0.4010546547968658 -0.4010547341853262 -0.4010554653868701 -0.4010577084015841 -0.4010544458758178 -0.4010569756214186 
-0.8797151963172535 -0.8797101778262305 -0.8797103614178889 -0.8797099079544174 -0.2865478994948381 -0.8797097276663487 0.286547588863914 
-1.292545014904755 -1.292535494740637 -1.292535565553812 -1.292536074377273 1.292539832753697 -1.292534048112827 -1.292539453020553 
-0.4010052306188176 -0.4010546547968658 -0.4010547341853262 -0.4010554653868701 -0.4010577084015841 0.4010544458758178 -0.4010569756214186 
-0.4010052306188176 -0.4010546547968658 -0.4010547341853262 -0.4010554653868701 -0.4010577084015841 0.4010544458758178 -0.4010569756214186 
0.8797151963172535 -0.8797101778262305 -0.8797103614178889 -0.8797099079544174 -0.8797125627327036 -0.8797097276663487 -0.8797108006711177 
0.6748498183402597 -0.6748271356477814 -0.6748272140949633 -0.6748273411469111 -0.6748312509191903 -0.674827029114189 -0.6748298509535946 
0.8797151963172535 -0.8797101778262305 -0.8797103614178889 -0.8797099079544174 -0.8797125627327036 -0.8797097276663487 -0.8797108006711177 
0.6748498183402597 -0.6748271356477814 -0.6748272140949633 -0.6748273411469111 -0.6748312509191903 -0.674827029114189 -0.6748298509535946 
0.6748498183402597 -0.6748271356477814 -0.6748272140949633 -0.6748273411469111 -0.6748312509191903 -0.674827029114189 -0.6748298509535946 
0.4010052306188176 -0.4010546547968658 -0.4010547341853262 -0.4010554653868701 -0.4010577084015841 -0.4010544458758178 -0.4010569756214186 
1.760548118889514 -1.760564136244865 -1.760564462786236 -1.760577563749904 -1.7605976815371 -1.760564213119983 -1.760596513055866 
0.6748498183402597 -0.6748271356477814 -0.6748272140949633 -0.6748273411469111 -0.6748312509191903 -0.674827029114189 -0.6748298509535946 
0.8797151963172535 -0.8797101778262305 -0.8797103614178889 -0.8797099079544174 -0.8797125627327036 -0.8797097276663487 -0.8797108006711177 
0.4010052306188176 -0.4010546547968658 -0.4010547341853262 -0.4010554653868701 -0.4010577084015841 -0.4010544458758178 -0.4010569756214186 
0.4010052306188176 -0.4010546547968658 -0.4010547341853262 -0.4010554653868701 -0.4010577084015841 -0.4010544458758178 -0.4010569756214186 
0.4010052306188176 -0.4010546547968658 -0.4010547341853262 -0.4010554653868701 -0.4010577084015841 -0.4010544458758178 -0.4010569756214186 
0.6748498183402597 -0.6748271356477814 -0.6748272140949633 -0.6748273411469111 -0.6748312509191903 -0.674827029114189 -0.6748298509535946 
-0.4010052306188176 0.4010546547968658 -0.4010547341853262 -0.4010554653868701 -0.4010577084015841 -0.4010544458758178 -0.4010569756214186 
0.4010052306188176 -0.4010546547968658 -0.4010547341853262 -0.4010554653868701 -0.4010577084015841 -0.4010544458758178 -0.4010569756214186 
0.8797151963172535 -0.8797101778262305 -0.8797103614178889 -0.8797099079544174 -0.8797125627327036 -0.8797097276663487 -0.8797108006711177 
-0.4010052306188176 -0.4010546547968658 0.4010547341853262 -0.4010554653868701 -0.4010577084015841 -0.4010544458758178 -0.4010569756214186 
0.4010052306188176 -0.4010546547968658 -0.4010547341853262 -0.4010554653868701 -0.4010577084015841 -0.4010544458758178 -0.4010569756214186 
0.4010052306188176 -0.4010546547968658 -0.4010547341853262 -0.4010554653868701 -0.4010577084015841 -0.4010544458758178 -0.4010569756214186 
0.4010052306188176 -0.4010546547968658 -0.4010547341853262 -0.4010554653868701 -0.4010577084015841 -0.4010544458758178 -0.4010569756214186 
0.4010052306188176 -0.4010546547968658 -0.4010547341853262 -0.4010554653868701 -0.4010577084015841 -0.4010544458758178 -0.4010569756214186 
0.6748498183402597 -0.6748271356477814 -0.6748272140949633 -0.6748273411469111 -0.6748312509191903 -0.674827029114189 -0.6748298509535946 
0.4010052306188176 -0.4010546547968658 -0.4010547341853262 -0.4010554653868701 -0.4010577084015841 -0.4010544458758178 -0.4010569756214186 
0.4010052306188176 -0.4010546547968658 -0.4010547341853262 -0.4010554653868701 -0.4010577084015841 -0.4010544458758178 -0.4010569756214186 
0.4010052306188176 -0.4010546547968658 -0.4010547341853262 -0.4010554653868701 -0.4010577084015841 -0.4010544458758178 -0.4010569756214186 
0.8797151963172535 -0.8797101778262305 -0.8797103614178889 -0.8797099079544174 -0.8797125627327036 -0.8797097276663487 -0.8797108006711177 
-0.4010052306188176 -0.4010546547968658 -0.4010547341853262 -0.4010554653868701 -0.4010577084015841 -0.4010544458758178 0.4010569756214186 
0.4010052306188176 -0.4010546547968658 -0.4010547341853262 -0.4010554653868701 -0.4010577084015841 -0.4010544458758178 -0.4010569756214186 
-0.6748498183402597 -0.6748271356477814 -0.6748272140949633 0.6748273411469111 -0.6748312509191903 -0.674827029114189 -0.6748298509535946 
0.4010052306188176 -0.4010546547968658 -0.4010547341853262 -0.4010554653868701 -0.4010577084015841 -0.4010544458758178 -0.4010569756214186 
0.4010052306188176 -0.4010546547968658 -0.4010547341853262 -0.4010554653868701 -0.4010577084015841 -0.4010544458758178 -0.4010569756214186 
0.6748498183402597 -0.6748271356477814 -0.6748272140949633 -0.6748273411469111 -0.6748312509191903 -0.674827029114189 -0.6748298509535946 
0.4010052306188176 -0.4010546547968658 -0.4010547341853262 -0.4010554653868701 -0.4010577084015841 -0.4010544458758178 -0.4010569756214186 
0.4010052306188176 -0.4010546547968658 -0.4010547341853262 -0.4010554653868701 -0.4010577084015841 -0.4010544458758178 -0.4010569756214186 
2.32206166916983 -2.322079285506455 -2.322079401090313 -2.32208058509619 -2.322080044075251 -2.322079395358094 -2.322080629148424 
0.4010052306188176 -0.4010546547968658 -0.4010547341853262 -0.4010554653868701 -0.4010577084015841 -0.4010544458758178 -0.4010569756214186 
0.4010052306188176 -0.4010546547968658 -0.4010547341853262 -0.4010554653868701 -0.4010577084015841 -0.4010544458758178 -0.4010569756214186 
1.392765927993881 -1.392751261790266 -1.392751358687966 -1.392755557881254 -1.392767066059644 -1.392749872623041 -1.392765868956849 
1.042596732657728 -1.042602212369455 -1.042602367746173 -1.042600096996421 -1.042597274293537 -1.042601273153722 -1.042596870327917 
0.4010052306188176 -0.4010546547968658 -0.4010547341853262 -0.4010554653868701 -0.4010577084015841 -0.4010544458758178 -0.4010569756214186 
0.4010052306188176 -0.4010546547968658 -0.4010547341853262 -0.4010554653868701 -0.4010577084015841 -0.4010544458758178 -0.4010569756214186 
-0.4010052306188176 -0.4010546547968658 -0.4010547341853262 -0.4010554653868701 -0.4010577084015841 -0.4010544458758178 0.4010569756214186 
-0.4010052306188176 -0.4010546547968658 -0.4010547341853262 0.4010554653868701 -0.4010577084015841 -0.4010544458758178 -0.4010569756214186 
0.4010052306188176 -0.4010546547968658 -0.4010547341853262 -0.4010554653868701 -0.4010577084015841 -0.4010544458758178 -0.4010569756214186 
0.4010052306188176 -0.4010546547968658 -0.4010547341853262 -0.4010554653868701 -0.4010577084015841 -0.4010544458758178 -0.4010569756214186 
0.6748498183402597 -0.6748271356477814 -0.6748272140949633 -0.6748273411469111 -0.6748312509191903 -0.674827029114189 -0.6748298509535946 
0.6748498183402597 -0.6748271356477814 -0.6748272140949633 -0.6748273411469111 -0.6748312509191903 -0.674827029114189 -0.6748298509535946 
-0.6748498183402597 -0.6748271356477814 -0.6748272140949633 -0.6748273411469111 -0.6748312509191903 0.674827029114189 -0.6748298509535946 
0.4010052306188176 -0.4010546547968658 -0.4010547341853262 -0.4010554653868701 -0.4010577084015841 -0.4010544458758178 -0.4010569756214186 
-0.8797151963172535 -0.2865491463143905 0.2865492067458331 -0.8797099079544174 -0.8797125627327036 -0.8797097276663487 -0.8797108006711177 
1.63347472808348 -1.633474540453159 -1.633474811365053 -1.633487267812217 -1.633510430173339 -1.633473986252131 -1.633508446186145 
-0.6748498183402597 -0.6748271356477814 -0.6748272140949633 -0.6748273411469111 -0.6748312509191903 -0.674827029114189 0.6748298509535946 
-0.8797151963172535 0.8797101778262305 -0.8797103614178889 -0.8797099079544174 -0.8797125627327036 -0.8797097276663487 -0.8797108006711177 
-0.4010052306188176 -0.4010546547968658 0.4010547341853262 -0.4010554653868701 -0.4010577084015841 -0.4010544458758178 -0.4010569756214186 
-0.6748498183402597 0 0 -0.6748273411469111 -0.6748312509191903 -0.674827029114189 -0.6748298509535946 
-0.4010052306188176 0.4010546547968658 -0.4010547341853262 -0.4010554653868701 -0.4010577084015841 -0.4010544458758178 -0.4010569756214186 
1.817079467336276 -1.817101419778429 -1.817101745899337 -1.817114101258517 -1.817131233993319 -1.817101751696985 -1.817130553977079 
1.760548118889514 -1.760564136244865 -1.760564462786236 -1.760577563749904 -1.7605976815371 -1.760564213119983 -1.760596513055866 
0.4010052306188176 -0.4010546547968658 -0.4010547341853262 -0.4010554653868701 -0.4010577084015841 -0.4010544458758178 -0.4010569756214186 
0.6748498183402597 -0.6748271356477814 -0.6748272140949633 -0.6748273411469111 -0.6748312509191903 -0.674827029114189 -0.6748298509535946 
1.699598439142031 -1.699606807505072 -1.699607116080731 -1.699620325774509 -1.69964267014843 -1.699606583585648 -1.699641032993673 
-0.4010052306188176 -0.4010546547968658 -0.4010547341853262 -0.4010554653868701 0.4010577084015841 -0.4010544458758178 -0.4010569756214186 
0.4010052306188176 -0.4010546547968658 -0.4010547341853262 -0.4010554653868701 -0.4010577084015841 -0.4010544458758178 -0.4010569756214186 
1.042596732657728 -1.042602212369455 -1.042602367746173 -1.042600096996421 -1.042597274293537 -1.042601273153722 -1.042596870327917 
0.8797151963172535 -0.8797101778262305 -0.8797103614178889 -0.8797099079544174 -0.8797125627327036 -0.8797097276663487 -0.8797108006711177 
0.4010052306188176 -0.4010546547968658 -0.4010547341853262 -0.4010554653868701 -0.4010577084015841 -0.4010544458758178 -0.4010569756214186 
0.8797151963172535 -0.8797101778262305 -0.8797103614178889 -0.8797099079544174 -0.8797125627327036 -0.8797097276663487 -0.8797108006711177 
0.4010052306188176 -0.4010546547968658 -0.4010547341853262 -0.4010554653868701 -0.4010577084015841 -0.4010544458758178 -0.4010569756214186 
0.4010052306188176 -0.4010546547968658 -0.4010547341853262 -0.4010554653868701 -0.4010577084015841 -0.4010544458758178 -0.4010569756214186 
-0.8797151963172535 -0.8797101778262305 -0.8797103614178889 -0.8797099079544174 -0.8797125627327036 0.8797097276663487 -0.8797108006711177 
0.4010052306188176 -0.4010546547968658 -0.4010547341853262 -0.4010554653868701 -0.4010577084015841 -0.4010544458758178 -0.4010569756214186 
0.4010052306188176 -0.4010546547968658 -0.4010547341853262 -0.4010554653868701 -0.4010577084015841 -0.4010544458758178 -0.4010569756214186 
0.4010052306188176 -0.4010546547968658 -0.4010547341853262 -0.4010554653868701 -0.4010577084015841 -0.4010544458758178 -0.4010569756214186 
0.6748498183402597 -0.6748271356477814 -0.6748272140949633 -0.6748273411469111 -0.6748312509191903 -0.674827029114189 -0.6748298509535946 
0.4010052306188176 -0.4010546547968658 -0.4010547341853262 -0.4010554653868701 -0.4010577084015841 -0.4010544458758178 -0.4010569756214186 
0.6748498183402597 -0.6748271356477814 -0.6748272140949633 -0.6748273411469111 -0.6748312509191903 -0.674827029114189 -0.6748298509535946 
0.4010052306188176 -0.4010546547968658 -0.4010547341853262 -0.4010554653868701 -0.4010577084015841 -0.4010544458758178 -0.4010569756214186 
0.6748498183402597 -0.6748271356477814 -0.6748272140949633 -0.6748273411469111 -0.6748312509191903 -0.674827029114189 -0.6748298509535946 
0.6748498183402597 -0.6748271356477814 -0.6748272140949633 -0.6748273411469111 -0.6748312509191903 -0.674827029114189 -0.6748298509535946 
-0.4010052306188176 -0.4010546547968658 0.4010547341853262 -0.4010554653868701 -0.4010577084015841 -0.4010544458758178 -0.4010569756214186 
0.6748498183402597 -0.6748271356477814 -0.6748272140949633 -0.6748273411469111 -0.6748312509191903 -0.674827029114189 -0.6748298509535946 
0.6748498183402597 -0.6748271356477814 -0.6748272140949633 -0.6748273411469111 -0.6748312509191903 -0.674827029114189 -0.6748298509535946 
0.4010052306188176 -0.4010546547968658 -0.4010547341853262 -0.4010554653868701 -0.4010577084015841 -0.4010544458758178 -0.4010569756214186 
0.4010052306188176 -0.4010546547968658 -0.4010547341853262 -0.4010554653868701 -0.4010577084015841 -0.4010544458758178 -0.4010569756214186 
0.6748498183402597 -0.6748271356477814 -0.6748272140949633 -0.6748273411469111 -0.6748312509191903 -0.674827029114189 -0.6748298509535946 
0.6748498183402597 -0.6748271356477814 -0.6748272140949633 -0.6748273411469111 -0.6748312509191903 -0.674827029114189 -0.6748298509535946 
0.4010052306188176 -0.4010546547968658 -0.4010547341853262 -0.4010554653868701 -0.4010577084015841 -0.4010544458758178 -0.4010569756214186 
0.4010052306188176 -0.4010546547968658 -0.4010547341853262 -0.4010554653868701 -0.4010577084015841 -0.4010544458758178 -0.4010569756214186 
0.4010052306188176 -0.4010546547968658 -0.4010547341853262 -0.4010554653868701 -0.4010577084015841 -0.4010544458758178 -0.4010569756214186 
0.4010052306188176 -0.4010546547968658 -0.4010547341853262 -0.4010554653868701 -0.4010577084015841 -0.4010544458758178 -0.4010569756214186 
4.219181214538414 -4.219080216389378 -4.219079222324843 -4.219093625980849 -4.219098434513628 -4.219078844136014 -4.219098797870862 
0.4010052306188176 -0.4010546547968658 -0.4010547341853262 -0.4010554653868701 -0.4010577084015841 -0.4010544458758178 -0.4010569756214186 
0.4010052306188176 -0.4010546547968658 -0.4010547341853262 -0.4010554653868701 -0.4010577084015841 -0.4010544458758178 -0.4010569756214186 
0.4010052306188176 -0.4010546547968658 -0.4010547341853262 -0.4010554653868701 -0.4010577084015841 -0.4010544458758178 -0.4010569756214186 
0.6748498183402597 -0.6748271356477814 -0.6748272140949633 -0.6748273411469111 -0.6748312509191903 -0.674827029114189 -0.6748298509535946 
0.4010052306188176 -0.4010546547968658 -0.4010547341853262 -0.4010554653868701 -0.4010577084015841 -0.4010544458758178 -0.4010569756214186 
-0.4010052306188176 -0.4010546547968658 0.4010547341853262 -0.4010554653868701 -0.4010577084015841 -0.4010544458758178 -0.4010569756214186 
0.4010052306188176 -0.4010546547968658 -0.4010547341853262 -0.4010554653868701 -0.4010577084015841 -0.4010544458758178 -0.4010569756214186 
0.6748498183402597 -0.6748271356477814 -0.6748272140949633 -0.6748273411469111 -0.6748312509191903 -0.674827029114189 -0.6748298509535946 
0.4010052306188176 -0.4010546547968658 -0.4010547341853262 -0.4010554653868701 -0.4010577084015841 -0.4010544458758178 -0.4010569756214186 
0.8797151963172535 -0.8797101778262305 -0.8797103614178889 -0.8797099079544174 -0.8797125627327036 -0.8797097276663487 -0.8797108006711177 
1.292545014904755 -1.292535494740637 -1.292535565553812 -1.292536074377273 -1.292539832753697 -1.292534048112827 -1.292539453020553 
0.4010052306188176 -0.4010546547968658 -0.4010547341853262 -0.4010554653868701 -0.4010577084015841 -0.4010544458758178 -0.4010569756214186 
0.8797151963172535 -0.8797101778262305 -0.8797103614178889 -0.8797099079544174 -0.8797125627327036 -0.8797097276663487 -0.8797108006711177 
2.587560967636658 -2.587670618368766 -2.587671107857478 -2.587673303164502 -2.587660034286608 -2.587670008089273 -2.58766316075614 
0.4010052306188176 -0.4010546547968658 -0.4010547341853262 -0.4010554653868701 -0.4010577084015841 -0.4010544458758178 -0.4010569756214186 
0.4010052306188176 -0.4010546547968658 -0.4010547341853262 -0.4010554653868701 -0.4010577084015841 -0.4010544458758178 -0.4010569756214186 
1.177509710855569 -1.177509538125357 -1.177509631533568 -1.177507583450723 -1.1775052640289 -1.177508236769899 -1.177505374185998 
1.561209817358419 -1.56120157665386 -1.561201792772799 -1.561212461969406 -1.561234339093539 -1.561200689697846 -1.561232254254795 
0.8797151963172535 -0.8797101778262305 -0.8797103614178889 -0.8797099079544174 -0.8797125627327036 -0.8797097276663487 -0.8797108006711177 
0.6748498183402597 -0.6748271356477814 -0.6748272140949633 -0.6748273411469111 -0.6748312509191903 -0.674827029114189 -0.6748298509535946 
0.4010052306188176 -0.4010546547968658 -0.4010547341853262 -0.4010554653868701 -0.4010577084015841 -0.4010544458758178 -0.4010569756214186 
1.561209817358419 -1.56120157665386 -1.561201792772799 -1.561212461969406 -1.561234339093539 -1.561200689697846 -1.561232254254795 
0.4010052306188176 -0.4010546547968658 -0.4010547341853262 -0.4010554653868701 -0.4010577084015841 -0.4010544458758178 -0.4010569756214186 
1.392765927993881 -1.392751261790266 -1.392751358687966 -1.392755557881254 -1.392767066059644 -1.392749872623041 -1.392765868956849 
0.4010052306188176 -0.4010546547968658 -0.4010547341853262 -0.4010554653868701 -0.4010577084015841 -0.4010544458758178 -0.4010569756214186 
0.4010052306188176 -0.4010546547968658 -0.4010547341853262 -0.4010554653868701 -0.4010577084015841 -0.4010544458758178 -0.4010569756214186 
0.4010052306188176 -0.4010546547968658 -0.4010547341853262 -0.4010554653868701 -0.4010577084015841 -0.4010544458758178 -0.4010569756214186 
1.561209817358419 -1.56120157665386 -1.561201792772799 -1.561212461969406 -1.561234339093539 -1.561200689697846 -1.561232254254795 
0.8797151963172535 -0.8797101778262305 -0.8797103614178889 -0.8797099079544174 -0.8797125627327036 -0.8797097276663487 -0.8797108006711177 
-1.292545014904755 0.8264005558677482 -0.8264006997320712 -1.292536074377273 -1.292539832753697 -1.292534048112827 -1.292539453020553 
0.6748498183402597 -0.6748271356477814 -0.6748272140949633 -0.6748273411469111 -0.6748312509191903 -0.674827029114189 -0.6748298509535946 
0.4010052306188176 -0.4010546547968658 -0.4010547341853262 -0.4010554653868701 -0.4010577084015841 -0.4010544458758178 -0.4010569756214186 
1.392765927993881 -1.392751261790266 -1.392751358687966 -1.392755557881254 -1.392767066059644 -1.392749872623041 -1.392765868956849 
-0.8797151963172535 -0.8797101778262305 -0.8797103614178889 -0.8797099079544174 -0.8797125627327036 0.8797097276663487 -0.8797108006711177 
0.6748498183402597 -0.6748271356477814 -0.6748272140949633 -0.6748273411469111 -0.6748312509191903 -0.674827029114189 -0.6748298509535946 
0.4010052306188176 -0.4010546547968658 -0.4010547341853262 -0.4010554653868701 -0.4010577084015841 -0.4010544458758178 -0.4010569756214186 
0.4010052306188176 -0.4010546547968658 -0.4010547341853262 -0.4010554653868701 -0.4010577084015841 -0.4010544458758178 -0.4010569756214186 
-0.4010052306188176 -0.4010546547968658 -0.4010547341853262 -0.4010554653868701 0.4010577084015841 -0.4010544458758178 -0.4010569756214186 
0.6748498183402597 -0.6748271356477814 -0.6748272140949633 -0.6748273411469111 -0.6748312509191903 -0.674827029114189 -0.6748298509535946 
-0.4010052306188176 -0.4010546547968658 -0.4010547341853262 -0.4010554653868701 -0.4010577084015841 -0.4010544458758178 0.4010569756214186 
1.177509710855569 -1.177509538125357 -1.177509631533568 -1.177507583450723 -1.1775052640289 -1.177508236769899 -1.177505374185998 
-1.292545014904755 -1.292535494740637 -1.292535565553812 -1.292536074377273 -1.292539832753697 -1.292534048112827 1.292539453020553 
0.4010052306188176 -0.4010546547968658 -0.4010547341853262 -0.4010554653868701 -0.4010577084015841 -0.4010544458758178 -0.4010569756214186 
0.4010052306188176 -0.4010546547968658 -0.4010547341853262 -0.4010554653868701 -0.4010577084015841 -0.4010544458758178 -0.4010569756214186 
0.4010052306188176 -0.4010546547968658 -0.4010547341853262 -0.4010554653868701 -0.4010577084015841 -0.4010544458758178 -0.4010569756214186 
0.4010052306188176 -0.4010546547968658 -0.4010547341853262 -0.4010554653868701 -0.4010577084015841 -0.4010544458758178 -0.4010569756214186 
0.4010052306188176 -0.4010546547968658 -0.4010547341853262 -0.4010554653868701 -0.4010577084015841 -0.4010544458758178 -0.4010569756214186 
0.4010052306188176 -0.4010546547968658 -0.4010547341853262 -0.4010554653868701 -0.4010577084015841 -0.4010544458758178 -0.4010569756214186 
0.8797151963172535 -0.8797101778262305 -0.8797103614178889 -0.8797099079544174 -0.8797125627327036 -0.8797097276663487 -0.8797108006711177 
0.6748498183402597 -0.6748271356477814 -0.6748272140949633 -0.6748273411469111 -0.6748312509191903 -0.674827029114189 -0.6748298509535946 
-0.4010052306188176 -0.4010546547968658 -0.4010547341853262 -0.4010554653868701 -0.4010577084015841 -0.4010544458758178 0.4010569756214186 
0.4010052306188176 -0.4010546547968658 -0.4010547341853262 -0.4010554653868701 -0.4010577084015841 -0.4010544458758178 -0.4010569756214186 
1.292545014904755 -1.292535494740637 -1.292535565553812 -1.292536074377273 -1.292539832753697 -1.292534048112827 -1.292539453020553 
1.817079467336276 -1.817101419778429 -1.817101745899337 -1.817114101258517 -1.817131233993319 -1.817101751696985 -1.817130553977079 
1.292545014904755 -1.292535494740637 -1.292535565553812 -1.292536074377273 -1.292539832753697 -1.292534048112827 -1.292539453020553 
0.4010052306188176 -0.4010546547968658 -0.4010547341853262 -0.4010554653868701 -0.4010577084015841 -0.4010544458758178 -0.4010569756214186 
0.4010052306188176 -0.4010546547968658 -0.4010547341853262 -0.4010554653868701 -0.4010577084015841 -0.4010544458758178 -0.4010569756214186 
0.4010052306188176 -0.4010546547968658 -0.4010547341853262 -0.4010554653868701 -0.4010577084015841 -0.4010544458758178 -0.4010569756214186 
1.177509710855569 -1.177509538125357 -1.177509631533568 -1.177507583450723 -1.1775052640289 -1.177508236769899 -1.177505374185998 
2.32206166916983 -2.322079285506455 -2.322079401090313 -2.32208058509619 -2.322080044075251 -2.322079395358094 -2.322080629148424 
1.042596732657728 -1.042602212369455 -1.042602367746173 -1.042600096996421 -1.042597274293537 -1.042601273153722 -1.042596870327917 
0.6748498183402597 -0.6748271356477814 -0.6748272140949633 -0.6748273411469111 -0.6748312509191903 -0.674827029114189 -0.6748298509535946 
0.8797151963172535 -0.8797101778262305 -0.8797103614178889 -0.8797099079544174 -0.8797125627327036 -0.8797097276663487 -0.8797108006711177 
0.4010052306188176 -0.4010546547968658 -0.4010547341853262 -0.4010554653868701 -0.4010577084015841 -0.4010544458758178 -0.4010569756214186 
0.4010052306188176 -0.4010546547968658 -0.4010547341853262 -0.4010554653868701 -0.4010577084015841 -0.4010544458758178 -0.4010569756214186 
-0.4010052306188176 -0.4010546547968658 -0.4010547341853262 -0.4010554653868701 -0.4010577084015841 0.4010544458758178 -0.4010569756214186 
1.63347472808348 -1.633474540453159 -1.633474811365053 -1.633487267812217 -1.633510430173339 -1.633473986252131 -1.633508446186145 
0.4010052306188176 -0.4010546547968658 -0.4010547341853262 -0.4010554653868701 -0.4010577084015841 -0.4010544458758178 -0.4010569756214186 
-0.4010052306188176 0.4010546547968658 -0.4010547341853262 -0.4010554653868701 -0.4010577084015841 -0.4010544458758178 -0.4010569756214186 
0.4010052306188176 -0.4010546547968658 -0.4010547341853262 -0.4010554653868701 -0.4010577084015841 -0.4010544458758178 -0.4010569756214186 
1.481538993529653 -1.481525193077275 -1.481525345826418 -1.481533172070923 -1.481551141387587 -1.481524010452209 -1.481549312074077 
0.4010052306188176 -0.4010546547968658 -0.4010547341853262 -0.4010554653868701 -0.4010577084015841 -0.4010544458758178 -0.4010569756214186 
0.4010052306188176 -0.4010546547968658 -0.4010547341853262 -0.4010554653868701 -0.4010577084015841 -0.4010544458758178 -0.4010569756214186 
-0.6748498183402597 0 0 -0.6748273411469111 -0.6748312509191903 -0.674827029114189 -0.6748298509535946 
0.8797151963172535 -0.8797101778262305 -0.8797103614178889 -0.8797099079544174 -0.8797125627327036 -0.8797097276663487 -0.8797108006711177 
1.177509710855569 -1.177509538125357 -1.177509631533568 -1.177507583450723 -1.1775052640289 -1.177508236769899 -1.177505374185998 
0.6748498183402597 -0.6748271356477814 -0.6748272140949633 -0.6748273411469111 -0.6748312509191903 -0.674827029114189 -0.6748298509535946 
0.6748498183402597 -0.6748271356477814 -0.6748272140949633 -0.6748273411469111 -0.6748312509191903 -0.674827029114189 -0.6748298509535946 
-0.4010052306188176 0.4010546547968658 -0.4010547341853262 -0.4010554653868701 -0.4010577084015841 -0.4010544458758178 -0.4010569756214186 
-0.8797151963172535 -0.8797101778262305 -0.8797103614178889 -0.2865485330078751 0.2865478994948381 -0.8797097276663487 -0.8797108006711177 
0.8797151963172535 -0.8797101778262305 -0.8797103614178889 -0.8797099079544174 -0.8797125627327036 -0.8797097276663487 -0.8797108006711177 
0.8797151963172535 -0.8797101778262305 -0.8797103614178889 -0.8797099079544174 -0.8797125627327036 -0.8797097276663487 -0.8797108006711177 
0.4010052306188176 -0.4010546547968658 -0.4010547341853262 -0.4010554653868701 -0.4010577084015841 -0.4010544458758178 -0.4010569756214186 
0.4010052306188176 -0.4010546547968658 -0.4010547341853262 -0.4010554653868701 -0.4010577084015841 -0.4010544458758178 -0.4010569756214186 
0.4010052306188176 -0.4010546547968658 -0.4010547341853262 -0.4010554653868701 -0.4010577084015841 -0.4010544458758178 -0.4010569756214186 
0.6748498183402597 -0.6748271356477814 -0.6748272140949633 -0.6748273411469111 -0.6748312509191903 -0.674827029114189 -0.6748298509535946 
-0.8797151963172535 -0.8797101778262305 -0.8797103614178889 -0.8797099079544174 -0.8797125627327036 0.8797097276663487 -0.8797108006711177 
-0.4010052306188176 -0.4010546547968658 0.4010547341853262 -0.4010554653868701 -0.4010577084015841 -0.4010544458758178 -0.4010569756214186 
0.4010052306188176 -0.4010546547968658 -0.4010547341853262 -0.4010554653868701 -0.4010577084015841 -0.4010544458758178 -0.4010569756214186 
0.4010052306188176 -0.4010546547968658 -0.4010547341853262 -0.4010554653868701 -0.4010577084015841 -0.4010544458758178 -0.4010569756214186 
0.4010052306188176 -0.4010546547968658 -0.4010547341853262 -0.4010554653868701 -0.4010577084015841 -0.4010544458758178 -0.4010569756214186 
0.4010052306188176 -0.4010546547968658 -0.4010547341853262 -0.4010554653868701 -0.4010577084015841 -0.4010544458758178 -0.4010569756214186 
0.4010052306188176 -0.4010546547968658 -0.4010547341853262 -0.4010554653868701 -0.4010577084015841 -0.4010544458758178 -0.4010569756214186 
0.6748498183402597 -0.6748271356477814 -0.6748272140949633 -0.6748273411469111 -0.6748312509191903 -0.674827029114189 -0.6748298509535946 
-0.4010052306188176 -0.4010546547968658 -0.4010547341853262 -0.4010554653868701 0.4010577084015841 -0.4010544458758178 -0.4010569756214186 
0.8797151963172535 -0.8797101778262305 -0.8797103614178889 -0.8797099079544174 -0.8797125627327036 -0.8797097276663487 -0.8797108006711177 
-0.4032095884077392 -1.292535494740637 -1.292535565553812 -1.292536074377273 -1.292539832753697 0.4032137508984344 -1.292539453020553 
0.6748498183402597 -0.6748271356477814 -0.6748272140949633 -0.6748273411469111 -0.6748312509191903 -0.674827029114189 -0.6748298509535946 
0.4010052306188176 -0.4010546547968658 -0.4010547341853262 -0.4010554653868701 -0.4010577084015841 -0.4010544458758178 -0.4010569756214186 
0.4010052306188176 -0.4010546547968658 -0.4010547341853262 -0.4010554653868701 -0.4010577084015841 -0.4010544458758178 -0.4010569756214186 
1.292545014904755 -1.292535494740637 -1.292535565553812 -1.292536074377273 -1.292539832753697 -1.292534048112827 -1.292539453020553 
0.4010052306188176 -0.4010546547968658 -0.4010547341853262 -0.4010554653868701 -0.4010577084015841 -0.4010544458758178 -0.4010569756214186 
0.6748498183402597 -0.6748271356477814 -0.6748272140949633 -0.6748273411469111 -0.6748312509191903 -0.674827029114189 -0.6748298509535946 
0.4010052306188176 -0.4010546547968658 -0.4010547341853262 -0.4010554653868701 -0.4010577084015841 -0.4010544458758178 -0.4010569756214186 
1.177509710855569 -1.177509538125357 -1.177509631533568 -1.177507583450723 -1.1775052640289 -1.177508236769899 -1.177505374185998 
0.8797151963172535 -0.8797101778262305 -0.8797103614178889 -0.8797099079544174 -0.8797125627327036 -0.8797097276663487 -0.8797108006711177 
0.4010052306188176 -0.4010546547968658 -0.4010547341853262 -0.4010554653868701 -0.4010577084015841 -0.4010544458758178 -0.4010569756214186 
-0.4010052306188176 -0.4010546547968658 0.4010547341853262 -0.4010554653868701 -0.4010577084015841 -0.4010544458758178 -0.4010569756214186 
-1.292545014904755 -1.292535494740637 -1.292535565553812 -1.292536074377273 -1.292539832753697 1.292534048112827 -1.292539453020553 
1.042596732657728 -1.042602212369455 -1.042602367746173 -1.042600096996421 -1.042597274293537 -1.042601273153722 -1.042596870327917 
0.6748498183402597 -0.6748271356477814 -0.6748272140949633 -0.6748273411469111 -0.6748312509191903 -0.674827029114189 -0.6748298509535946 
1.177509710855569 -1.177509538125357 -1.177509631533568 -1.177507583450723 -1.1775052640289 -1.177508236769899 -1.177505374185998 
0.4010052306188176 -0.4010546547968658 -0.4010547341853262 -0.4010554653868701 -0.4010577084015841 -0.4010544458758178 -0.4010569756214186 
0.4010052306188176 -0.4010546547968658 -0.4010547341853262 -0.4010554653868701 -0.4010577084015841 -0.4010544458758178 -0.4010569756214186 
0.6748498183402597 -0.6748271356477814 -0.6748272140949633 -0.6748273411469111 -0.6748312509191903 -0.674827029114189 -0.6748298509535946 
0.4010052306188176 -0.4010546547968658 -0.4010547341853262 -0.4010554653868701 -0.4010577084015841 -0.4010544458758178 -0.4010569756214186 
-1.155396393249257 -1.56120157665386 -1.561201792772799 -1.155441086967222 -1.561234339093539 0.7966546108329112 -1.561232254254795 
0.6748498183402597 -0.6748271356477814 -0.6748272140949633 -0.6748273411469111 -0.6748312509191903 -0.674827029114189 -0.6748298509535946 
0.6748498183402597 -0.6748271356477814 -0.6748272140949633 -0.6748273411469111 -0.6748312509191903 -0.674827029114189 -0.6748298509535946 
-0.6748498183402597 -0.6748271356477814 -0.6748272140949633 -0.6748273411469111 0.6748312509191903 -0.674827029114189 -0.6748298509535946 
0.4010052306188176 -0.4010546547968658 -0.4010547341853262 -0.4010554653868701 -0.4010577084015841 -0.4010544458758178 -0.4010569756214186 
0.4010052306188176 -0.4010546547968658 -0.4010547341853262 -0.4010554653868701 -0.4010577084015841 -0.4010544458758178 -0.4010569756214186 
0.6748498183402597 -0.6748271356477814 -0.6748272140949633 -0.6748273411469111 -0.6748312509191903 -0.674827029114189 -0.6748298509535946 
0.4010052306188176 -0.4010546547968658 -0.4010547341853262 -0.4010554653868701 -0.4010577084015841 -0.4010544458758178 -0.4010569756214186 
0.4010052306188176 -0.4010546547968658 -0.4010547341853262 -0.4010554653868701 -0.4010577084015841 -0.4010544458758178 -0.4010569756214186 
-0.4010052306188176 -0.4010546547968658 0.4010547341853262 -0.4010554653868701 -0.4010577084015841 -0.4010544458758178 -0.4010569756214186 
1.392765927993881 -1.392751261790266 -1.392751358687966 -1.392755557881254 -1.392767066059644 -1.392749872623041 -1.392765868956849 
0.4010052306188176 -0.4010546547968658 -0.4010547341853262 -0.4010554653868701 -0.4010577084015841 -0.4010544458758178 -0.4010569756214186 
0.2865473357035809 -0.8797101778262305 -0.2865492067458331 -0.8797099079544174 -0.8797125627327036 -0.8797097276663487 -0.8797108006711177 
0.6748498183402597 -0.6748271356477814 -0.6748272140949633 -0.6748273411469111 -0.6748312509191903 -0.674827029114189 -0.6748298509535946 
1.042596732657728 -1.042602212369455 -1.042602367746173 -1.042600096996421 -1.042597274293537 -1.042601273153722 -1.042596870327917 
0.6748498183402597 -0.6748271356477814 -0.6748272140949633 -0.6748273411469111 -0.6748312509191903 -0.674827029114189 -0.6748298509535946 
0.8797151963172535 -0.8797101778262305 -0.8797103614178889 -0.8797099079544174 -0.8797125627327036 -0.8797097276663487 -0.8797108006711177 
0.4010052306188176 -0.4010546547968658 -0.4010547341853262 -0.4010554653868701 -0.4010577084015841 -0.4010544458758178 -0.4010569756214186 
-0.4010052306188176 0.4010546547968658 -0.4010547341853262 -0.4010554653868701 -0.4010577084015841 -0.4010544458758178 -0.4010569756214186 
0.4010052306188176 -0.4010546547968658 -0.4010547341853262 -0.4010554653868701 -0.4010577084015841 -0.4010544458758178 -0.4010569756214186 
0.4010052306188176 -0.4010546547968658 -0.4010547341853262 -0.4010554653868701 -0.4010577084015841 -0.4010544458758178 -0.4010569756214186 
0.4010052306188176 -0.4010546547968658 -0.4010547341853262 -0.4010554653868701 -0.4010577084015841 -0.4010544458758178 -0.4010569756214186 
0.6748498183402597 -0.6748271356477814 -0.6748272140949633 -0.6748273411469111 -0.6748312509191903 -0.674827029114189 -0.6748298509535946 
1.481538993529653 -1.481525193077275 -1.481525345826418 -1.481533172070923 -1.481551141387587 -1.481524010452209 -1.481549312074077 
-0.6748498183402597 0.6748271356477814 -0.6748272140949633 -0.6748273411469111 -0.6748312509191903 -0.674827029114189 -0.6748298509535946 
0.4010052306188176 -0.4010546547968658 -0.4010547341853262 -0.4010554653868701 -0.4010577084015841 -0.4010544458758178 -0.4010569756214186 
0.6748498183402597 -0.6748271356477814 -0.6748272140949633 -0.6748273411469111 -0.6748312509191903 -0.674827029114189 -0.6748298509535946 
0.4010052306188176 -0.4010546547968658 -0.4010547341853262 -0.4010554653868701 -0.4010577084015841 -0.4010544458758178 -0.4010569756214186 
0.4010052306188176 -0.4010546547968658 -0.4010547341853262 -0.4010554653868701 -0.4010577084015841 -0.4010544458758178 -0.4010569756214186 
0.4010052306188176 -0.4010546547968658 -0.4010547341853262 -0.4010554653868701 -0.4010577084015841 -0.4010544458758178 -0.4010569756214186 
-0.6748498183402597 -0.6748271356477814 0.6748272140949633 -0.6748273411469111 -0.6748312509191903 -0.674827029114189 -0.6748298509535946 
-0.4010052306188176 -0.4010546547968658 0.4010547341853262 -0.4010554653868701 -0.4010577084015841 -0.4010544458758178 -0.4010569756214186 
-0.4010052306188176 0.4010546547968658 -0.4010547341853262 -0.4010554653868701 -0.4010577084015841 -0.4010544458758178 -0.4010569756214186 
1.561209817358419 -1.56120157665386 -1.561201792772799 -1.561212461969406 -1.561234339093539 -1.561200689697846 -1.561232254254795 
0.4010052306188176 -0.4010546547968658 -0.4010547341853262 -0.4010554653868701 -0.4010577084015841 -0.4010544458758178 -0.4010569756214186 
0.6748498183402597 -0.6748271356477814 -0.6748272140949633 -0.6748273411469111 -0.6748312509191903 -0.674827029114189 -0.6748298509535946 
0.4010052306188176 -0.4010546547968658 -0.4010547341853262 -0.4010554653868701 -0.4010577084015841 -0.4010544458758178 -0.4010569756214186 
0.4010052306188176 -0.4010546547968658 -0.4010547341853262 -0.4010554653868701 -0.4010577084015841 -0.4010544458758178 -0.4010569756214186 
0.4010052306188176 -0.4010546547968658 -0.4010547341853262 -0.4010554653868701 -0.4010577084015841 -0.4010544458758178 -0.4010569756214186 
1.177509710855569 -1.177509538125357 -1.177509631533568 -1.177507583450723 -1.1775052640289 -1.177508236769899 -1.177505374185998 
0.6748498183402597 -0.6748271356477814 -0.6748272140949633 -0.6748273411469111 -0.6748312509191903 -0.674827029114189 -0.6748298509535946 
1.292545014904755 -1.292535494740637 -1.292535565553812 -1.292536074377273 -1.292539832753697 -1.292534048112827 -1.292539453020553 
0.4010052306188176 -0.4010546547968658 -0.4010547341853262 -0.4010554653868701 -0.4010577084015841 -0.4010544458758178 -0.4010569756214186 
0.4010052306188176 -0.4010546547968658 -0.4010547341853262 -0.4010554653868701 -0.4010577084015841 -0.4010544458758178 -0.4010569756214186 
1.481538993529653 -1.481525193077275 -1.481525345826418 -1.481533172070923 -1.481551141387587 -1.481524010452209 -1.481549312074077 
0.6748498183402597 -0.6748271356477814 -0.6748272140949633 -0.6748273411469111 -0.6748312509191903 -0.674827029114189 -0.6748298509535946 
-0.6748498183402597 0 0 -0.6748273411469111 -0.6748312509191903 -0.674827029114189 -0.6748298509535946 
-0.4010052306188176 -0.4010546547968658 -0.4010547341853262 -0.4010554653868701 -0.4010577084015841 0.4010544458758178 -0.4010569756214186 
0.4010052306188176 -0.4010546547968658 -0.4010547341853262 -0.4010554653868701 -0.4010577084015841 -0.4010544458758178 -0.4010569756214186 
0.4010052306188176 -0.4010546547968658 -0.4010547341853262 -0.4010554653868701 -0.4010577084015841 -0.4010544458758178 -0.4010569756214186 
0.4010052306188176 -0.4010546547968658 -0.4010547341853262 -0.4010554653868701 -0.4010577084015841 -0.4010544458758178 -0.4010569756214186 
0.6748498183402597 -0.6748271356477814 -0.6748272140949633 -0.6748273411469111 -0.6748312509191903 -0.674827029114189 -0.6748298509535946 
0.8797151963172535 -0.8797101778262305 -0.8797103614178889 -0.8797099079544174 -0.8797125627327036 -0.8797097276663487 -0.8797108006711177 
0.4010052306188176 -0.4010546547968658 -0.4010547341853262 -0.4010554653868701 -0.4010577084015841 -0.4010544458758178 -0.4010569756214186 
0.4010052306188176 -0.4010546547968658 -0.4010547341853262 -0.4010554653868701 -0.4010577084015841 -0.4010544458758178 -0.4010569756214186 
0.6748498183402597 -0.6748271356477814 -0.6748272140949633 -0.6748273411469111 -0.6748312509191903 -0.674827029114189 -0.6748298509535946 
1.292545014904755 -1.292535494740637 -1.292535565553812 -1.292536074377273 -1.292539832753697 -1.292534048112827 -1.292539453020553 
0.4010052306188176 -0.4010546547968658 -0.4010547341853262 -0.4010554653868701 -0.4010577084015841 -0.4010544458758178 -0.4010569756214186 
-0.4010052306188176 -0.4010546547968658 -0.4010547341853262 -0.4010554653868701 -0.4010577084015841 -0.4010544458758178 0.4010569756214186 
0.6748498183402597 -0.6748271356477814 -0.6748272140949633 -0.6748273411469111 -0.6748312509191903 -0.674827029114189 -0.6748298509535946 
0.6748498183402597 -0.6748271356477814 -0.6748272140949633 -0.6748273411469111 -0.6748312509191903 -0.674827029114189 -0.6748298509535946 
0.4010052306188176 -0.4010546547968658 -0.4010547341853262 -0.4010554653868701 -0.4010577084015841 -0.4010544458758178 -0.4010569756214186 
0.4010052306188176 -0.4010546547968658 -0.4010547341853262 -0.4010554653868701 -0.4010577084015841 -0.4010544458758178 -0.4010569756214186 
1.292545014904755 -1.292535494740637 -1.292535565553812 -1.292536074377273 -1.292539832753697 -1.292534048112827 -1.292539453020553 
0.4010052306188176 -0.4010546547968658 -0.4010547341853262 -0.4010554653868701 -0.4010577084015841 -0.4010544458758178 -0.4010569756214186 
0.6748498183402597 -0.6748271356477814 -0.6748272140949633 -0.6748273411469111 -0.6748312509191903 -0.674827029114189 -0.6748298509535946 
0.4010052306188176 -0.4010546547968658 -0.4010547341853262 -0.4010554653868701 -0.4010577084015841 -0.4010544458758178 -0.4010569756214186 
0.4010052306188176 -0.4010546547968658 -0.4010547341853262 -0.4010554653868701 -0.4010577084015841 -0.4010544458758178 -0.4010569756214186 
0.4010052306188176 -0.4010546547968658 -0.4010547341853262 -0.4010554653868701 -0.4010577084015841 -0.4010544458758178 -0.4010569756214186 
-0.4010052306188176 -0.4010546547968658 0.4010547341853262 -0.4010554653868701 -0.4010577084015841 -0.4010544458758178 -0.4010569756214186 
0.4010052306188176 -0.4010546547968658 -0.4010547341853262 -0.4010554653868701 -0.4010577084015841 -0.4010544458758178 -0.4010569756214186 
0.8797151963172535 -0.8797101778262305 -0.8797103614178889 -0.8797099079544174 -0.8797125627327036 -0.8797097276663487 -0.8797108006711177 
-0.8797151963172535 -0.8797101778262305 -0.8797103614178889 -0.8797099079544174 -0.2865478994948381 -0.2865488698624533 -0.286547588863914 
0.4010052306188176 -0.4010546547968658 -0.4010547341853262 -0.4010554653868701 -0.4010577084015841 -0.4010544458758178 -0.4010569756214186 
3.258467197447916 -3.258396085221328 -3.258396696813004 -3.258383507091562 -3.258378096709455 -3.25839585805086 -3.258385711948187 
0.4010052306188176 -0.4010546547968658 -0.4010547341853262 -0.4010554653868701 -0.4010577084015841 -0.4010544458758178 -0.4010569756214186 
-0.4010052306188176 -0.4010546547968658 -0.4010547341853262 -0.4010554653868701 -0.4010577084015841 -0.4010544458758178 0.4010569756214186 
1.177509710855569 -1.177509538125357 -1.177509631533568 -1.177507583450723 -1.1775052640289 -1.177508236769899 -1.177505374185998 
0.4010052306188176 -0.4010546547968658 -0.4010547341853262 -0.4010554653868701 -0.4010577084015841 -0.4010544458758178 -0.4010569756214186 
-0.6748498183402597 0.6748271356477814 -0.6748272140949633 -0.6748273411469111 -0.6748312509191903 -0.674827029114189 -0.6748298509535946 
0.4010052306188176 -0.4010546547968658 -0.4010547341853262 -0.4010554653868701 -0.4010577084015841 -0.4010544458758178 -0.4010569756214186 
0.6748498183402597 -0.6748271356477814 -0.6748272140949633 -0.6748273411469111 -0.6748312509191903 -0.674827029114189 -0.6748298509535946 
0 -0.6748271356477814 -0.6748272140949633 -0.6748273411469111 0 -0.674827029114189 -0.6748298509535946 
-0.4010052306188176 -0.4010546547968658 0.4010547341853262 -0.4010554653868701 -0.4010577084015841 -0.4010544458758178 -0.4010569756214186 
0.4010052306188176 -0.4010546547968658 -0.4010547341853262 -0.4010554653868701 -0.4010577084015841 -0.4010544458758178 -0.4010569756214186 
1.042596732657728 -1.042602212369455 -1.042602367746173 -1.042600096996421 -1.042597274293537 -1.042601273153722 -1.042596870327917 
0.8797151963172535 -0.8797101778262305 -0.8797103614178889 -0.8797099079544174 -0.8797125627327036 -0.8797097276663487 -0.8797108006711177 
-0.6748498183402597 -0.6748271356477814 0.6748272140949633 -0.6748273411469111 -0.6748312509191903 -0.674827029114189 -0.6748298509535946 
0.4010052306188176 -0.4010546547968658 -0.4010547341853262 -0.4010554653868701 -0.4010577084015841 -0.4010544458758178 -0.4010569756214186 
0.4010052306188176 -0.4010546547968658 -0.4010547341853262 -0.4010554653868701 -0.4010577084015841 -0.4010544458758178 -0.4010569756214186 
0.4010052306188176 -0.4010546547968658 -0.4010547341853262 -0.4010554653868701 -0.4010577084015841 -0.4010544458758178 -0.4010569756214186 
0.6748498183402597 -0.6748271356477814 -0.6748272140949633 -0.6748273411469111 -0.6748312509191903 -0.674827029114189 -0.6748298509535946 
0.4010052306188176 -0.4010546547968658 -0.4010547341853262 -0.4010554653868701 -0.4010577084015841 -0.4010544458758178 -0.4010569756214186 
0.4010052306188176 -0.4010546547968658 -0.4010547341853262 -0.4010554653868701 -0.4010577084015841 -0.4010544458758178 -0.4010569756214186 
0.6748498183402597 -0.6748271356477814 -0.6748272140949633 -0.6748273411469111 -0.6748312509191903 -0.674827029114189 -0.6748298509535946 
-0.4010052306188176 -0.4010546547968658 -0.4010547341853262 -0.4010554653868701 -0.4010577084015841 0.4010544458758178 -0.4010569756214186 
-0.4010052306188176 -0.4010546547968658 -0.4010547341853262 -0.4010554653868701 0.4010577084015841 -0.4010544458758178 -0.4010569756214186 
0.4010052306188176 -0.4010546547968658 -0.4010547341853262 -0.4010554653868701 -0.4010577084015841 -0.4010544458758178 -0.4010569756214186 
-1.177509710855569 0.6806115539895885 -0.6806116153882624 -1.177507583450723 -1.1775052640289 -1.177508236769899 -1.177505374185998 
-0.4010052306188176 -0.4010546547968658 -0.4010547341853262 -0.4010554653868701 -0.4010577084015841 -0.4010544458758178 0.4010569756214186 
-0.4010052306188176 -0.4010546547968658 -0.4010547341853262 0.4010554653868701 -0.4010577084015841 -0.4010544458758178 -0.4010569756214186 
0.4010052306188176 -0.4010546547968658 -0.4010547341853262 -0.4010554653868701 -0.4010577084015841 -0.4010544458758178 -0.4010569756214186 
1.042596732657728 -1.042602212369455 -1.042602367746173 -1.042600096996421 -1.042597274293537 -1.042601273153722 -1.042596870327917 
0.4010052306188176 -0.4010546547968658 -0.4010547341853262 -0.4010554653868701 -0.4010577084015841 -0.4010544458758178 -0.4010569756214186 
0.6748498183402597 -0.6748271356477814 -0.6748272140949633 -0.6748273411469111 -0.6748312509191903 -0.674827029114189 -0.6748298509535946 
0.4010052306188176 -0.4010546547968658 -0.4010547341853262 -0.4010554653868701 -0.4010577084015841 -0.4010544458758178 -0.4010569756214186 
-0.8797151963172535 -0.8797101778262305 -0.8797103614178889 -0.8797099079544174 -0.2865478994948381 0.2865488698624533 -0.8797108006711177 
-1.392765927993881 0.9508864786355183 -0.9508867346725116 -1.392755557881254 -1.392767066059644 -1.392749872623041 -1.392765868956849 
0.6748498183402597 -0.6748271356477814 -0.6748272140949633 -0.6748273411469111 -0.6748312509191903 -0.674827029114189 -0.6748298509535946 
0.4010052306188176 -0.4010546547968658 -0.4010547341853262 -0.4010554653868701 -0.4010577084015841 -0.4010544458758178 -0.4010569756214186 
0.4010052306188176 -0.4010546547968658 -0.4010547341853262 -0.4010554653868701 -0.4010577084015841 -0.4010544458758178 -0.4010569756214186 
0.4010052306188176 -0.4010546547968658 -0.4010547341853262 -0.4010554653868701 -0.4010577084015841 -0.4010544458758178 -0.4010569756214186 
0.4010052306188176 -0.4010546547968658 -0.4010547341853262 -0.4010554653868701 -0.4010577084015841 -0.4010544458758178 -0.4010569756214186 
0.4010052306188176 -0.4010546547968658 -0.4010547341853262 -0.4010554653868701 -0.4010577084015841 -0.4010544458758178 -0.4010569756214186 
0.4010052306188176 -0.4010546547968658 -0.4010547341853262 -0.4010554653868701 -0.4010577084015841 -0.4010544458758178 -0.4010569756214186 
1.481538993529653 -1.481525193077275 -1.481525345826418 -1.481533172070923 -1.481551141387587 -1.481524010452209 -1.481549312074077 
0.4010052306188176 -0.4010546547968658 -0.4010547341853262 -0.4010554653868701 -0.4010577084015841 -0.4010544458758178 -0.4010569756214186 
0.8797151963172535 -0.8797101778262305 -0.8797103614178889 -0.8797099079544174 -0.8797125627327036 -0.8797097276663487 -0.8797108006711177 
0.4010052306188176 -0.4010546547968658 -0.4010547341853262 -0.4010554653868701 -0.4010577084015841 -0.4010544458758178 -0.4010569756214186 
1.177509710855569 -1.177509538125357 -1.177509631533568 -1.177507583450723 -1.1775052640289 -1.177508236769899 -1.177505374185998 
0.2865473357035809 -0.8797101778262305 -0.8797103614178889 -0.8797099079544174 -0.2865478994948381 -0.8797097276663487 -0.8797108006711177 
0.6748498183402597 -0.6748271356477814 -0.6748272140949633 -0.6748273411469111 -0.6748312509191903 -0.674827029114189 -0.6748298509535946 
-0.2865473357035809 -0.8797101778262305 -0.8797103614178889 -0.8797099079544174 0.2865478994948381 -0.8797097276663487 -0.8797108006711177 
0.4010052306188176 -0.4010546547968658 -0.4010547341853262 -0.4010554653868701 -0.4010577084015841 -0.4010544458758178 -0.4010569756214186 
0.4010052306188176 -0.4010546547968658 -0.4010547341853262 -0.4010554653868701 -0.4010577084015841 -0.4010544458758178 -0.4010569756214186 
0.4010052306188176 -0.4010546547968658 -0.4010547341853262 -0.4010554653868701 -0.4010577084015841 -0.4010544458758178 -0.4010569756214186 
0.4010052306188176 -0.4010546547968658 -0.4010547341853262 -0.4010554653868701 -0.4010577084015841 -0.4010544458758178 -0.4010569756214186 
0.4010052306188176 -0.4010546547968658 -0.4010547341853262 -0.4010554653868701 -0.4010577084015841 -0.4010544458758178 -0.4010569756214186 
-0.4010052306188176 -0.4010546547968658 0.4010547341853262 -0.4010554653868701 -0.4010577084015841 -0.4010544458758178 -0.4010569756214186 
0.4010052306188176 -0.4010546547968658 -0.4010547341853262 -0.4010554653868701 -0.4010577084015841 -0.4010544458758178 -0.4010569756214186 
0.4010052306188176 -0.4010546547968658 -0.4010547341853262 -0.4010554653868701 -0.4010577084015841 -0.4010544458758178 -0.4010569756214186 
-0.8797151963172535 0.8797101778262305 -0.8797103614178889 -0.8797099079544174 -0.8797125627327036 -0.8797097276663487 -0.8797108006711177 
-0.6748498183402597 -0.6748271356477814 -0.6748272140949633 -0.6748273411469111 -0.6748312509191903 0.674827029114189 -0.6748298509535946 
0.4010052306188176 -0.4010546547968658 -0.4010547341853262 -0.4010554653868701 -0.4010577084015841 -0.4010544458758178 -0.4010569756214186 
0.6748498183402597 -0.6748271356477814 -0.6748272140949633 -0.6748273411469111 -0.6748312509191903 -0.674827029114189 -0.6748298509535946 
0.4010052306188176 -0.4010546547968658 -0.4010547341853262 -0.4010554653868701 -0.4010577084015841 -0.4010544458758178 -0.4010569756214186 
1.292545014904755 -1.292535494740637 -1.292535565553812 -1.292536074377273 -1.292539832753697 -1.292534048112827 -1.292539453020553 
0.4010052306188176 -0.4010546547968658 -0.4010547341853262 -0.4010554653868701 -0.4010577084015841 -0.4010544458758178 -0.4010569756214186 
0.4010052306188176 -0.4010546547968658 -0.4010547341853262 -0.4010554653868701 -0.4010577084015841 -0.4010544458758178 -0.4010569756214186 
0.4010052306188176 -0.4010546547968658 -0.4010547341853262 -0.4010554653868701 -0.4010577084015841 -0.4010544458758178 -0.4010569756214186 
0.4010052306188176 -0.4010546547968658 -0.4010547341853262 -0.4010554653868701 -0.4010577084015841 -0.4010544458758178 -0.4010569756214186 
-1.177509710855569 -0.6806115539895885 0.6806116153882624 -1.177507583450723 -1.1775052640289 -1.177508236769899 -1.177505374185998 
0.4010052306188176 -0.4010546547968658 -0.4010547341853262 -0.4010554653868701 -0.4010577084015841 -0.4010544458758178 -0.4010569756214186 
-0.4010052306188176 -0.4010546547968658 -0.4010547341853262 -0.4010554653868701 -0.4010577084015841 0.4010544458758178 -0.4010569756214186 
0.4010052306188176 -0.4010546547968658 -0.4010547341853262 -0.4010554653868701 -0.4010577084015841 -0.4010544458758178 -0.4010569756214186 
2.090453996990413 -2.090476174234214 -2.090476325759058 -2.090480818650792 -2.090483298396253 -2.090476964298248 -2.090483915077757 
0.8797151963172535 -0.8797101778262305 -0.8797103614178889 -0.8797099079544174 -0.8797125627327036 -0.8797097276663487 -0.8797108006711177 
0.4010052306188176 -0.4010546547968658 -0.4010547341853262 -0.4010554653868701 -0.4010577084015841 -0.4010544458758178 -0.4010569756214186 
0.4010052306188176 -0.4010546547968658 -0.4010547341853262 -0.4010554653868701 -0.4010577084015841 -0.4010544458758178 -0.4010569756214186 
0.4010052306188176 -0.4010546547968658 -0.4010547341853262 -0.4010554653868701 -0.4010577084015841 -0.4010544458758178 -0.4010569756214186 
0.4010052306188176 -0.4010546547968658 -0.4010547341853262 -0.4010554653868701 -0.4010577084015841 -0.4010544458758178 -0.4010569756214186 
-0.4010052306188176 0.4010546547968658 -0.4010547341853262 -0.4010554653868701 -0.4010577084015841 -0.4010544458758178 -0.4010569756214186 
0.8797151963172535 -0.8797101778262305 -0.8797103614178889 -0.8797099079544174 -0.8797125627327036 -0.8797097276663487 -0.8797108006711177 
0.6748498183402597 -0.6748271356477814 -0.6748272140949633 -0.6748273411469111 -0.6748312509191903 -0.674827029114189 -0.6748298509535946 
0.4010052306188176 -0.4010546547968658 -0.4010547341853262 -0.4010554653868701 -0.4010577084015841 -0.4010544458758178 -0.4010569756214186 
-0.4010052306188176 -0.4010546547968658 0.4010547341853262 -0.4010554653868701 -0.4010577084015841 -0.4010544458758178 -0.4010569756214186 
-0.6748498183402597 -0.6748271356477814 0 -0.6748273411469111 -0.6748312509191903 0 -0.6748298509535946 
0.4010052306188176 -0.4010546547968658 -0.4010547341853262 -0.4010554653868701 -0.4010577084015841 -0.4010544458758178 -0.4010569756214186 
0.4010052306188176 -0.4010546547968658 -0.4010547341853262 -0.4010554653868701 -0.4010577084015841 -0.4010544458758178 -0.4010569756214186 
0.4010052306188176 -0.4010546547968658 -0.4010547341853262 -0.4010554653868701 -0.4010577084015841 -0.4010544458758178 -0.4010569756214186 
0.6748498183402597 -0.6748271356477814 -0.6748272140949633 -0.6748273411469111 -0.6748312509191903 -0.674827029114189 -0.6748298509535946 
0.4010052306188176 -0.4010546547968658 -0.4010547341853262 -0.4010554653868701 -0.4010577084015841 -0.4010544458758178 -0.4010569756214186 
0.4010052306188176 -0.4010546547968658 -0.4010547341853262 -0.4010554653868701 -0.4010577084015841 -0.4010544458758178 -0.4010569756214186 
0.6748498183402597 -0.6748271356477814 -0.6748272140949633 -0.6748273411469111 -0.6748312509191903 -0.674827029114189 -0.6748298509535946 
-0.4010052306188176 -0.4010546547968658 -0.4010547341853262 -0.4010554653868701 -0.4010577084015841 -0.4010544458758178 0.4010569756214186 
0.4010052306188176 -0.4010546547968658 -0.4010547341853262 -0.4010554653868701 -0.4010577084015841 -0.4010544458758178 -0.4010569756214186 
0.4010052306188176 -0.4010546547968658 -0.4010547341853262 -0.4010554653868701 -0.4010577084015841 -0.4010544458758178 -0.4010569756214186 
0.4010052306188176 -0.4010546547968658 -0.4010547341853262 -0.4010554653868701 -0.4010577084015841 -0.4010544458758178 -0.4010569756214186 
0.4010052306188176 -0.4010546547968658 -0.4010547341853262 -0.4010554653868701 -0.4010577084015841 -0.4010544458758178 -0.4010569756214186 
0.4010052306188176 -0.4010546547968658 -0.4010547341853262 -0.4010554653868701 -0.4010577084015841 -0.4010544458758178 -0.4010569756214186 
-0.4010052306188176 -0.4010546547968658 0.4010547341853262 -0.4010554653868701 -0.4010577084015841 -0.4010544458758178 -0.4010569756214186 
0 -0.6748271356477814 -0.6748272140949633 0 -0.6748312509191903 -0.674827029114189 -0.6748298509535946 
0.4010052306188176 -0.4010546547968658 -0.4010547341853262 -0.4010554653868701 -0.4010577084015841 -0.4010544458758178 -0.4010569756214186 
-0.4010052306188176 -0.4010546547968658 -0.4010547341853262 -0.4010554653868701 0.4010577084015841 -0.4010544458758178 -0.4010569756214186 
0.4010052306188176 -0.4010546547968658 -0.4010547341853262 -0.4010554653868701 -0.4010577084015841 -0.4010544458758178 -0.4010569756214186 
0.4010052306188176 -0.4010546547968658 -0.4010547341853262 -0.4010554653868701 -0.4010577084015841 -0.4010544458758178 -0.4010569756214186 
0.4010052306188176 -0.4010546547968658 -0.4010547341853262 -0.4010554653868701 -0.4010577084015841 -0.4010544458758178 -0.4010569756214186 
-0.4010052306188176 -0.4010546547968658 -0.4010547341853262 -0.4010554653868701 -0.4010577084015841 0.4010544458758178 -0.4010569756214186 
0.4010052306188176 -0.4010546547968658 -0.4010547341853262 -0.4010554653868701 -0.4010577084015841 -0.4010544458758178 -0.4010569756214186 
1.392765927993881 -1.392751261790266 -1.392751358687966 -1.392755557881254 -1.392767066059644 -1.392749872623041 -1.392765868956849 
-0.4010052306188176 -0.4010546547968658 -0.4010547341853262 -0.4010554653868701 -0.4010577084015841 0.4010544458758178 -0.4010569756214186 
0.4010052306188176 -0.4010546547968658 -0.4010547341853262 -0.4010554653868701 -0.4010577084015841 -0.4010544458758178 -0.4010569756214186 
0.4010052306188176 -0.4010546547968658 -0.4010547341853262 -0.4010554653868701 -0.4010577084015841 -0.4010544458758178 -0.4010569756214186 
0.4010052306188176 -0.4010546547968658 -0.4010547341853262 -0.4010554653868701 -0.4010577084015841 -0.4010544458758178 -0.4010569756214186 
-1.481538993529653 -1.481525193077275 -1.481525345826418 -1.481533172070923 -1.481551141387587 1.481524010452209 -1.481549312074077 
0.4010052306188176 -0.4010546547968658 -0.4010547341853262 -0.4010554653868701 -0.4010577084015841 -0.4010544458758178 -0.4010569756214186 
0.4010052306188176 -0.4010546547968658 -0.4010547341853262 -0.4010554653868701 -0.4010577084015841 -0.4010544458758178 -0.4010569756214186 
-0.4010052306188176 0.4010546547968658 -0.4010547341853262 -0.4010554653868701 -0.4010577084015841 -0.4010544458758178 -0.4010569756214186 
0.6748498183402597 -0.6748271356477814 -0.6748272140949633 -0.6748273411469111 -0.6748312509191903 -0.674827029114189 -0.6748298509535946 
-0.6748498183402597 0.6748271356477814 -0.6748272140949633 -0.6748273411469111 -0.6748312509191903 -0.674827029114189 -0.6748298509535946 
0.4010052306188176 -0.4010546547968658 -0.4010547341853262 -0.4010554653868701 -0.4010577084015841 -0.4010544458758178 -0.4010569756214186 
-0.4010052306188176 0.4010546547968658 -0.4010547341853262 -0.4010554653868701 -0.4010577084015841 -0.4010544458758178 -0.4010569756214186 
0.4010052306188176 -0.4010546547968658 -0.4010547341853262 -0.4010554653868701 -0.4010577084015841 -0.4010544458758178 -0.4010569756214186 
0.4010052306188176 -0.4010546547968658 -0.4010547341853262 -0.4010554653868701 -0.4010577084015841 -0.4010544458758178 -0.4010569756214186 
0.6748498183402597 -0.6748271356477814 -0.6748272140949633 -0.6748273411469111 -0.6748312509191903 -0.674827029114189 -0.6748298509535946 
0.4010052306188176 -0.4010546547968658 -0.4010547341853262 -0.4010554653868701 -0.4010577084015841 -0.4010544458758178 -0.4010569756214186 
-0.8797151963172535 0.8797101778262305 -0.8797103614178889 -0.8797099079544174 -0.8797125627327036 -0.8797097276663487 -0.8797108006711177 
0.4010052306188176 -0.4010546547968658 -0.4010547341853262 -0.4010554653868701 -0.4010577084015841 -0.4010544458758178 -0.4010569756214186 
-0.4010052306188176 0.4010546547968658 -0.4010547341853262 -0.4010554653868701 -0.4010577084015841 -0.4010544458758178 -0.4010569756214186 
1.042596732657728 -1.042602212369455 -1.042602367746173 -1.042600096996421 -1.042597274293537 -1.042601273153722 -1.042596870327917 
1.817079467336276 -1.817101419778429 -1.817101745899337 -1.817114101258517 -1.817131233993319 -1.817101751696985 -1.817130553977079 
0.4010052306188176 -0.4010546547968658 -0.4010547341853262 -0.4010554653868701 -0.4010577084015841 -0.4010544458758178 -0.4010569756214186 
3.374997970883264 -3.374983420180097 -3.374984148705847 -3.374963122330932 -3.374944868845944 -3.374983221603858 -3.374953302236417 
0.8797151963172535 -0.8797101778262305 -0.8797103614178889 -0.8797099079544174 -0.8797125627327036 -0.8797097276663487 -0.8797108006711177 
0.8797151963172535 -0.8797101778262305 -0.8797103614178889 -0.8797099079544174 -0.8797125627327036 -0.8797097276663487 -0.8797108006711177 
0.4010052306188176 -0.4010546547968658 -0.4010547341853262 -0.4010554653868701 -0.4010577084015841 -0.4010544458758178 -0.4010569756214186 
0.4010052306188176 -0.4010546547968658 -0.4010547341853262 -0.4010554653868701 -0.4010577084015841 -0.4010544458758178 -0.4010569756214186 
0.4010052306188176 -0.4010546547968658 -0.4010547341853262 -0.4010554653868701 -0.4010577084015841 -0.4010544458758178 -0.4010569756214186 
-0.4010052306188176 0.4010546547968658 -0.4010547341853262 -0.4010554653868701 -0.4010577084015841 -0.4010544458758178 -0.4010569756214186 
1.177509710855569 -1.177509538125357 -1.177509631533568 -1.177507583450723 -1.1775052640289 -1.177508236769899 -1.177505374185998 
-1.042596732657728 -1.042602212369455 1.042602367746173 -1.042600096996421 -1.042597274293537 -1.042601273153722 -1.042596870327917 
0.6748498183402597 -0.6748271356477814 -0.6748272140949633 -0.6748273411469111 -0.6748312509191903 -0.674827029114189 -0.6748298509535946 
3.617211785567241 -4.104877976464882 -4.104877716386383 -4.104866512888727 -3.617212116647199 -4.104876993117066 -4.104859662439393 
0.4010052306188176 -0.4010546547968658 -0.4010547341853262 -0.4010554653868701 -0.4010577084015841 -0.4010544458758178 -0.4010569756214186 
0.4010052306188176 -0.4010546547968658 -0.4010547341853262 -0.4010554653868701 -0.4010577084015841 -0.4010544458758178 -0.4010569756214186 
0.4010052306188176 -0.4010546547968658 -0.4010547341853262 -0.4010554653868701 -0.4010577084015841 -0.4010544458758178 -0.4010569756214186 
-0.6748498183402597 -0.6748271356477814 -0.6748272140949633 -0.6748273411469111 -0.6748312509191903 0.674827029114189 -0.6748298509535946 
0.4010052306188176 -0.4010546547968658 -0.4010547341853262 -0.4010554653868701 -0.4010577084015841 -0.4010544458758178 -0.4010569756214186 
1.292545014904755 -1.292535494740637 -1.292535565553812 -1.292536074377273 -1.292539832753697 -1.292534048112827 -1.292539453020553 
1.042596732657728 -1.042602212369455 -1.042602367746173 -1.042600096996421 -1.042597274293537 -1.042601273153722 -1.042596870327917 
1.392765927993881 -1.392751261790266 -1.392751358687966 -1.392755557881254 -1.392767066059644 -1.392749872623041 -1.392765868956849 
0.8797151963172535 -0.8797101778262305 -0.8797103614178889 -0.8797099079544174 -0.8797125627327036 -0.8797097276663487 -0.8797108006711177 
-0.4010052306188176 0.4010546547968658 -0.4010547341853262 -0.4010554653868701 -0.4010577084015841 -0.4010544458758178 -0.4010569756214186 
-0.6748498183402597 0.6748271356477814 -0.6748272140949633 -0.6748273411469111 -0.6748312509191903 -0.674827029114189 -0.6748298509535946 
-0.8797151963172535 -0.8797101778262305 -0.8797103614178889 -0.8797099079544174 -0.8797125627327036 0.8797097276663487 -0.8797108006711177 
0.4010052306188176 -0.4010546547968658 -0.4010547341853262 -0.4010554653868701 -0.4010577084015841 -0.4010544458758178 -0.4010569756214186 
0.6748498183402597 -0.6748271356477814 -0.6748272140949633 -0.6748273411469111 -0.6748312509191903 -0.674827029114189 -0.6748298509535946 
1.699598439142031 -1.699606807505072 -1.699607116080731 -1.699620325774509 -1.69964267014843 -1.699606583585648 -1.699641032993673 
0.4010052306188176 -0.4010546547968658 -0.4010547341853262 -0.4010554653868701 -0.4010577084015841 -0.4010544458758178 -0.4010569756214186 
0.6748498183402597 -0.6748271356477814 -0.6748272140949633 -0.6748273411469111 -0.6748312509191903 -0.674827029114189 -0.6748298509535946 
0.4010052306188176 -0.4010546547968658 -0.4010547341853262 -0.4010554653868701 -0.4010577084015841 -0.4010544458758178 -0.4010569756214186 
0.4010052306188176 -0.4010546547968658 -0.4010547341853262 -0.4010554653868701 -0.4010577084015841 -0.4010544458758178 -0.4010569756214186 
0.4010052306188176 -0.4010546547968658 -0.4010547341853262 -0.4010554653868701 -0.4010577084015841 -0.4010544458758178 -0.4010569756214186 
-0.4010052306188176 -0.4010546547968658 -0.4010547341853262 -0.4010554653868701 0.4010577084015841 -0.4010544458758178 -0.4010569756214186 
0.2227287282247437 -1.177509538125357 -1.177509631533568 -1.177507583450723 -1.1775052640289 -0.2227269226546769 -1.177505374185998 
0.4010052306188176 -0.4010546547968658 -0.4010547341853262 -0.4010554653868701 -0.4010577084015841 -0.4010544458758178 -0.4010569756214186 
0.6748498183402597 -0.6748271356477814 -0.6748272140949633 -0.6748273411469111 -0.6748312509191903 -0.674827029114189 -0.6748298509535946 
-0.4010052306188176 -0.4010546547968658 -0.4010547341853262 -0.4010554653868701 -0.4010577084015841 0.4010544458758178 -0.4010569756214186 
0.4010052306188176 -0.4010546547968658 -0.4010547341853262 -0.4010554653868701 -0.4010577084015841 -0.4010544458758178 -0.4010569756214186 
0.4010052306188176 -0.4010546547968658 -0.4010547341853262 -0.4010554653868701 -0.4010577084015841 -0.4010544458758178 -0.4010569756214186 
0.4010052306188176 -0.4010546547968658 -0.4010547341853262 -0.4010554653868701 -0.4010577084015841 -0.4010544458758178 -0.4010569756214186 
0.6748498183402597 -0.6748271356477814 -0.6748272140949633 -0.6748273411469111 -0.6748312509191903 -0.674827029114189 -0.6748298509535946 
-0.2865473357035809 -0.2865491463143905 -0.2865492067458331 -0.8797099079544174 -0.8797125627327036 -0.8797097276663487 -0.8797108006711177 
-0.4010052306188176 0.4010546547968658 -0.4010547341853262 -0.4010554653868701 -0.4010577084015841 -0.4010544458758178 -0.4010569756214186 
-0.6748498183402597 -0.6748271356477814 -0.6748272140949633 0.6748273411469111 -0.6748312509191903 -0.674827029114189 -0.6748298509535946 
1.177509710855569 -1.177509538125357 -1.177509631533568 -1.177507583450723 -1.1775052640289 -1.177508236769899 -1.177505374185998 
0.4010052306188176 -0.4010546547968658 -0.4010547341853262 -0.4010554653868701 -0.4010577084015841 -0.4010544458758178 -0.4010569756214186 
0.8797151963172535 -0.8797101778262305 -0.8797103614178889 -0.8797099079544174 -0.8797125627327036 -0.8797097276663487 -0.8797108006711177 
0.4010052306188176 -0.4010546547968658 -0.4010547341853262 -0.4010554653868701 -0.4010577084015841 -0.4010544458758178 -0.4010569756214186 
0.4010052306188176 -0.4010546547968658 -0.4010547341853262 -0.4010554653868701 -0.4010577084015841 -0.4010544458758178 -0.4010569756214186 
-0.4010052306188176 0.4010546547968658 -0.4010547341853262 -0.4010554653868701 -0.4010577084015841 -0.4010544458758178 -0.4010569756214186 
0.4010052306188176 -0.4010546547968658 -0.4010547341853262 -0.4010554653868701 -0.4010577084015841 -0.4010544458758178 -0.4010569756214186 
1.042596732657728 -1.042602212369455 -1.042602367746173 -1.042600096996421 -1.042597274293537 -1.042601273153722 -1.042596870327917 
0.4010052306188176 -0.4010546547968658 -0.4010547341853262 -0.4010554653868701 -0.4010577084015841 -0.4010544458758178 -0.4010569756214186 
0.6748498183402597 -0.6748271356477814 -0.6748272140949633 -0.6748273411469111 -0.6748312509191903 -0.674827029114189 -0.6748298509535946 
0.4010052306188176 -0.4010546547968658 -0.4010547341853262 -0.4010554653868701 -0.4010577084015841 -0.4010544458758178 -0.4010569756214186 
0.4010052306188176 -0.4010546547968658 -0.4010547341853262 -0.4010554653868701 -0.4010577084015841 -0.4010544458758178 -0.4010569756214186 
0.4010052306188176 -0.4010546547968658 -0.4010547341853262 -0.4010554653868701 -0.4010577084015841 -0.4010544458758178 -0.4010569756214186 
1.699598439142031 -1.699606807505072 -1.699607116080731 -1.699620325774509 -1.69964267014843 -1.699606583585648 -1.699641032993673 
0.6748498183402597 -0.6748271356477814 -0.6748272140949633 -0.6748273411469111 -0.6748312509191903 -0.674827029114189 -0.6748298509535946 
1.817079467336276 -1.817101419778429 -1.817101745899337 -1.817114101258517 -1.817131233993319 -1.817101751696985 -1.817130553977079 
-0.6748498183402597 0 0 -0.6748273411469111 -0.6748312509191903 -0.674827029114189 -0.6748298509535946 
0.4010052306188176 -0.4010546547968658 -0.4010547341853262 -0.4010554653868701 -0.4010577084015841 -0.4010544458758178 -0.4010569756214186 
0.6748498183402597 -0.6748271356477814 -0.6748272140949633 -0.6748273411469111 -0.6748312509191903 -0.674827029114189 -0.6748298509535946 
0.4010052306188176 -0.4010546547968658 -0.4010547341853262 -0.4010554653868701 -0.4010577084015841 -0.4010544458758178 -0.4010569756214186 
-0.4010052306188176 -0.4010546547968658 -0.4010547341853262 -0.4010554653868701 -0.4010577084015841 0.4010544458758178 -0.4010569756214186 
-0.2865473357035809 -0.8797101778262305 -0.8797103614178889 -0.2865485330078751 -0.2865478994948381 -0.8797097276663487 -0.8797108006711177 
0.6748498183402597 -0.6748271356477814 -0.6748272140949633 -0.6748273411469111 -0.6748312509191903 -0.674827029114189 -0.6748298509535946 
-0.6748498183402597 0.6748271356477814 -0.6748272140949633 -0.6748273411469111 -0.6748312509191903 -0.674827029114189 -0.6748298509535946 
0.4010052306188176 -0.4010546547968658 -0.4010547341853262 -0.4010554653868701 -0.4010577084015841 -0.4010544458758178 -0.4010569756214186 
1.042596732657728 -1.042602212369455 -1.042602367746173 -1.042600096996421 -1.042597274293537 -1.042601273153722 -1.042596870327917 
0.6748498183402597 -0.6748271356477814 -0.6748272140949633 -0.6748273411469111 -0.6748312509191903 -0.674827029114189 -0.6748298509535946 
-0.4010052306188176 0.4010546547968658 -0.4010547341853262 -0.4010554653868701 -0.4010577084015841 -0.4010544458758178 -0.4010569756214186 
0.4010052306188176 -0.4010546547968658 -0.4010547341853262 -0.4010554653868701 -0.4010577084015841 -0.4010544458758178 -0.4010569756214186 
-0.4010052306188176 0.4010546547968658 -0.4010547341853262 -0.4010554653868701 -0.4010577084015841 -0.4010544458758178 -0.4010569756214186 
0.4010052306188176 -0.4010546547968658 -0.4010547341853262 -0.4010554653868701 -0.4010577084015841 -0.4010544458758178 -0.4010569756214186 
0.4010052306188176 -0.4010546547968658 -0.4010547341853262 -0.4010554653868701 -0.4010577084015841 -0.4010544458758178 -0.4010569756214186 
0.4010052306188176 -0.4010546547968658 -0.4010547341853262 -0.4010554653868701 -0.4010577084015841 -0.4010544458758178 -0.4010569756214186 
0.4010052306188176 -0.4010546547968658 -0.4010547341853262 -0.4010554653868701 -0.4010577084015841 -0.4010544458758178 -0.4010569756214186 
-0.4010052306188176 -0.4010546547968658 -0.4010547341853262 -0.4010554653868701 -0.4010577084015841 -0.4010544458758178 0.4010569756214186 
1.561209817358419 -1.56120157665386 -1.561201792772799 -1.561212461969406 -1.561234339093539 -1.561200689697846 -1.561232254254795 
0 -0.6748271356477814 -0.6748272140949633 -0.6748273411469111 -0.6748312509191903 0 -0.6748298509535946 
0.4010052306188176 -0.4010546547968658 -0.4010547341853262 -0.4010554653868701 -0.4010577084015841 -0.4010544458758178 -0.4010569756214186 
1.292545014904755 -1.292535494740637 -1.292535565553812 -1.292536074377273 -1.292539832753697 -1.292534048112827 -1.292539453020553 
0.4010052306188176 -0.4010546547968658 -0.4010547341853262 -0.4010554653868701 -0.4010577084015841 -0.4010544458758178 -0.4010569756214186 
-0.6748498183402597 0 0 -0.6748273411469111 -0.6748312509191903 -0.674827029114189 -0.6748298509535946 
0.6748498183402597 -0.6748271356477814 -0.6748272140949633 -0.6748273411469111 -0.6748312509191903 -0.674827029114189 -0.6748298509535946 
0.4010052306188176 -0.4010546547968658 -0.4010547341853262 -0.4010554653868701 -0.4010577084015841 -0.4010544458758178 -0.4010569756214186 
0.4010052306188176 -0.4010546547968658 -0.4010547341853262 -0.4010554653868701 -0.4010577084015841 -0.4010544458758178 -0.4010569756214186 
-0.4010052306188176 0.4010546547968658 -0.4010547341853262 -0.4010554653868701 -0.4010577084015841 -0.4010544458758178 -0.4010569756214186 
-0.6748498183402597 -0.6748271356477814 0 -0.6748273411469111 -0.6748312509191903 -0.674827029114189 0 
1.292545014904755 -1.292535494740637 -1.292535565553812 -1.292536074377273 -1.292539832753697 -1.292534048112827 -1.292539453020553 
0.4010052306188176 -0.4010546547968658 -0.4010547341853262 -0.4010554653868701 -0.4010577084015841 -0.4010544458758178 -0.4010569756214186 
0.4010052306188176 -0.4010546547968658 -0.4010547341853262 -0.4010554653868701 -0.4010577084015841 -0.4010544458758178 -0.4010569756214186 
0.4010052306188176 -0.4010546547968658 -0.4010547341853262 -0.4010554653868701 -0.4010577084015841 -0.4010544458758178 -0.4010569756214186 
0.4010052306188176 -0.4010546547968658 -0.4010547341853262 -0.4010554653868701 -0.4010577084015841 -0.4010544458758178 -0.4010569756214186 
1.177509710855569 -1.177509538125357 -1.177509631533568 -1.177507583450723 -1.1775052640289 -1.177508236769899 -1.177505374185998 
1.042596732657728 -1.042602212369455 -1.042602367746173 -1.042600096996421 -1.042597274293537 -1.042601273153722 -1.042596870327917 
-0.4010052306188176 -0.4010546547968658 0.4010547341853262 -0.4010554653868701 -0.4010577084015841 -0.4010544458758178 -0.4010569756214186 
0.4010052306188176 -0.4010546547968658 -0.4010547341853262 -0.4010554653868701 -0.4010577084015841 -0.4010544458758178 -0.4010569756214186 
-0.4010052306188176 -0.4010546547968658 -0.4010547341853262 -0.4010554653868701 0.4010577084015841 -0.4010544458758178 -0.4010569756214186 
0.8797151963172535 -0.8797101778262305 -0.8797103614178889 -0.8797099079544174 -0.8797125627327036 -0.8797097276663487 -0.8797108006711177 
0.4010052306188176 -0.4010546547968658 -0.4010547341853262 -0.4010554653868701 -0.4010577084015841 -0.4010544458758178 -0.4010569756214186 
0.4010052306188176 -0.4010546547968658 -0.4010547341853262 -0.4010554653868701 -0.4010577084015841 -0.4010544458758178 -0.4010569756214186 
0.4010052306188176 -0.4010546547968658 -0.4010547341853262 -0.4010554653868701 -0.4010577084015841 -0.4010544458758178 -0.4010569756214186 
0.6748498183402597 -0.6748271356477814 -0.6748272140949633 -0.6748273411469111 -0.6748312509191903 -0.674827029114189 -0.6748298509535946 
-0.4010052306188176 -0.4010546547968658 -0.4010547341853262 -0.4010554653868701 -0.4010577084015841 0.4010544458758178 -0.4010569756214186 
0.4010052306188176 -0.4010546547968658 -0.4010547341853262 -0.4010554653868701 -0.4010577084015841 -0.4010544458758178 -0.4010569756214186 
-0.4010052306188176 -0.4010546547968658 -0.4010547341853262 -0.4010554653868701 -0.4010577084015841 0.4010544458758178 -0.4010569756214186 
2.12801078460256 -2.128030329736962 -2.128030455269492 -2.128033984794967 -2.128035478050539 -2.128031060836252 -2.128036073406264 
1.177509710855569 -1.177509538125357 -1.177509631533568 -1.177507583450723 -1.1775052640289 -1.177508236769899 -1.177505374185998 
-0.8797151963172535 -0.8797101778262305 0.8797103614178889 -0.8797099079544174 -0.8797125627327036 -0.8797097276663487 -0.8797108006711177 
0.6748498183402597 -0.6748271356477814 -0.6748272140949633 -0.6748273411469111 -0.6748312509191903 -0.674827029114189 -0.6748298509535946 
-1.042596732657728 0.5052427555620848 -0.5052428042454306 -1.042600096996421 -1.042597274293537 -1.042601273153722 -1.042596870327917 
-1.760548118889514 -1.760564136244865 -1.760564462786236 -1.760577563749904 -0.7777249572785319 0.7777250840072319 -1.760596513055866 
0.4010052306188176 -0.4010546547968658 -0.4010547341853262 -0.4010554653868701 -0.4010577084015841 -0.4010544458758178 -0.4010569756214186 
0.8797151963172535 -0.8797101778262305 -0.8797103614178889 -0.8797099079544174 -0.8797125627327036 -0.8797097276663487 -0.8797108006711177 
-0.2227287282247437 -1.177509538125357 -1.177509631533568 -1.177507583450723 0.2227316908046691 -1.177508236769899 -1.177505374185998 
0.4010052306188176 -0.4010546547968658 -0.4010547341853262 -0.4010554653868701 -0.4010577084015841 -0.4010544458758178 -0.4010569756214186 
0.4010052306188176 -0.4010546547968658 -0.4010547341853262 -0.4010554653868701 -0.4010577084015841 -0.4010544458758178 -0.4010569756214186 
-0.4010052306188176 -0.4010546547968658 -0.4010547341853262 -0.4010554653868701 0.4010577084015841 -0.4010544458758178 -0.4010569756214186 
0.4010052306188176 -0.4010546547968658 -0.4010547341853262 -0.4010554653868701 -0.4010577084015841 -0.4010544458758178 -0.4010569756214186 
0.4010052306188176 -0.4010546547968658 -0.4010547341853262 -0.4010554653868701 -0.4010577084015841 -0.4010544458758178 -0.4010569756214186 
0.4010052306188176 -0.4010546547968658 -0.4010547341853262 -0.4010554653868701 -0.4010577084015841 -0.4010544458758178 -0.4010569756214186 
0.4010052306188176 -0.4010546547968658 -0.4010547341853262 -0.4010554653868701 -0.4010577084015841 -0.4010544458758178 -0.4010569756214186 
0.6748498183402597 -0.6748271356477814 -0.6748272140949633 -0.6748273411469111 -0.6748312509191903 -0.674827029114189 -0.6748298509535946 
0.4010052306188176 -0.4010546547968658 -0.4010547341853262 -0.4010554653868701 -0.4010577084015841 -0.4010544458758178 -0.4010569756214186 
0.6748498183402597 -0.6748271356477814 -0.6748272140949633 -0.6748273411469111 -0.6748312509191903 -0.674827029114189 -0.6748298509535946 
0.4010052306188176 -0.4010546547968658 -0.4010547341853262 -0.4010554653868701 -0.4010577084015841 -0.4010544458758178 -0.4010569756214186 
-1.042596732657728 0.5052427555620848 -0.5052428042454306 -1.042600096996421 -1.042597274293537 -1.042601273153722 -1.042596870327917 
-0.4010052306188176 0.4010546547968658 -0.4010547341853262 -0.4010554653868701 -0.4010577084015841 -0.4010544458758178 -0.4010569756214186 
0.4010052306188176 -0.4010546547968658 -0.4010547341853262 -0.4010554653868701 -0.4010577084015841 -0.4010544458758178 -0.4010569756214186 
0.6748498183402597 -0.6748271356477814 -0.6748272140949633 -0.6748273411469111 -0.6748312509191903 -0.674827029114189 -0.6748298509535946 
0.8797151963172535 -0.8797101778262305 -0.8797103614178889 -0.8797099079544174 -0.8797125627327036 -0.8797097276663487 -0.8797108006711177 
-1.292545014904755 -1.292535494740637 -1.292535565553812 -1.292536074377273 1.292539832753697 -1.292534048112827 -1.292539453020553 
-0.6748498183402597 -0.6748271356477814 -0.6748272140949633 -0.6748273411469111 -0.6748312509191903 0.674827029114189 -0.6748298509535946 
-0.4010052306188176 -0.4010546547968658 0.4010547341853262 -0.4010554653868701 -0.4010577084015841 -0.4010544458758178 -0.4010569756214186 
0.6748498183402597 -0.6748271356477814 -0.6748272140949633 -0.6748273411469111 -0.6748312509191903 -0.674827029114189 -0.6748298509535946 
0.4010052306188176 -0.4010546547968658 -0.4010547341853262 -0.4010554653868701 -0.4010577084015841 -0.4010544458758178 -0.4010569756214186 
1.63347472808348 -1.633474540453159 -1.633474811365053 -1.633487267812217 -1.633510430173339 -1.633473986252131 -1.633508446186145 
-0.4010052306188176 -0.4010546547968658 -0.4010547341853262 -0.4010554653868701 -0.4010577084015841 -0.4010544458758178 0.4010569756214186 
0.4010052306188176 -0.4010546547968658 -0.4010547341853262 -0.4010554653868701 -0.4010577084015841 -0.4010544458758178 -0.4010569756214186 
0.4010052306188176 -0.4010546547968658 -0.4010547341853262 -0.4010554653868701 -0.4010577084015841 -0.4010544458758178 -0.4010569756214186 
0.6748498183402597 -0.6748271356477814 -0.6748272140949633 -0.6748273411469111 -0.6748312509191903 -0.674827029114189 -0.6748298509535946 
3.38272038956937 -3.382708860437073 -3.382709581504473 -3.382688264113535 -3.382669398240692 -3.382708649768852 -3.382677810380749 
0.4010052306188176 -0.4010546547968658 -0.4010547341853262 -0.4010554653868701 -0.4010577084015841 -0.4010544458758178 -0.4010569756214186 
0.4010052306188176 -0.4010546547968658 -0.4010547341853262 -0.4010554653868701 -0.4010577084015841 -0.4010544458758178 -0.4010569756214186 
0.4010052306188176 -0.4010546547968658 -0.4010547341853262 -0.4010554653868701 -0.4010577084015841 -0.4010544458758178 -0.4010569756214186 
0 -0.6748271356477814 -0.6748272140949633 0 -0.6748312509191903 -0.674827029114189 -0.6748298509535946 
0.8797151963172535 -0.8797101778262305 -0.8797103614178889 -0.8797099079544174 -0.8797125627327036 -0.8797097276663487 -0.8797108006711177 
0.4010052306188176 -0.4010546547968658 -0.4010547341853262 -0.4010554653868701 -0.4010577084015841 -0.4010544458758178 -0.4010569756214186 
0.4010052306188176 -0.4010546547968658 -0.4010547341853262 -0.4010554653868701 -0.4010577084015841 -0.4010544458758178 -0.4010569756214186 
0.4010052306188176 -0.4010546547968658 -0.4010547341853262 -0.4010554653868701 -0.4010577084015841 -0.4010544458758178 -0.4010569756214186 
1.042596732657728 -1.042602212369455 -1.042602367746173 -1.042600096996421 -1.042597274293537 -1.042601273153722 -1.042596870327917 
0.6748498183402597 -0.6748271356477814 -0.6748272140949633 -0.6748273411469111 -0.6748312509191903 -0.674827029114189 -0.6748298509535946 
0.6748498183402597 -0.6748271356477814 -0.6748272140949633 -0.6748273411469111 -0.6748312509191903 -0.674827029114189 -0.6748298509535946 
0.6748498183402597 -0.6748271356477814 -0.6748272140949633 -0.6748273411469111 -0.6748312509191903 -0.674827029114189 -0.6748298509535946 
0.4010052306188176 -0.4010546547968658 -0.4010547341853262 -0.4010554653868701 -0.4010577084015841 -0.4010544458758178 -0.4010569756214186 
-0.6748498183402597 0 0 -0.6748273411469111 -0.6748312509191903 -0.674827029114189 -0.6748298509535946 
0.4010052306188176 -0.4010546547968658 -0.4010547341853262 -0.4010554653868701 -0.4010577084015841 -0.4010544458758178 -0.4010569756214186 
-0.4010052306188176 -0.4010546547968658 0.4010547341853262 -0.4010554653868701 -0.4010577084015841 -0.4010544458758178 -0.4010569756214186 
0.8797151963172535 -0.8797101778262305 -0.8797103614178889 -0.8797099079544174 -0.8797125627327036 -0.8797097276663487 -0.8797108006711177 
0.4010052306188176 -0.4010546547968658 -0.4010547341853262 -0.4010554653868701 -0.4010577084015841 -0.4010544458758178 -0.4010569756214186 
0.6748498183402597 -0.6748271356477814 -0.6748272140949633 -0.6748273411469111 -0.6748312509191903 -0.674827029114189 -0.6748298509535946 
0.4010052306188176 -0.4010546547968658 -0.4010547341853262 -0.4010554653868701 -0.4010577084015841 -0.4010544458758178 -0.4010569756214186 
0.4010052306188176 -0.4010546547968658 -0.4010547341853262 -0.4010554653868701 -0.4010577084015841 -0.4010544458758178 -0.4010569756214186 
-2.163855477794044 -2.16387266063164 -2.163872766549991 -0.240973695922737 0.2409738479808368 -2.163873311428077 -2.163876899850238 
0.8797151963172535 -0.8797101778262305 -0.8797103614178889 -0.8797099079544174 -0.8797125627327036 -0.8797097276663487 -0.8797108006711177 
1.042596732657728 -1.042602212369455 -1.042602367746173 -1.042600096996421 -1.042597274293537 -1.042601273153722 -1.042596870327917 
0.4010052306188176 -0.4010546547968658 -0.4010547341853262 -0.4010554653868701 -0.4010577084015841 -0.4010544458758178 -0.4010569756214186 
0.4010052306188176 -0.4010546547968658 -0.4010547341853262 -0.4010554653868701 -0.4010577084015841 -0.4010544458758178 -0.4010569756214186 
0.4010052306188176 -0.4010546547968658 -0.4010547341853262 -0.4010554653868701 -0.4010577084015841 -0.4010544458758178 -0.4010569756214186 
1.63347472808348 -1.633474540453159 -1.633474811365053 -1.633487267812217 -1.633510430173339 -1.633473986252131 -1.633508446186145 
-0.4010052306188176 -0.4010546547968658 -0.4010547341853262 -0.4010554653868701 0.4010577084015841 -0.4010544458758178 -0.4010569756214186 
0.6748498183402597 -0.6748271356477814 -0.6748272140949633 -0.6748273411469111 -0.6748312509191903 -0.674827029114189 -0.6748298509535946 
0.4010052306188176 -0.4010546547968658 -0.4010547341853262 -0.4010554653868701 -0.4010577084015841 -0.4010544458758178 -0.4010569756214186 
-0.6748498183402597 -0.6748271356477814 -0.6748272140949633 0.6748273411469111 -0.6748312509191903 -0.674827029114189 -0.6748298509535946 
0.4010052306188176 -0.4010546547968658 -0.4010547341853262 -0.4010554653868701 -0.4010577084015841 -0.4010544458758178 -0.4010569756214186 
0.4010052306188176 -0.4010546547968658 -0.4010547341853262 -0.4010554653868701 -0.4010577084015841 -0.4010544458758178 -0.4010569756214186 
1.177509710855569 -1.177509538125357 -1.177509631533568 -1.177507583450723 -1.1775052640289 -1.177508236769899 -1.177505374185998 
0.4010052306188176 -0.4010546547968658 -0.4010547341853262 -0.4010554653868701 -0.4010577084015841 -0.4010544458758178 -0.4010569756214186 
0.6748498183402597 -0.6748271356477814 -0.6748272140949633 -0.6748273411469111 -0.6748312509191903 -0.674827029114189 -0.6748298509535946 
-1.456642906288096 0.8614559483332455 -1.14300367232009 -1.817114101258517 -1.817131233993319 -1.817101751696985 -1.817130553977079 
0.8797151963172535 -0.8797101778262305 -0.8797103614178889 -0.8797099079544174 -0.8797125627327036 -0.8797097276663487 -0.8797108006711177 
0.4010052306188176 -0.4010546547968658 -0.4010547341853262 -0.4010554653868701 -0.4010577084015841 -0.4010544458758178 -0.4010569756214186 
-0.4010052306188176 -0.4010546547968658 0.4010547341853262 -0.4010554653868701 -0.4010577084015841 -0.4010544458758178 -0.4010569756214186 
-0.8797151963172535 0.8797101778262305 -0.8797103614178889 -0.8797099079544174 -0.8797125627327036 -0.8797097276663487 -0.8797108006711177 
0.6748498183402597 -0.6748271356477814 -0.6748272140949633 -0.6748273411469111 -0.6748312509191903 -0.674827029114189 -0.6748298509535946 
-0.4010052306188176 -0.4010546547968658 -0.4010547341853262 -0.4010554653868701 -0.4010577084015841 -0.4010544458758178 0.4010569756214186 
0.4010052306188176 -0.4010546547968658 -0.4010547341853262 -0.4010554653868701 -0.4010577084015841 -0.4010544458758178 -0.4010569756214186 
0.4010052306188176 -0.4010546547968658 -0.4010547341853262 -0.4010554653868701 -0.4010577084015841 -0.4010544458758178 -0.4010569756214186 
0.4010052306188176 -0.4010546547968658 -0.4010547341853262 -0.4010554653868701 -0.4010577084015841 -0.4010544458758178 -0.4010569756214186 
-0.6748498183402597 0.6748271356477814 -0.6748272140949633 -0.6748273411469111 -0.6748312509191903 -0.674827029114189 -0.6748298509535946 
0.6748498183402597 -0.6748271356477814 -0.6748272140949633 -0.6748273411469111 -0.6748312509191903 -0.674827029114189 -0.6748298509535946 
0.6748498183402597 -0.6748271356477814 -0.6748272140949633 -0.6748273411469111 -0.6748312509191903 -0.674827029114189 -0.6748298509535946 
1.042596732657728 -1.042602212369455 -1.042602367746173 -1.042600096996421 -1.042597274293537 -1.042601273153722 -1.042596870327917 
0.4010052306188176 -0.4010546547968658 -0.4010547341853262 -0.4010554653868701 -0.4010577084015841 -0.4010544458758178 -0.4010569756214186 
0.4010052306188176 -0.4010546547968658 -0.4010547341853262 -0.4010554653868701 -0.4010577084015841 -0.4010544458758178 -0.4010569756214186 
0.6748498183402597 -0.6748271356477814 -0.6748272140949633 -0.6748273411469111 -0.6748312509191903 -0.674827029114189 -0.6748298509535946 
0.950881324640095 -1.392751261790266 -1.392751358687966 -1.392755557881254 -1.392767066059644 -1.392749872623041 -0.9509134747696015 
0.4010052306188176 -0.4010546547968658 -0.4010547341853262 -0.4010554653868701 -0.4010577084015841 -0.4010544458758178 -0.4010569756214186 
0.4010052306188176 -0.4010546547968658 -0.4010547341853262 -0.4010554653868701 -0.4010577084015841 -0.4010544458758178 -0.4010569756214186 
-0.5052420680765914 -1.042602212369455 -1.042602367746173 -1.042600096996421 0 -1.042601273153722 -0.5052400922674294 
0.4010052306188176 -0.4010546547968658 -0.4010547341853262 -0.4010554653868701 -0.4010577084015841 -0.4010544458758178 -0.4010569756214186 
0.4010052306188176 -0.4010546547968658 -0.4010547341853262 -0.4010554653868701 -0.4010577084015841 -0.4010544458758178 -0.4010569756214186 
0.4010052306188176 -0.4010546547968658 -0.4010547341853262 -0.4010554653868701 -0.4010577084015841 -0.4010544458758178 -0.4010569756214186 
0.4010052306188176 -0.4010546547968658 -0.4010547341853262 -0.4010554653868701 -0.4010577084015841 -0.4010544458758178 -0.4010569756214186 
1.042596732657728 -1.042602212369455 -1.042602367746173 -1.042600096996421 -1.042597274293537 -1.042601273153722 -1.042596870327917 
0.4010052306188176 -0.4010546547968658 -0.4010547341853262 -0.4010554653868701 -0.4010577084015841 -0.4010544458758178 -0.4010569756214186 
0.4010052306188176 -0.4010546547968658 -0.4010547341853262 -0.4010554653868701 -0.4010577084015841 -0.4010544458758178 -0.4010569756214186 
1.561209817358419 -1.56120157665386 -1.561201792772799 -1.561212461969406 -1.561234339093539 -1.561200689697846 -1.561232254254795 
0.4010052306188176 -0.4010546547968658 -0.4010547341853262 -0.4010554653868701 -0.4010577084015841 -0.4010544458758178 -0.4010569756214186 
-0.5541795867710082 -1.392751261790266 -1.392751358687966 -1.392755557881254 -1.392767066059644 -0.5541984149077543 -0.1821385440621678 
0.6748498183402597 -0.6748271356477814 -0.6748272140949633 -0.6748273411469111 -0.6748312509191903 -0.674827029114189 -0.6748298509535946 
0.8797151963172535 -0.8797101778262305 -0.8797103614178889 -0.8797099079544174 -0.8797125627327036 -0.8797097276663487 -0.8797108006711177 
