solver_type L2R_LR
nr_class 7
label 0 1 2 5 6 3 4
nr_feature 6580
bias -1
w
0.5429239460704752 -0.1196867782881057 -0.1040510426411528 -0.0506621526861635 -0.05792419892710515 -0.127401337728229 -0.04907348961025899 
-0.4687279164347758 0.5726784410935716 0.6150004831804765 -0.09696741999629652 -0.1102690735282441 -0.2323867363564223 -0.09403830248109915 
0.401050563071816 -0.4010592928412299 -0.4010602119165522 -0.4010606187031134 -0.4010592017139125 -0.4010560095115631 -0.4010597821456194 
-0.4687279164347758 1.286397656813794 -0.19224297961949 -0.09696741999629652 -0.1102690735282441 -0.2323867363564223 -0.09403830248109915 
1.392772011910071 -1.392773212422005 -1.392740569325808 -1.392738888087967 -1.392764256201483 -1.392761382242901 -1.392772212770586 
0.8796842919357521 -0.8797123120871732 -0.8797206095187624 -0.8797172863928683 -0.8797122261881957 -0.8796953562107935 -0.879712101395546 
0.5429239460704752 -0.1196867782881057 -0.1040510426411528 -0.0506621526861635 -0.05792419892710515 -0.127401337728229 -0.04907348961025899 
0.401050563071816 -0.4010592928412299 -0.4010602119165522 -0.4010606187031134 -0.4010592017139125 -0.4010560095115631 -0.4010597821456194 
1.177503097715588 -1.177505171692747 -1.177506337471025 -1.177510472661468 -1.177503409626853 -1.177506232638758 -1.177504268967738 
-0.2715584738722121 -0.1196867782881057 0.7804510810971923 -0.0506621526861635 -0.05792419892710515 -0.127401337728229 -0.04907348961025899 
-0.2715584738722121 0.7542429977290381 -0.1040510426411528 -0.0506621526861635 -0.05792419892710515 -0.127401337728229 -0.04907348961025899 
-0.2715584738722121 -0.1196867782881057 0.7804510810971923 -0.0506621526861635 -0.05792419892710515 -0.127401337728229 -0.04907348961025899 
0.401050563071816 -0.4010592928412299 -0.4010602119165522 -0.4010606187031134 -0.4010592017139125 -0.4010560095115631 -0.4010597821456194 
1.177503097715588 -1.177505171692747 -1.177506337471025 -1.177510472661468 -1.177503409626853 -1.177506232638758 -1.177504268967738 
1.292544765174134 -1.292542185106193 -1.292525433385372 -1.292528671850552 -1.292537534324464 -1.292539214556941 -1.292541378305162 
0.5429239460704752 -0.1196867782881057 -0.1040510426411528 -0.0506621526861635 -0.05792419892710515 -0.127401337728229 -0.04907348961025899 
0.401050563071816 -0.4010592928412299 -0.4010602119165522 -0.4010606187031134 -0.4010592017139125 -0.4010560095115631 -0.4010597821456194 
0.5429239460704752 -0.1196867782881057 -0.1040510426411528 -0.0506621526861635 -0.05792419892710515 -0.127401337728229 -0.04907348961025899 
0.401050563071816 -0.4010592928412299 -0.4010602119165522 -0.4010606187031134 -0.4010592017139125 -0.4010560095115631 -0.4010597821456194 
0.401050563071816 -0.4010592928412299 -0.4010602119165522 -0.4010606187031134 -0.4010592017139125 -0.4010560095115631 -0.4010597821456194 
0.401050563071816 -0.4010592928412299 -0.4010602119165522 -0.4010606187031134 -0.4010592017139125 -0.4010560095115631 -0.4010597821456194 
-0.4687279164347758 -0.2191954666782284 -0.19224297961949 -0.09696741999629652 -0.1102690735282441 1.261358055053449 -0.09403830248109915 
0.401050563071816 -0.4010592928412299 -0.4010602119165522 -0.4010606187031134 -0.4010592017139125 -0.4010560095115631 -0.4010597821456194 
1.392772011910071 -1.392773212422005 -1.392740569325808 -1.392738888087967 -1.392764256201483 -1.392761382242901 -1.392772212770586 
0.905194520444802 -0.2191954666782284 -0.19224297961949 -0.09696741999629652 -0.1102690735282441 -0.2323867363564223 -0.09403830248109915 
0.401050563071816 -0.4010592928412299 -0.4010602119165522 -0.4010606187031134 -0.4010592017139125 -0.4010560095115631 -0.4010597821456194 
0.401050563071816 -0.4010592928412299 -0.4010602119165522 -0.4010606187031134 -0.4010592017139125 -0.4010560095115631 -0.4010597821456194 
0.6748167125800291 -0.6748318795627335 -0.6748295655179062 -0.6748244696833685 -0.674831557841575 -0.6748168441450227 -0.6748317221044653 
0.401050563071816 -0.4010592928412299 -0.4010602119165522 -0.4010606187031134 -0.4010592017139125 -0.4010560095115631 -0.4010597821456194 
1.042580553478489 -1.042596577009953 -1.042608687583921 -1.042609871630564 -1.042596018150823 -1.042591864697598 -1.042595749410701 
-0.2715584738722121 0.7542429977290381 -0.1040510426411528 -0.0506621526861635 -0.05792419892710515 -0.127401337728229 -0.04907348961025899 
0.6748167125800291 -0.6748318795627335 -0.6748295655179062 -0.6748244696833685 -0.674831557841575 -0.6748168441450227 -0.6748317221044653 
0.401050563071816 -0.4010592928412299 -0.4010602119165522 -0.4010606187031134 -0.4010592017139125 -0.4010560095115631 -0.4010597821456194 
0.401050563071816 -0.4010592928412299 -0.4010602119165522 -0.4010606187031134 -0.4010592017139125 -0.4010560095115631 -0.4010597821456194 
0.401050563071816 -0.4010592928412299 -0.4010602119165522 -0.4010606187031134 -0.4010592017139125 -0.4010560095115631 -0.4010597821456194 
0.401050563071816 -0.4010592928412299 -0.4010602119165522 -0.4010606187031134 -0.4010592017139125 -0.4010560095115631 -0.4010597821456194 
0.8796842919357521 -0.8797123120871732 -0.8797206095187624 -0.8797172863928683 -0.8797122261881957 -0.8796953562107935 -0.879712101395546 
1.392772011910071 -1.392773212422005 -1.392740569325808 -1.392738888087967 -1.392764256201483 -1.392761382242901 -1.392772212770586 
0.905194520444802 -0.2191954666782284 -0.19224297961949 -0.09696741999629652 -0.1102690735282441 -0.2323867363564223 -0.09403830248109915 
1.481552479740281 -1.481561330639648 -1.481519696279605 -1.48151013975849 -1.48154773466368 -1.481540800609151 -1.48155976309383 
0.401050563071816 -0.4010592928412299 -0.4010602119165522 -0.4010606187031134 -0.4010592017139125 -0.4010560095115631 -0.4010597821456194 
0.6748167125800291 -0.6748318795627335 -0.6748295655179062 -0.6748244696833685 -0.674831557841575 -0.6748168441450227 -0.6748317221044653 
0.5429239460704752 -0.1196867782881057 -0.1040510426411528 -0.0506621526861635 -0.05792419892710515 -0.127401337728229 -0.04907348961025899 
0.6748167125800291 -0.6748318795627335 -0.6748295655179062 -0.6748244696833685 -0.674831557841575 -0.6748168441450227 -0.6748317221044653 
0.5429239460704752 -0.1196867782881057 -0.1040510426411528 -0.0506621526861635 -0.05792419892710515 -0.127401337728229 -0.04907348961025899 
0.5429239460704752 -0.1196867782881057 -0.1040510426411528 -0.0506621526861635 -0.05792419892710515 -0.127401337728229 -0.04907348961025899 
0.8796842919357521 -0.8797123120871732 -0.8797206095187624 -0.8797172863928683 -0.8797122261881957 -0.8796953562107935 -0.879712101395546 
0.401050563071816 -0.4010592928412299 -0.4010602119165522 -0.4010606187031134 -0.4010592017139125 -0.4010560095115631 -0.4010597821456194 
-0.2715584738722121 -0.1196867782881057 -0.1040510426411528 -0.0506621526861635 0.8658738957821077 -0.127401337728229 -0.04907348961025899 
0.401050563071816 -0.4010592928412299 -0.4010602119165522 -0.4010606187031134 -0.4010592017139125 -0.4010560095115631 -0.4010597821456194 
1.177503097715588 -1.177505171692747 -1.177506337471025 -1.177510472661468 -1.177503409626853 -1.177506232638758 -1.177504268967738 
0.401050563071816 -0.4010592928412299 -0.4010602119165522 -0.4010606187031134 -0.4010592017139125 -0.4010560095115631 -0.4010597821456194 
0.401050563071816 -0.4010592928412299 -0.4010602119165522 -0.4010606187031134 -0.4010592017139125 -0.4010560095115631 -0.4010597821456194 
0.401050563071816 -0.4010592928412299 -0.4010602119165522 -0.4010606187031134 -0.4010592017139125 -0.4010560095115631 -0.4010597821456194 
0.8796842919357521 -0.8797123120871732 -0.8797206095187624 -0.8797172863928683 -0.8797122261881957 -0.8796953562107935 -0.879712101395546 
0.6748167125800291 -0.6748318795627335 -0.6748295655179062 -0.6748244696833685 -0.674831557841575 -0.6748168441450227 -0.6748317221044653 
0.401050563071816 -0.4010592928412299 -0.4010602119165522 -0.4010606187031134 -0.4010592017139125 -0.4010560095115631 -0.4010597821456194 
0.401050563071816 -0.4010592928412299 -0.4010602119165522 -0.4010606187031134 -0.4010592017139125 -0.4010560095115631 -0.4010597821456194 
1.177503097715588 -1.177505171692747 -1.177506337471025 -1.177510472661468 -1.177503409626853 -1.177506232638758 -1.177504268967738 
0.8796842919357521 -0.8797123120871732 -0.8797206095187624 -0.8797172863928683 -0.8797122261881957 -0.8796953562107935 -0.879712101395546 
0.401050563071816 -0.4010592928412299 -0.4010602119165522 -0.4010606187031134 -0.4010592017139125 -0.4010560095115631 -0.4010597821456194 
-0.2715584738722121 -0.1196867782881057 0.7804510810971923 -0.0506621526861635 -0.05792419892710515 -0.127401337728229 -0.04907348961025899 
0.6748167125800291 -0.6748318795627335 -0.6748295655179062 -0.6748244696833685 -0.674831557841575 -0.6748168441450227 -0.6748317221044653 
0.401050563071816 -0.4010592928412299 -0.4010602119165522 -0.4010606187031134 -0.4010592017139125 -0.4010560095115631 -0.4010597821456194 
0.401050563071816 -0.4010592928412299 -0.4010602119165522 -0.4010606187031134 -0.4010592017139125 -0.4010560095115631 -0.4010597821456194 
0.8796842919357521 -0.8797123120871732 -0.8797206095187624 -0.8797172863928683 -0.8797122261881957 -0.8796953562107935 -0.879712101395546 
0.401050563071816 -0.4010592928412299 -0.4010602119165522 -0.4010606187031134 -0.4010592017139125 -0.4010560095115631 -0.4010597821456194 
0.6748167125800291 -0.6748318795627335 -0.6748295655179062 -0.6748244696833685 -0.674831557841575 -0.6748168441450227 -0.6748317221044653 
0.401050563071816 -0.4010592928412299 -0.4010602119165522 -0.4010606187031134 -0.4010592017139125 -0.4010560095115631 -0.4010597821456194 
0.5429239460704752 -0.1196867782881057 -0.1040510426411528 -0.0506621526861635 -0.05792419892710515 -0.127401337728229 -0.04907348961025899 
-0.2715584738722121 -0.1196867782881057 -0.1040510426411528 -0.0506621526861635 -0.05792419892710515 0.7416776662924058 -0.04907348961025899 
0.401050563071816 -0.4010592928412299 -0.4010602119165522 -0.4010606187031134 -0.4010592017139125 -0.4010560095115631 -0.4010597821456194 
0.905194520444802 -0.2191954666782284 -0.19224297961949 -0.09696741999629652 -0.1102690735282441 -0.2323867363564223 -0.09403830248109915 
1.042580553478489 -1.042596577009953 -1.042608687583921 -1.042609871630564 -1.042596018150823 -1.042591864697598 -1.042595749410701 
0.401050563071816 -0.4010592928412299 -0.4010602119165522 -0.4010606187031134 -0.4010592017139125 -0.4010560095115631 -0.4010597821456194 
-0.2715584738722121 -0.1196867782881057 -0.1040510426411528 -0.0506621526861635 0.8658738957821077 -0.127401337728229 -0.04907348961025899 
0.401050563071816 -0.4010592928412299 -0.4010602119165522 -0.4010606187031134 -0.4010592017139125 -0.4010560095115631 -0.4010597821456194 
1.177503097715588 -1.177505171692747 -1.177506337471025 -1.177510472661468 -1.177503409626853 -1.177506232638758 -1.177504268967738 
-0.8007373063191217 -0.7043515205967334 -0.6377126883894653 -0.3724421525926842 -0.4132054889236917 2.441554024605224 -0.3632555587963815 
0.8796842919357521 -0.8797123120871732 -0.8797206095187624 -0.8797172863928683 -0.8797122261881957 -0.8796953562107935 -0.879712101395546 
0.401050563071816 -0.4010592928412299 -0.4010602119165522 -0.4010606187031134 -0.4010592017139125 -0.4010560095115631 -0.4010597821456194 
1.292544765174134 -1.292542185106193 -1.292525433385372 -1.292528671850552 -1.292537534324464 -1.292539214556941 -1.292541378305162 
0.401050563071816 -0.4010592928412299 -0.4010602119165522 -0.4010606187031134 -0.4010592017139125 -0.4010560095115631 -0.4010597821456194 
0.401050563071816 -0.4010592928412299 -0.4010602119165522 -0.4010606187031134 -0.4010592017139125 -0.4010560095115631 -0.4010597821456194 
0.5429239460704752 -0.1196867782881057 -0.1040510426411528 -0.0506621526861635 -0.05792419892710515 -0.127401337728229 -0.04907348961025899 
-0.2715584738722121 -0.1196867782881057 -0.1040510426411528 -0.0506621526861635 -0.05792419892710515 0.7416776662924058 -0.04907348961025899 
0.2353615837132753 -0.2191954666782284 -0.19224297961949 -0.09696741999629652 0.7562420648252276 -0.2323867363564223 -0.09403830248109915 
0.8796842919357521 -0.8797123120871732 -0.8797206095187624 -0.8797172863928683 -0.8797122261881957 -0.8796953562107935 -0.879712101395546 
-0.8796842919357521 -0.8797123120871732 0.8797206095187624 -0.8797172863928683 -0.8797122261881957 -0.8796953562107935 -0.879712101395546 
0.401050563071816 -0.4010592928412299 -0.4010602119165522 -0.4010606187031134 -0.4010592017139125 -0.4010560095115631 -0.4010597821456194 
0.6748167125800291 -0.6748318795627335 -0.6748295655179062 -0.6748244696833685 -0.674831557841575 -0.6748168441450227 -0.6748317221044653 
0.401050563071816 -0.4010592928412299 -0.4010602119165522 -0.4010606187031134 -0.4010592017139125 -0.4010560095115631 -0.4010597821456194 
1.042580553478489 -1.042596577009953 -1.042608687583921 -1.042609871630564 -1.042596018150823 -1.042591864697598 -1.042595749410701 
0.401050563071816 -0.4010592928412299 -0.4010602119165522 -0.4010606187031134 -0.4010592017139125 -0.4010560095115631 -0.4010597821456194 
0.5429239460704752 -0.1196867782881057 -0.1040510426411528 -0.0506621526861635 -0.05792419892710515 -0.127401337728229 -0.04907348961025899 
0.8796842919357521 -0.8797123120871732 -0.8797206095187624 -0.8797172863928683 -0.8797122261881957 -0.8796953562107935 -0.879712101395546 
-0.2715584738722121 -0.1196867782881057 -0.1040510426411528 0.8806446958592987 -0.05792419892710515 -0.127401337728229 -0.04907348961025899 
0.401050563071816 -0.4010592928412299 -0.4010602119165522 -0.4010606187031134 -0.4010592017139125 -0.4010560095115631 -0.4010597821456194 
-0.9524701746180978 -0.5070151347936468 -0.4539638065676279 -0.2510942896486011 -0.2812552383557119 2.283566713479861 -0.2443526926421632 
0.401050563071816 -0.4010592928412299 -0.4010602119165522 -0.4010606187031134 -0.4010592017139125 -0.4010560095115631 -0.4010597821456194 
1.292544765174134 -1.292542185106193 -1.292525433385372 -1.292528671850552 -1.292537534324464 -1.292539214556941 -1.292541378305162 
0.401050563071816 -0.4010592928412299 -0.4010602119165522 -0.4010606187031134 -0.4010592017139125 -0.4010560095115631 -0.4010597821456194 
-0.2715584738722121 -0.1196867782881057 -0.1040510426411528 -0.0506621526861635 -0.05792419892710515 0.7416776662924058 -0.04907348961025899 
-0.4687279164347758 0.5726784410935716 0.6150004831804765 -0.09696741999629652 -0.1102690735282441 -0.2323867363564223 -0.09403830248109915 
0.6748167125800291 -0.6748318795627335 -0.6748295655179062 -0.6748244696833685 -0.674831557841575 -0.6748168441450227 -0.6748317221044653 
0.401050563071816 -0.4010592928412299 -0.4010602119165522 -0.4010606187031134 -0.4010592017139125 -0.4010560095115631 -0.4010597821456194 
0.6748167125800291 -0.6748318795627335 -0.6748295655179062 -0.6748244696833685 -0.674831557841575 -0.6748168441450227 -0.6748317221044653 
1.481552479740281 -1.481561330639648 -1.481519696279605 -1.48151013975849 -1.48154773466368 -1.481540800609151 -1.48155976309383 
0.401050563071816 -0.4010592928412299 -0.4010602119165522 -0.4010606187031134 -0.4010592017139125 -0.4010560095115631 -0.4010597821456194 
0.401050563071816 -0.4010592928412299 -0.4010602119165522 -0.4010606187031134 -0.4010592017139125 -0.4010560095115631 -0.4010597821456194 
-0.2715584738722121 -0.1196867782881057 -0.1040510426411528 -0.0506621526861635 -0.05792419892710515 0.7416776662924058 -0.04907348961025899 
0.5429239460704752 -0.1196867782881057 -0.1040510426411528 -0.0506621526861635 -0.05792419892710515 -0.127401337728229 -0.04907348961025899 
-0.7504459935369149 -0.3795890340337128 -0.337027022691738 -0.1792994567942802 -0.2021574028766991 1.898351596155509 -0.1742207452884603 
0.401050563071816 -0.4010592928412299 -0.4010602119165522 -0.4010606187031134 -0.4010592017139125 -0.4010560095115631 -0.4010597821456194 
-0.7504459935369149 1.43432066239924 0.3706612615231281 -0.1792994567942802 -0.2021574028766991 -0.4001614585419506 -0.1742207452884603 
0.6748167125800291 -0.6748318795627335 -0.6748295655179062 -0.6748244696833685 -0.674831557841575 -0.6748168441450227 -0.6748317221044653 
-0.2715584738722121 -0.1196867782881057 -0.1040510426411528 -0.0506621526861635 -0.05792419892710515 0.7416776662924058 -0.04907348961025899 
1.177503097715588 -1.177505171692747 -1.177506337471025 -1.177510472661468 -1.177503409626853 -1.177506232638758 -1.177504268967738 
0.401050563071816 -0.4010592928412299 -0.4010602119165522 -0.4010606187031134 -0.4010592017139125 -0.4010560095115631 -0.4010597821456194 
-0.2715584738722121 -0.1196867782881057 -0.1040510426411528 -0.0506621526861635 0.8658738957821077 -0.127401337728229 -0.04907348961025899 
0.401050563071816 -0.4010592928412299 -0.4010602119165522 -0.4010606187031134 -0.4010592017139125 -0.4010560095115631 -0.4010597821456194 
1.177503097715588 -1.177505171692747 -1.177506337471025 -1.177510472661468 -1.177503409626853 -1.177506232638758 -1.177504268967738 
0.401050563071816 -0.4010592928412299 -0.4010602119165522 -0.4010606187031134 -0.4010592017139125 -0.4010560095115631 -0.4010597821456194 
-0.2715584738722121 -0.1196867782881057 -0.1040510426411528 -0.0506621526861635 -0.05792419892710515 -0.127401337728229 0.8839706160633183 
0.5429239460704752 -0.1196867782881057 -0.1040510426411528 -0.0506621526861635 -0.05792419892710515 -0.127401337728229 -0.04907348961025899 
0.401050563071816 -0.4010592928412299 -0.4010602119165522 -0.4010606187031134 -0.4010592017139125 -0.4010560095115631 -0.4010597821456194 
1.760590863334709 -1.760612865503099 -1.760598470545742 -1.760554419250638 -1.76059301365349 -1.760588706348067 -1.760607455945468 
0.401050563071816 -0.4010592928412299 -0.4010602119165522 -0.4010606187031134 -0.4010592017139125 -0.4010560095115631 -0.4010597821456194 
3.445715381804075 -4.812584076700702 -4.812510587997149 -4.81259233227103 -3.556992256416763 -4.812553743058196 -4.507934146050245 
0.401050563071816 -0.4010592928412299 -0.4010602119165522 -0.4010606187031134 -0.4010592017139125 -0.4010560095115631 -0.4010597821456194 
0.6748167125800291 -0.6748318795627335 -0.6748295655179062 -0.6748244696833685 -0.674831557841575 -0.6748168441450227 -0.6748317221044653 
0.401050563071816 -0.4010592928412299 -0.4010602119165522 -0.4010606187031134 -0.4010592017139125 -0.4010560095115631 -0.4010597821456194 
0.401050563071816 -0.4010592928412299 -0.4010602119165522 -0.4010606187031134 -0.4010592017139125 -0.4010560095115631 -0.4010597821456194 
-0.4687279164347758 0.5726784410935716 0.6150004831804765 -0.09696741999629652 -0.1102690735282441 -0.2323867363564223 -0.09403830248109915 
-0.2715584738722121 0.7542429977290381 -0.1040510426411528 -0.0506621526861635 -0.05792419892710515 -0.127401337728229 -0.04907348961025899 
0.401050563071816 -0.4010592928412299 -0.4010602119165522 -0.4010606187031134 -0.4010592017139125 -0.4010560095115631 -0.4010597821456194 
-0.4687279164347758 0.5726784410935716 0.6150004831804765 -0.09696741999629652 -0.1102690735282441 -0.2323867363564223 -0.09403830248109915 
0.401050563071816 -0.4010592928412299 -0.4010602119165522 -0.4010606187031134 -0.4010592017139125 -0.4010560095115631 -0.4010597821456194 
0.401050563071816 -0.4010592928412299 -0.4010602119165522 -0.4010606187031134 -0.4010592017139125 -0.4010560095115631 -0.4010597821456194 
1.368704020969981 -0.3795890340337128 -0.337027022691738 -0.1792994567942802 -0.2021574028766991 -0.4001614585419506 -0.1742207452884603 
0.401050563071816 -0.4010592928412299 -0.4010602119165522 -0.4010606187031134 -0.4010592017139125 -0.4010560095115631 -0.4010597821456194 
0.401050563071816 -0.4010592928412299 -0.4010602119165522 -0.4010606187031134 -0.4010592017139125 -0.4010560095115631 -0.4010597821456194 
0.401050563071816 -0.4010592928412299 -0.4010602119165522 -0.4010606187031134 -0.4010592017139125 -0.4010560095115631 -0.4010597821456194 
1.042580553478489 -1.042596577009953 -1.042608687583921 -1.042609871630564 -1.042596018150823 -1.042591864697598 -1.042595749410701 
0.401050563071816 -0.4010592928412299 -0.4010602119165522 -0.4010606187031134 -0.4010592017139125 -0.4010560095115631 -0.4010597821456194 
0.6748167125800291 -0.6748318795627335 -0.6748295655179062 -0.6748244696833685 -0.674831557841575 -0.6748168441450227 -0.6748317221044653 
0.6748167125800291 -0.6748318795627335 -0.6748295655179062 -0.6748244696833685 -0.674831557841575 -0.6748168441450227 -0.6748317221044653 
0.401050563071816 -0.4010592928412299 -0.4010602119165522 -0.4010606187031134 -0.4010592017139125 -0.4010560095115631 -0.4010597821456194 
0.401050563071816 -0.4010592928412299 -0.4010602119165522 -0.4010606187031134 -0.4010592017139125 -0.4010560095115631 -0.4010597821456194 
0.6748167125800291 -0.6748318795627335 -0.6748295655179062 -0.6748244696833685 -0.674831557841575 -0.6748168441450227 -0.6748317221044653 
0.401050563071816 -0.4010592928412299 -0.4010602119165522 -0.4010606187031134 -0.4010592017139125 -0.4010560095115631 -0.4010597821456194 
0.401050563071816 -0.4010592928412299 -0.4010602119165522 -0.4010606187031134 -0.4010592017139125 -0.4010560095115631 -0.4010597821456194 
1.042580553478489 -1.042596577009953 -1.042608687583921 -1.042609871630564 -1.042596018150823 -1.042591864697598 -1.042595749410701 
-1.194151516128658 3.040985946784673 -0.8705001709537202 -0.5390626816650511 -0.5916455771143959 -0.9883813994429089 -0.5271013481242993 
0.6748167125800291 -0.6748318795627335 -0.6748295655179062 -0.6748244696833685 -0.674831557841575 -0.6748168441450227 -0.6748317221044653 
0.5429239460704752 -0.1196867782881057 -0.1040510426411528 -0.0506621526861635 -0.05792419892710515 -0.127401337728229 -0.04907348961025899 
-0.6232964569545497 -0.3046093329314958 -0.2689771268642726 -0.1396585200248373 -0.1580887451203666 1.626924454392891 -0.1355797272685665 
0.5429239460704752 -0.1196867782881057 -0.1040510426411528 -0.0506621526861635 -0.05792419892710515 -0.127401337728229 -0.04907348961025899 
-0.2715584738722121 -0.1196867782881057 -0.1040510426411528 -0.0506621526861635 -0.05792419892710515 0.7416776662924058 -0.04907348961025899 
-0.2715584738722121 -0.1196867782881057 -0.1040510426411528 -0.0506621526861635 -0.05792419892710515 0.7416776662924058 -0.04907348961025899 
1.177503097715588 -1.177505171692747 -1.177506337471025 -1.177510472661468 -1.177503409626853 -1.177506232638758 -1.177504268967738 
1.869843440503191 -1.869855407687754 -1.869867010890416 -1.869814737844377 -1.869841255307866 -1.869842676831297 -1.86984784018711 
1.042580553478489 -1.042596577009953 -1.042608687583921 -1.042609871630564 -1.042596018150823 -1.042591864697598 -1.042595749410701 
-0.2715584738722121 -0.1196867782881057 0.7804510810971923 -0.0506621526861635 -0.05792419892710515 -0.127401337728229 -0.04907348961025899 
0.5429239460704752 -0.1196867782881057 -0.1040510426411528 -0.0506621526861635 -0.05792419892710515 -0.127401337728229 -0.04907348961025899 
1.042580553478489 -1.042596577009953 -1.042608687583921 -1.042609871630564 -1.042596018150823 -1.042591864697598 -1.042595749410701 
0.401050563071816 -0.4010592928412299 -0.4010602119165522 -0.4010606187031134 -0.4010592017139125 -0.4010560095115631 -0.4010597821456194 
0.401050563071816 -0.4010592928412299 -0.4010602119165522 -0.4010606187031134 -0.4010592017139125 -0.4010560095115631 -0.4010597821456194 
0.8796842919357521 -0.8797123120871732 -0.8797206095187624 -0.8797172863928683 -0.8797122261881957 -0.8796953562107935 -0.879712101395546 
0.401050563071816 -0.4010592928412299 -0.4010602119165522 -0.4010606187031134 -0.4010592017139125 -0.4010560095115631 -0.4010597821456194 
0.401050563071816 -0.4010592928412299 -0.4010602119165522 -0.4010606187031134 -0.4010592017139125 -0.4010560095115631 -0.4010597821456194 
0.401050563071816 -0.4010592928412299 -0.4010602119165522 -0.4010606187031134 -0.4010592017139125 -0.4010560095115631 -0.4010597821456194 
0.401050563071816 -0.4010592928412299 -0.4010602119165522 -0.4010606187031134 -0.4010592017139125 -0.4010560095115631 -0.4010597821456194 
0.6748167125800291 -0.6748318795627335 -0.6748295655179062 -0.6748244696833685 -0.674831557841575 -0.6748168441450227 -0.6748317221044653 
-0.4687279164347758 -0.2191954666782284 -0.19224297961949 1.573714533470729 -0.1102690735282441 -0.2323867363564223 -0.09403830248109915 
-0.2715584738722121 -0.1196867782881057 -0.1040510426411528 -0.0506621526861635 -0.05792419892710515 0.7416776662924058 -0.04907348961025899 
0.401050563071816 -0.4010592928412299 -0.4010602119165522 -0.4010606187031134 -0.4010592017139125 -0.4010560095115631 -0.4010597821456194 
-0.2715584738722121 -0.1196867782881057 0.7804510810971923 -0.0506621526861635 -0.05792419892710515 -0.127401337728229 -0.04907348961025899 
0.401050563071816 -0.4010592928412299 -0.4010602119165522 -0.4010606187031134 -0.4010592017139125 -0.4010560095115631 -0.4010597821456194 
0.8796842919357521 -0.8797123120871732 -0.8797206095187624 -0.8797172863928683 -0.8797122261881957 -0.8796953562107935 -0.879712101395546 
2.090500163979118 -2.090474088569775 -2.090521324771934 -2.090478534935112 -2.090483626574227 -2.09049419819051 -2.090461743102911 
0.5429239460704752 -0.1196867782881057 -0.1040510426411528 -0.0506621526861635 -0.05792419892710515 -0.127401337728229 -0.04907348961025899 
0.401050563071816 -0.4010592928412299 -0.4010602119165522 -0.4010606187031134 -0.4010592017139125 -0.4010560095115631 -0.4010597821456194 
0.2353615837132753 -0.2191954666782284 -0.19224297961949 -0.09696741999629652 -0.1102690735282441 0.5525359595762031 -0.09403830248109915 
0.6748167125800291 -0.6748318795627335 -0.6748295655179062 -0.6748244696833685 -0.674831557841575 -0.6748168441450227 -0.6748317221044653 
0.401050563071816 -0.4010592928412299 -0.4010602119165522 -0.4010606187031134 -0.4010592017139125 -0.4010560095115631 -0.4010597821456194 
0.401050563071816 -0.4010592928412299 -0.4010602119165522 -0.4010606187031134 -0.4010592017139125 -0.4010560095115631 -0.4010597821456194 
0.401050563071816 -0.4010592928412299 -0.4010602119165522 -0.4010606187031134 -0.4010592017139125 -0.4010560095115631 -0.4010597821456194 
-0.2715584738722121 -0.1196867782881057 -0.1040510426411528 -0.0506621526861635 -0.05792419892710515 0.7416776662924058 -0.04907348961025899 
0.401050563071816 -0.4010592928412299 -0.4010602119165522 -0.4010606187031134 -0.4010592017139125 -0.4010560095115631 -0.4010597821456194 
0.5429239460704752 -0.1196867782881057 -0.1040510426411528 -0.0506621526861635 -0.05792419892710515 -0.127401337728229 -0.04907348961025899 
0.8796842919357521 -0.8797123120871732 -0.8797206095187624 -0.8797172863928683 -0.8797122261881957 -0.8796953562107935 -0.879712101395546 
1.042580553478489 -1.042596577009953 -1.042608687583921 -1.042609871630564 -1.042596018150823 -1.042591864697598 -1.042595749410701 
0.5429239460704752 -0.1196867782881057 -0.1040510426411528 -0.0506621526861635 -0.05792419892710515 -0.127401337728229 -0.04907348961025899 
0.905194520444802 -0.2191954666782284 -0.19224297961949 -0.09696741999629652 -0.1102690735282441 -0.2323867363564223 -0.09403830248109915 
0.401050563071816 -0.4010592928412299 -0.4010602119165522 -0.4010606187031134 -0.4010592017139125 -0.4010560095115631 -0.4010597821456194 
0.905194520444802 -0.2191954666782284 -0.19224297961949 -0.09696741999629652 -0.1102690735282441 -0.2323867363564223 -0.09403830248109915 
-0.4687279164347758 -0.2191954666782284 -0.19224297961949 1.573714533470729 -0.1102690735282441 -0.2323867363564223 -0.09403830248109915 
0.401050563071816 -0.4010592928412299 -0.4010602119165522 -0.4010606187031134 -0.4010592017139125 -0.4010560095115631 -0.4010597821456194 
0.401050563071816 -0.4010592928412299 -0.4010602119165522 -0.4010606187031134 -0.4010592017139125 -0.4010560095115631 -0.4010597821456194 
0.401050563071816 -0.4010592928412299 -0.4010602119165522 -0.4010606187031134 -0.4010592017139125 -0.4010560095115631 -0.4010597821456194 
-0.401050563071816 -0.4010592928412299 -0.4010602119165522 -0.4010606187031134 -0.4010592017139125 -0.4010560095115631 0.4010597821456194 
1.042580553478489 -1.042596577009953 -1.042608687583921 -1.042609871630564 -1.042596018150823 -1.042591864697598 -1.042595749410701 
0.5429239460704752 -0.1196867782881057 -0.1040510426411528 -0.0506621526861635 -0.05792419892710515 -0.127401337728229 -0.04907348961025899 
0.401050563071816 -0.4010592928412299 -0.4010602119165522 -0.4010606187031134 -0.4010592017139125 -0.4010560095115631 -0.4010597821456194 
0.401050563071816 -0.4010592928412299 -0.4010602119165522 -0.4010606187031134 -0.4010592017139125 -0.4010560095115631 -0.4010597821456194 
0.6748167125800291 -0.6748318795627335 -0.6748295655179062 -0.6748244696833685 -0.674831557841575 -0.6748168441450227 -0.6748317221044653 
1.042580553478489 -1.042596577009953 -1.042608687583921 -1.042609871630564 -1.042596018150823 -1.042591864697598 -1.042595749410701 
0.401050563071816 -0.4010592928412299 -0.4010602119165522 -0.4010606187031134 -0.4010592017139125 -0.4010560095115631 -0.4010597821456194 
0.6748167125800291 -0.6748318795627335 -0.6748295655179062 -0.6748244696833685 -0.674831557841575 -0.6748168441450227 -0.6748317221044653 
0.6748167125800291 -0.6748318795627335 -0.6748295655179062 -0.6748244696833685 -0.674831557841575 -0.6748168441450227 -0.6748317221044653 
1.292544765174134 -1.292542185106193 -1.292525433385372 -1.292528671850552 -1.292537534324464 -1.292539214556941 -1.292541378305162 
0.5429239460704752 -0.1196867782881057 -0.1040510426411528 -0.0506621526861635 -0.05792419892710515 -0.127401337728229 -0.04907348961025899 
-0.2715584738722121 0.7542429977290381 -0.1040510426411528 -0.0506621526861635 -0.05792419892710515 -0.127401337728229 -0.04907348961025899 
0.6748167125800291 -0.6748318795627335 -0.6748295655179062 -0.6748244696833685 -0.674831557841575 -0.6748168441450227 -0.6748317221044653 
-0.3151614439022647 1.708505989565721 -0.3982527209173803 -0.216328748254608 -0.243061201151944 -0.4697349875118266 -0.210369891803464 
-0.2715584738722121 -0.1196867782881057 -0.1040510426411528 0.8806446958592987 -0.05792419892710515 -0.127401337728229 -0.04907348961025899 
-0.6232964569545497 -0.3046093329314958 -0.2689771268642726 -0.1396585200248373 2.015103315815287 -0.3219287469790112 -0.1355797272685665 
0.6748167125800291 -0.6748318795627335 -0.6748295655179062 -0.6748244696833685 -0.674831557841575 -0.6748168441450227 -0.6748317221044653 
-0.2715584738722121 -0.1196867782881057 0.7804510810971923 -0.0506621526861635 -0.05792419892710515 -0.127401337728229 -0.04907348961025899 
0.401050563071816 -0.4010592928412299 -0.4010602119165522 -0.4010606187031134 -0.4010592017139125 -0.4010560095115631 -0.4010597821456194 
-1.132270088027475 -1.107945633326102 -1.020727351517565 -0.6530139610628128 3.814650575608844 -1.148862535879253 -0.6394571289377072 
0.401050563071816 -0.4010592928412299 -0.4010602119165522 -0.4010606187031134 -0.4010592017139125 -0.4010560095115631 -0.4010597821456194 
0.6748167125800291 -0.6748318795627335 -0.6748295655179062 -0.6748244696833685 -0.674831557841575 -0.6748168441450227 -0.6748317221044653 
-0.4687279164347758 1.286397656813794 -0.19224297961949 -0.09696741999629652 -0.1102690735282441 -0.2323867363564223 -0.09403830248109915 
0.5429239460704752 -0.1196867782881057 -0.1040510426411528 -0.0506621526861635 -0.05792419892710515 -0.127401337728229 -0.04907348961025899 
1.481552479740281 -1.481561330639648 -1.481519696279605 -1.48151013975849 -1.48154773466368 -1.481540800609151 -1.48155976309383 
-0.2715584738722121 -0.1196867782881057 -0.1040510426411528 -0.0506621526861635 0.8658738957821077 -0.127401337728229 -0.04907348961025899 
1.042580553478489 -1.042596577009953 -1.042608687583921 -1.042609871630564 -1.042596018150823 -1.042591864697598 -1.042595749410701 
-0.2715584738722121 -0.1196867782881057 -0.1040510426411528 -0.0506621526861635 -0.05792419892710515 0.7416776662924058 -0.04907348961025899 
-0.2715584738722121 -0.1196867782881057 0.7804510810971923 -0.0506621526861635 -0.05792419892710515 -0.127401337728229 -0.04907348961025899 
-0.7504459935369149 -0.3795890340337128 2.024437664152448 -0.1792994567942802 -0.2021574028766991 -0.4001614585419506 -0.1742207452884603 
-1.109706241430156 -1.481333976590125 -1.380783241031532 -0.4788783854670771 -0.5674641707142829 3.018054603574341 -0.9254449437294835 
0.401050563071816 -0.4010592928412299 -0.4010602119165522 -0.4010606187031134 -0.4010592017139125 -0.4010560095115631 -0.4010597821456194 
0.8796842919357521 -0.8797123120871732 -0.8797206095187624 -0.8797172863928683 -0.8797122261881957 -0.8796953562107935 -0.879712101395546 
0.6748167125800291 -0.6748318795627335 -0.6748295655179062 -0.6748244696833685 -0.674831557841575 -0.6748168441450227 -0.6748317221044653 
1.292544765174134 -1.292542185106193 -1.292525433385372 -1.292528671850552 -1.292537534324464 -1.292539214556941 -1.292541378305162 
0.6748167125800291 -0.6748318795627335 -0.6748295655179062 -0.6748244696833685 -0.674831557841575 -0.6748168441450227 -0.6748317221044653 
1.042580553478489 -1.042596577009953 -1.042608687583921 -1.042609871630564 -1.042596018150823 -1.042591864697598 -1.042595749410701 
0.5429239460704752 -0.1196867782881057 -0.1040510426411528 -0.0506621526861635 -0.05792419892710515 -0.127401337728229 -0.04907348961025899 
0.5429239460704752 -0.1196867782881057 -0.1040510426411528 -0.0506621526861635 -0.05792419892710515 -0.127401337728229 -0.04907348961025899 
-0.2715584738722121 -0.1196867782881057 0.7804510810971923 -0.0506621526861635 -0.05792419892710515 -0.127401337728229 -0.04907348961025899 
0.401050563071816 -0.4010592928412299 -0.4010602119165522 -0.4010606187031134 -0.4010592017139125 -0.4010560095115631 -0.4010597821456194 
0.401050563071816 -0.4010592928412299 -0.4010602119165522 -0.4010606187031134 -0.4010592017139125 -0.4010560095115631 -0.4010597821456194 
0.8796842919357521 -0.8797123120871732 -0.8797206095187624 -0.8797172863928683 -0.8797122261881957 -0.8796953562107935 -0.879712101395546 
-1.178011966632115 -0.09797659597332609 1.565952641273443 0.3412355946001489 0.8300150770993572 -0.6907339975004475 -0.3357178463773794 
-0.2715584738722121 -0.1196867782881057 -0.1040510426411528 -0.0506621526861635 0.8658738957821077 -0.127401337728229 -0.04907348961025899 
0.8796842919357521 -0.8797123120871732 -0.8797206095187624 -0.8797172863928683 -0.8797122261881957 -0.8796953562107935 -0.879712101395546 
0.6748167125800291 -0.6748318795627335 -0.6748295655179062 -0.6748244696833685 -0.674831557841575 -0.6748168441450227 -0.6748317221044653 
-0.4687279164347758 -0.2191954666782284 -0.19224297961949 1.573714533470729 -0.1102690735282441 -0.2323867363564223 -0.09403830248109915 
0.401050563071816 -0.4010592928412299 -0.4010602119165522 -0.4010606187031134 -0.4010592017139125 -0.4010560095115631 -0.4010597821456194 
1.177503097715588 -1.177505171692747 -1.177506337471025 -1.177510472661468 -1.177503409626853 -1.177506232638758 -1.177504268967738 
-0.9934969466671351 2.261498819867809 0.2125873747571633 -0.4495057901617782 -0.4960761602665975 -0.855864822937075 -0.4389627112900648 
0.6748167125800291 -0.6748318795627335 -0.6748295655179062 -0.6748244696833685 -0.674831557841575 -0.6748168441450227 -0.6748317221044653 
1.379023124864093 -0.5622724408440918 -0.5051186478812251 -0.2838769184299766 -0.3171003935211773 -0.5895963385846985 0.45102878502005 
-0.2715584738722121 -0.1196867782881057 -0.1040510426411528 -0.0506621526861635 -0.05792419892710515 0.7416776662924058 -0.04907348961025899 
0.401050563071816 -0.4010592928412299 -0.4010602119165522 -0.4010606187031134 -0.4010592017139125 -0.4010560095115631 -0.4010597821456194 
1.177503097715588 -1.177505171692747 -1.177506337471025 -1.177510472661468 -1.177503409626853 -1.177506232638758 -1.177504268967738 
0.6748167125800291 -0.6748318795627335 -0.6748295655179062 -0.6748244696833685 -0.674831557841575 -0.6748168441450227 -0.6748317221044653 
1.368704020969981 -0.3795890340337128 -0.337027022691738 -0.1792994567942802 -0.2021574028766991 -0.4001614585419506 -0.1742207452884603 
0.6748167125800291 -0.6748318795627335 -0.6748295655179062 -0.6748244696833685 -0.674831557841575 -0.6748168441450227 -0.6748317221044653 
0.905194520444802 -0.2191954666782284 -0.19224297961949 -0.09696741999629652 -0.1102690735282441 -0.2323867363564223 -0.09403830248109915 
-0.2715584738722121 -0.1196867782881057 0.7804510810971923 -0.0506621526861635 -0.05792419892710515 -0.127401337728229 -0.04907348961025899 
0.401050563071816 -0.4010592928412299 -0.4010602119165522 -0.4010606187031134 -0.4010592017139125 -0.4010560095115631 -0.4010597821456194 
0.008768657792778417 -0.3046093329314958 -0.2689771268642726 -0.1396585200248373 -0.1580887451203666 1.041090953170511 -0.1355797272685665 
-0.2715584738722121 -0.1196867782881057 0.7804510810971923 -0.0506621526861635 -0.05792419892710515 -0.127401337728229 -0.04907348961025899 
-0.2715584738722121 -0.1196867782881057 0.7804510810971923 -0.0506621526861635 -0.05792419892710515 -0.127401337728229 -0.04907348961025899 
0.401050563071816 -0.4010592928412299 -0.4010602119165522 -0.4010606187031134 -0.4010592017139125 -0.4010560095115631 -0.4010597821456194 
0.401050563071816 -0.4010592928412299 -0.4010602119165522 -0.4010606187031134 -0.4010592017139125 -0.4010560095115631 -0.4010597821456194 
0.401050563071816 -0.4010592928412299 -0.4010602119165522 -0.4010606187031134 -0.4010592017139125 -0.4010560095115631 -0.4010597821456194 
0.401050563071816 -0.4010592928412299 -0.4010602119165522 -0.4010606187031134 -0.4010592017139125 -0.4010560095115631 -0.4010597821456194 
1.177503097715588 -1.177505171692747 -1.177506337471025 -1.177510472661468 -1.177503409626853 -1.177506232638758 -1.177504268967738 
0.401050563071816 -0.4010592928412299 -0.4010602119165522 -0.4010606187031134 -0.4010592017139125 -0.4010560095115631 -0.4010597821456194 
0.6748167125800291 -0.6748318795627335 -0.6748295655179062 -0.6748244696833685 -0.674831557841575 -0.6748168441450227 -0.6748317221044653 
1.292544765174134 -1.292542185106193 -1.292525433385372 -1.292528671850552 -1.292537534324464 -1.292539214556941 -1.292541378305162 
0.401050563071816 -0.4010592928412299 -0.4010602119165522 -0.4010606187031134 -0.4010592017139125 -0.4010560095115631 -0.4010597821456194 
0.401050563071816 -0.4010592928412299 -0.4010602119165522 -0.4010606187031134 -0.4010592017139125 -0.4010560095115631 -0.4010597821456194 
-0.7504459935369149 0.9027809680132298 0.9786117292731557 -0.1792994567942802 -0.2021574028766991 -0.4001614585419506 -0.1742207452884603 
0.401050563071816 -0.4010592928412299 -0.4010602119165522 -0.4010606187031134 -0.4010592017139125 -0.4010560095115631 -0.4010597821456194 
1.042580553478489 -1.042596577009953 -1.042608687583921 -1.042609871630564 -1.042596018150823 -1.042591864697598 -1.042595749410701 
0.6748167125800291 -0.6748318795627335 -0.6748295655179062 -0.6748244696833685 -0.674831557841575 -0.6748168441450227 -0.6748317221044653 
0.401050563071816 -0.4010592928412299 -0.4010602119165522 -0.4010606187031134 -0.4010592017139125 -0.4010560095115631 -0.4010597821456194 
0.6748167125800291 -0.6748318795627335 -0.6748295655179062 -0.6748244696833685 -0.674831557841575 -0.6748168441450227 -0.6748317221044653 
0.6748167125800291 -0.6748318795627335 -0.6748295655179062 -0.6748244696833685 -0.674831557841575 -0.6748168441450227 -0.6748317221044653 
1.177503097715588 -1.177505171692747 -1.177506337471025 -1.177510472661468 -1.177503409626853 -1.177506232638758 -1.177504268967738 
-0.4687279164347758 -0.2191954666782284 -0.19224297961949 -0.09696741999629652 1.535459746470708 -0.2323867363564223 -0.09403830248109915 
0.6748167125800291 -0.6748318795627335 -0.6748295655179062 -0.6748244696833685 -0.674831557841575 -0.6748168441450227 -0.6748317221044653 
-0.2715584738722121 -0.1196867782881057 0.7804510810971923 -0.0506621526861635 -0.05792419892710515 -0.127401337728229 -0.04907348961025899 
1.699635356522904 -1.699658723466455 -1.699631723474587 -1.699594704920624 -1.69963799619559 -1.699631074497219 -1.699654359250935 
2.322107144706597 -2.32205326231082 -2.322081667251836 -2.322080858509695 -2.322086571682649 -2.322099422747449 -2.322039998021902 
0.401050563071816 -0.4010592928412299 -0.4010602119165522 -0.4010606187031134 -0.4010592017139125 -0.4010560095115631 -0.4010597821456194 
-0.2715584738722121 -0.1196867782881057 -0.1040510426411528 -0.0506621526861635 0.8658738957821077 -0.127401337728229 -0.04907348961025899 
-0.4687279164347758 -0.2191954666782284 -0.19224297961949 -0.09696741999629652 -0.1102690735282441 1.261358055053449 -0.09403830248109915 
0.401050563071816 -0.4010592928412299 -0.4010602119165522 -0.4010606187031134 -0.4010592017139125 -0.4010560095115631 -0.4010597821456194 
0.401050563071816 -0.4010592928412299 -0.4010602119165522 -0.4010606187031134 -0.4010592017139125 -0.4010560095115631 -0.4010597821456194 
0.8796842919357521 -0.8797123120871732 -0.8797206095187624 -0.8797172863928683 -0.8797122261881957 -0.8796953562107935 -0.879712101395546 
-0.6232964569545497 -0.3046093329314958 -0.2689771268642726 -0.1396585200248373 -0.1580887451203666 1.626924454392891 -0.1355797272685665 
1.392772011910071 -1.392773212422005 -1.392740569325808 -1.392738888087967 -1.392764256201483 -1.392761382242901 -1.392772212770586 
0.401050563071816 -0.4010592928412299 -0.4010602119165522 -0.4010606187031134 -0.4010592017139125 -0.4010560095115631 -0.4010597821456194 
-0.6232964569545497 1.072169897208507 0.4819997695993688 -0.1396585200248373 -0.1580887451203666 -0.3219287469790112 -0.1355797272685665 
-0.2715584738722121 -0.1196867782881057 -0.1040510426411528 -0.0506621526861635 -0.05792419892710515 0.7416776662924058 -0.04907348961025899 
-0.2715584738722121 -0.1196867782881057 -0.1040510426411528 -0.0506621526861635 -0.05792419892710515 -0.127401337728229 0.8839706160633183 
-0.2715584738722121 0.7542429977290381 -0.1040510426411528 -0.0506621526861635 -0.05792419892710515 -0.127401337728229 -0.04907348961025899 
0.401050563071816 -0.4010592928412299 -0.4010602119165522 -0.4010606187031134 -0.4010592017139125 -0.4010560095115631 -0.4010597821456194 
0.401050563071816 -0.4010592928412299 -0.4010602119165522 -0.4010606187031134 -0.4010592017139125 -0.4010560095115631 -0.4010597821456194 
0.6748167125800291 -0.6748318795627335 -0.6748295655179062 -0.6748244696833685 -0.674831557841575 -0.6748168441450227 -0.6748317221044653 
0.401050563071816 -0.4010592928412299 -0.4010602119165522 -0.4010606187031134 -0.4010592017139125 -0.4010560095115631 -0.4010597821456194 
-0.2715584738722121 -0.1196867782881057 -0.1040510426411528 0.8806446958592987 -0.05792419892710515 -0.127401337728229 -0.04907348961025899 
0.5429239460704752 -0.1196867782881057 -0.1040510426411528 -0.0506621526861635 -0.05792419892710515 -0.127401337728229 -0.04907348961025899 
0.5921029841339558 -0.3046093329314958 -0.2689771268642726 0.6962928516154451 -0.1580887451203666 -0.3219287469790112 -0.1355797272685665 
1.042580553478489 -1.042596577009953 -1.042608687583921 -1.042609871630564 -1.042596018150823 -1.042591864697598 -1.042595749410701 
0.5429239460704752 -0.1196867782881057 -0.1040510426411528 -0.0506621526861635 -0.05792419892710515 -0.127401337728229 -0.04907348961025899 
0.6748167125800291 -0.6748318795627335 -0.6748295655179062 -0.6748244696833685 -0.674831557841575 -0.6748168441450227 -0.6748317221044653 
0.401050563071816 -0.4010592928412299 -0.4010602119165522 -0.4010606187031134 -0.4010592017139125 -0.4010560095115631 -0.4010597821456194 
0.6748167125800291 -0.6748318795627335 -0.6748295655179062 -0.6748244696833685 -0.674831557841575 -0.6748168441450227 -0.6748317221044653 
0.401050563071816 -0.4010592928412299 -0.4010602119165522 -0.4010606187031134 -0.4010592017139125 -0.4010560095115631 -0.4010597821456194 
0.401050563071816 -0.4010592928412299 -0.4010602119165522 -0.4010606187031134 -0.4010592017139125 -0.4010560095115631 -0.4010597821456194 
-0.4687279164347758 0.5726784410935716 0.6150004831804765 -0.09696741999629652 -0.1102690735282441 -0.2323867363564223 -0.09403830248109915 
0.6748167125800291 -0.6748318795627335 -0.6748295655179062 -0.6748244696833685 -0.674831557841575 -0.6748168441450227 -0.6748317221044653 
0.8796842919357521 -0.8797123120871732 -0.8797206095187624 -0.8797172863928683 -0.8797122261881957 -0.8796953562107935 -0.879712101395546 
1.177503097715588 -1.177505171692747 -1.177506337471025 -1.177510472661468 -1.177503409626853 -1.177506232638758 -1.177504268967738 
-0.2715584738722121 -0.1196867782881057 -0.1040510426411528 -0.0506621526861635 0.8658738957821077 -0.127401337728229 -0.04907348961025899 
0.8796842919357521 -0.8797123120871732 -0.8797206095187624 -0.8797172863928683 -0.8797122261881957 -0.8796953562107935 -0.879712101395546 
0.401050563071816 -0.4010592928412299 -0.4010602119165522 -0.4010606187031134 -0.4010592017139125 -0.4010560095115631 -0.4010597821456194 
-0.2715584738722121 -0.1196867782881057 0.7804510810971923 -0.0506621526861635 -0.05792419892710515 -0.127401337728229 -0.04907348961025899 
1.292544765174134 -1.292542185106193 -1.292525433385372 -1.292528671850552 -1.292537534324464 -1.292539214556941 -1.292541378305162 
-0.2715584738722121 0.7542429977290381 -0.1040510426411528 -0.0506621526861635 -0.05792419892710515 -0.127401337728229 -0.04907348961025899 
0.401050563071816 -0.4010592928412299 -0.4010602119165522 -0.4010606187031134 -0.4010592017139125 -0.4010560095115631 -0.4010597821456194 
-1.350191800647969 -0.7844290376804131 -0.7130357476437984 -0.4248987634328206 -0.4696836540099129 1.847453593166429 1.553034969046064 
0.5429239460704752 -0.1196867782881057 -0.1040510426411528 -0.0506621526861635 -0.05792419892710515 -0.127401337728229 -0.04907348961025899 
0.8796842919357521 -0.8797123120871732 -0.8797206095187624 -0.8797172863928683 -0.8797122261881957 -0.8796953562107935 -0.879712101395546 
0.401050563071816 -0.4010592928412299 -0.4010602119165522 -0.4010606187031134 -0.4010592017139125 -0.4010560095115631 -0.4010597821456194 
-0.6232964569545497 -0.3046093329314958 -0.2689771268642726 -0.1396585200248373 -0.1580887451203666 1.626924454392891 -0.1355797272685665 
1.177503097715588 -1.177505171692747 -1.177506337471025 -1.177510472661468 -1.177503409626853 -1.177506232638758 -1.177504268967738 
2.262572655062385 -2.262522654321406 -2.262561155436803 -2.262548039999763 -2.262551354675418 -2.26256434508389 -2.262508882334741 
0.401050563071816 -0.4010592928412299 -0.4010602119165522 -0.4010606187031134 -0.4010592017139125 -0.4010560095115631 -0.4010597821456194 
0.401050563071816 -0.4010592928412299 -0.4010602119165522 -0.4010606187031134 -0.4010592017139125 -0.4010560095115631 -0.4010597821456194 
-0.6232964569545497 -0.3046093329314958 1.138957690640498 -0.1396585200248373 0.6632005376681437 -0.3219287469790112 -0.1355797272685665 
0.401050563071816 -0.4010592928412299 -0.4010602119165522 -0.4010606187031134 -0.4010592017139125 -0.4010560095115631 -0.4010597821456194 
-0.2715584738722121 -0.1196867782881057 0.7804510810971923 -0.0506621526861635 -0.05792419892710515 -0.127401337728229 -0.04907348961025899 
0.401050563071816 -0.4010592928412299 -0.4010602119165522 -0.4010606187031134 -0.4010592017139125 -0.4010560095115631 -0.4010597821456194 
-0.4687279164347758 -0.2191954666782284 -0.19224297961949 0.7814906112510144 0.7562420648252276 -0.2323867363564223 -0.09403830248109915 
0.401050563071816 -0.4010592928412299 -0.4010602119165522 -0.4010606187031134 -0.4010592017139125 -0.4010560095115631 -0.4010597821456194 
-0.6232964569545497 -0.3046093329314958 1.73415951738489 -0.1396585200248373 -0.1580887451203666 -0.3219287469790112 -0.1355797272685665 
-1.03565479351635 -0.5622724408440918 2.584524802294057 -0.2838769184299766 -0.3171003935211773 -0.5895963385846985 -0.276432982309615 
0.401050563071816 -0.4010592928412299 -0.4010602119165522 -0.4010606187031134 -0.4010592017139125 -0.4010560095115631 -0.4010597821456194 
0.401050563071816 -0.4010592928412299 -0.4010602119165522 -0.4010606187031134 -0.4010592017139125 -0.4010560095115631 -0.4010597821456194 
-0.7504459935369149 1.937846300648698 -0.337027022691738 -0.1792994567942802 -0.2021574028766991 -0.4001614585419506 -0.1742207452884603 
0.5429239460704752 -0.1196867782881057 -0.1040510426411528 -0.0506621526861635 -0.05792419892710515 -0.127401337728229 -0.04907348961025899 
0.401050563071816 -0.4010592928412299 -0.4010602119165522 -0.4010606187031134 -0.4010592017139125 -0.4010560095115631 -0.4010597821456194 
0.401050563071816 -0.4010592928412299 -0.4010602119165522 -0.4010606187031134 -0.4010592017139125 -0.4010560095115631 -0.4010597821456194 
-0.2715584738722121 -0.1196867782881057 -0.1040510426411528 -0.0506621526861635 -0.05792419892710515 0.7416776662924058 -0.04907348961025899 
-0.7504459935369149 -0.3795890340337128 -0.337027022691738 -0.1792994567942802 -0.2021574028766991 1.898351596155509 -0.1742207452884603 
0.401050563071816 -0.4010592928412299 -0.4010602119165522 -0.4010606187031134 -0.4010592017139125 -0.4010560095115631 -0.4010597821456194 
0.8796842919357521 -0.8797123120871732 -0.8797206095187624 -0.8797172863928683 -0.8797122261881957 -0.8796953562107935 -0.879712101395546 
0.8796842919357521 -0.8797123120871732 -0.8797206095187624 -0.8797172863928683 -0.8797122261881957 -0.8796953562107935 -0.879712101395546 
0.6748167125800291 -0.6748318795627335 -0.6748295655179062 -0.6748244696833685 -0.674831557841575 -0.6748168441450227 -0.6748317221044653 
0.6748167125800291 -0.6748318795627335 -0.6748295655179062 -0.6748244696833685 -0.674831557841575 -0.6748168441450227 -0.6748317221044653 
0.401050563071816 -0.4010592928412299 -0.4010602119165522 -0.4010606187031134 -0.4010592017139125 -0.4010560095115631 -0.4010597821456194 
-0.2715584738722121 0.7542429977290381 -0.1040510426411528 -0.0506621526861635 -0.05792419892710515 -0.127401337728229 -0.04907348961025899 
0.905194520444802 -0.2191954666782284 -0.19224297961949 -0.09696741999629652 -0.1102690735282441 -0.2323867363564223 -0.09403830248109915 
0.401050563071816 -0.4010592928412299 -0.4010602119165522 -0.4010606187031134 -0.4010592017139125 -0.4010560095115631 -0.4010597821456194 
-0.2715584738722121 -0.1196867782881057 0.7804510810971923 -0.0506621526861635 -0.05792419892710515 -0.127401337728229 -0.04907348961025899 
0.401050563071816 -0.4010592928412299 -0.4010602119165522 -0.4010606187031134 -0.4010592017139125 -0.4010560095115631 -0.4010597821456194 
0.6748167125800291 -0.6748318795627335 -0.6748295655179062 -0.6748244696833685 -0.674831557841575 -0.6748168441450227 -0.6748317221044653 
0.6748167125800291 -0.6748318795627335 -0.6748295655179062 -0.6748244696833685 -0.674831557841575 -0.6748168441450227 -0.6748317221044653 
0.401050563071816 -0.4010592928412299 -0.4010602119165522 -0.4010606187031134 -0.4010592017139125 -0.4010560095115631 -0.4010597821456194 
0.401050563071816 -0.4010592928412299 -0.4010602119165522 -0.4010606187031134 -0.4010592017139125 -0.4010560095115631 -0.4010597821456194 
-0.4687279164347758 0.5726784410935716 0.6150004831804765 -0.09696741999629652 -0.1102690735282441 -0.2323867363564223 -0.09403830248109915 
0.401050563071816 -0.4010592928412299 -0.4010602119165522 -0.4010606187031134 -0.4010592017139125 -0.4010560095115631 -0.4010597821456194 
0.401050563071816 -0.4010592928412299 -0.4010602119165522 -0.4010606187031134 -0.4010592017139125 -0.4010560095115631 -0.4010597821456194 
-0.2715584738722121 -0.1196867782881057 -0.1040510426411528 -0.0506621526861635 -0.05792419892710515 -0.127401337728229 0.8839706160633183 
0.401050563071816 -0.4010592928412299 -0.4010602119165522 -0.4010606187031134 -0.4010592017139125 -0.4010560095115631 -0.4010597821456194 
0.401050563071816 -0.4010592928412299 -0.4010602119165522 -0.4010606187031134 -0.4010592017139125 -0.4010560095115631 -0.4010597821456194 
0.401050563071816 -0.4010592928412299 -0.4010602119165522 -0.4010606187031134 -0.4010592017139125 -0.4010560095115631 -0.4010597821456194 
0.8796842919357521 -0.8797123120871732 -0.8797206095187624 -0.8797172863928683 -0.8797122261881957 -0.8796953562107935 -0.879712101395546 
-0.2715584738722121 -0.1196867782881057 -0.1040510426411528 0.8806446958592987 -0.05792419892710515 -0.127401337728229 -0.04907348961025899 
1.042580553478489 -1.042596577009953 -1.042608687583921 -1.042609871630564 -1.042596018150823 -1.042591864697598 -1.042595749410701 
-0.2715584738722121 -0.1196867782881057 -0.1040510426411528 -0.0506621526861635 -0.05792419892710515 -0.127401337728229 0.8839706160633183 
0.6748167125800291 -0.6748318795627335 -0.6748295655179062 -0.6748244696833685 -0.674831557841575 -0.6748168441450227 -0.6748317221044653 
-0.2715584738722121 -0.1196867782881057 0.7804510810971923 -0.0506621526861635 -0.05792419892710515 -0.127401337728229 -0.04907348961025899 
0.6748167125800291 -0.6748318795627335 -0.6748295655179062 -0.6748244696833685 -0.674831557841575 -0.6748168441450227 -0.6748317221044653 
0.8796842919357521 -0.8797123120871732 -0.8797206095187624 -0.8797172863928683 -0.8797122261881957 -0.8796953562107935 -0.879712101395546 
0.401050563071816 -0.4010592928412299 -0.4010602119165522 -0.4010606187031134 -0.4010592017139125 -0.4010560095115631 -0.4010597821456194 
0.401050563071816 -0.4010592928412299 -0.4010602119165522 -0.4010606187031134 -0.4010592017139125 -0.4010560095115631 -0.4010597821456194 
-0.2715584738722121 -0.1196867782881057 -0.1040510426411528 -0.0506621526861635 -0.05792419892710515 0.7416776662924058 -0.04907348961025899 
0.401050563071816 -0.4010592928412299 -0.4010602119165522 -0.4010606187031134 -0.4010592017139125 -0.4010560095115631 -0.4010597821456194 
0.401050563071816 -0.4010592928412299 -0.4010602119165522 -0.4010606187031134 -0.4010592017139125 -0.4010560095115631 -0.4010597821456194 
0.5429239460704752 -0.1196867782881057 -0.1040510426411528 -0.0506621526861635 -0.05792419892710515 -0.127401337728229 -0.04907348961025899 
-0.2715584738722121 -0.1196867782881057 -0.1040510426411528 -0.0506621526861635 0.8658738957821077 -0.127401337728229 -0.04907348961025899 
-0.2715584738722121 -0.1196867782881057 -0.1040510426411528 -0.0506621526861635 0.8658738957821077 -0.127401337728229 -0.04907348961025899 
0.6748167125800291 -0.6748318795627335 -0.6748295655179062 -0.6748244696833685 -0.674831557841575 -0.6748168441450227 -0.6748317221044653 
1.292544765174134 -1.292542185106193 -1.292525433385372 -1.292528671850552 -1.292537534324464 -1.292539214556941 -1.292541378305162 
0.6748167125800291 -0.6748318795627335 -0.6748295655179062 -0.6748244696833685 -0.674831557841575 -0.6748168441450227 -0.6748317221044653 
0.6748167125800291 -0.6748318795627335 -0.6748295655179062 -0.6748244696833685 -0.674831557841575 -0.6748168441450227 -0.6748317221044653 
0.401050563071816 -0.4010592928412299 -0.4010602119165522 -0.4010606187031134 -0.4010592017139125 -0.4010560095115631 -0.4010597821456194 
0.401050563071816 -0.4010592928412299 -0.4010602119165522 -0.4010606187031134 -0.4010592017139125 -0.4010560095115631 -0.4010597821456194 
1.177503097715588 -1.177505171692747 -1.177506337471025 -1.177510472661468 -1.177503409626853 -1.177506232638758 -1.177504268967738 
0.5429239460704752 -0.1196867782881057 -0.1040510426411528 -0.0506621526861635 -0.05792419892710515 -0.127401337728229 -0.04907348961025899 
0.5429239460704752 -0.1196867782881057 -0.1040510426411528 -0.0506621526861635 -0.05792419892710515 -0.127401337728229 -0.04907348961025899 
-0.2715584738722121 -0.1196867782881057 0.7804510810971923 -0.0506621526861635 -0.05792419892710515 -0.127401337728229 -0.04907348961025899 
0.401050563071816 -0.4010592928412299 -0.4010602119165522 -0.4010606187031134 -0.4010592017139125 -0.4010560095115631 -0.4010597821456194 
0.8796842919357521 -0.8797123120871732 -0.8797206095187624 -0.8797172863928683 -0.8797122261881957 -0.8796953562107935 -0.879712101395546 
0.401050563071816 -0.4010592928412299 -0.4010602119165522 -0.4010606187031134 -0.4010592017139125 -0.4010560095115631 -0.4010597821456194 
0.5429239460704752 -0.1196867782881057 -0.1040510426411528 -0.0506621526861635 -0.05792419892710515 -0.127401337728229 -0.04907348961025899 
-0.2715584738722121 -0.1196867782881057 0.7804510810971923 -0.0506621526861635 -0.05792419892710515 -0.127401337728229 -0.04907348961025899 
0.5429239460704752 -0.1196867782881057 -0.1040510426411528 -0.0506621526861635 -0.05792419892710515 -0.127401337728229 -0.04907348961025899 
0.401050563071816 -0.4010592928412299 -0.4010602119165522 -0.4010606187031134 -0.4010592017139125 -0.4010560095115631 -0.4010597821456194 
-0.4687279164347758 -0.2191954666782284 -0.19224297961949 1.573714533470729 -0.1102690735282441 -0.2323867363564223 -0.09403830248109915 
0.401050563071816 -0.4010592928412299 -0.4010602119165522 -0.4010606187031134 -0.4010592017139125 -0.4010560095115631 -0.4010597821456194 
0.5429239460704752 -0.1196867782881057 -0.1040510426411528 -0.0506621526861635 -0.05792419892710515 -0.127401337728229 -0.04907348961025899 
0.401050563071816 -0.4010592928412299 -0.4010602119165522 -0.4010606187031134 -0.4010592017139125 -0.4010560095115631 -0.4010597821456194 
0.401050563071816 -0.4010592928412299 -0.4010602119165522 -0.4010606187031134 -0.4010592017139125 -0.4010560095115631 -0.4010597821456194 
0.6748167125800291 -0.6748318795627335 -0.6748295655179062 -0.6748244696833685 -0.674831557841575 -0.6748168441450227 -0.6748317221044653 
1.166809042178457 -0.3046093329314958 -0.2689771268642726 -0.1396585200248373 -0.1580887451203666 -0.3219287469790112 -0.1355797272685665 
1.532063863912364 -0.4465124710896535 -0.3982527209173803 -0.216328748254608 -0.243061201151944 -0.4697349875118266 -0.210369891803464 
0.401050563071816 -0.4010592928412299 -0.4010602119165522 -0.4010606187031134 -0.4010592017139125 -0.4010560095115631 -0.4010597821456194 
0.8796842919357521 -0.8797123120871732 -0.8797206095187624 -0.8797172863928683 -0.8797122261881957 -0.8796953562107935 -0.879712101395546 
0.401050563071816 -0.4010592928412299 -0.4010602119165522 -0.4010606187031134 -0.4010592017139125 -0.4010560095115631 -0.4010597821456194 
0.6748167125800291 -0.6748318795627335 -0.6748295655179062 -0.6748244696833685 -0.674831557841575 -0.6748168441450227 -0.6748317221044653 
-0.2715584738722121 -0.1196867782881057 -0.1040510426411528 -0.0506621526861635 0.8658738957821077 -0.127401337728229 -0.04907348961025899 
1.177503097715588 -1.177505171692747 -1.177506337471025 -1.177510472661468 -1.177503409626853 -1.177506232638758 -1.177504268967738 
3.163620031617215 -3.163598452892317 -3.163554580358263 -3.163584314826621 -3.163595213298937 -3.163591622596237 -3.163611203637537 
1.481552479740281 -1.481561330639648 -1.481519696279605 -1.48151013975849 -1.48154773466368 -1.481540800609151 -1.48155976309383 
-0.1691694807104323 -0.3795890340337128 -0.337027022691738 0.6214748337863978 -0.2021574028766991 0.8675359948529969 -0.1742207452884603 
0.401050563071816 -0.4010592928412299 -0.4010602119165522 -0.4010606187031134 -0.4010592017139125 -0.4010560095115631 -0.4010597821456194 
0.401050563071816 -0.4010592928412299 -0.4010602119165522 -0.4010606187031134 -0.4010592017139125 -0.4010560095115631 -0.4010597821456194 
0.401050563071816 -0.4010592928412299 -0.4010602119165522 -0.4010606187031134 -0.4010592017139125 -0.4010560095115631 -0.4010597821456194 
0.401050563071816 -0.4010592928412299 -0.4010602119165522 -0.4010606187031134 -0.4010592017139125 -0.4010560095115631 -0.4010597821456194 
-1.03565479351635 -0.5622724408440918 -0.5051186478812251 -0.2838769184299766 -0.3171003935211773 2.428898360276208 -0.276432982309615 
1.292544765174134 -1.292542185106193 -1.292525433385372 -1.292528671850552 -1.292537534324464 -1.292539214556941 -1.292541378305162 
0.401050563071816 -0.4010592928412299 -0.4010602119165522 -0.4010606187031134 -0.4010592017139125 -0.4010560095115631 -0.4010597821456194 
0.905194520444802 -0.2191954666782284 -0.19224297961949 -0.09696741999629652 -0.1102690735282441 -0.2323867363564223 -0.09403830248109915 
0.401050563071816 -0.4010592928412299 -0.4010602119165522 -0.4010606187031134 -0.4010592017139125 -0.4010560095115631 -0.4010597821456194 
-0.4687279164347758 1.286397656813794 -0.19224297961949 -0.09696741999629652 -0.1102690735282441 -0.2323867363564223 -0.09403830248109915 
0.8796842919357521 -0.8797123120871732 -0.8797206095187624 -0.8797172863928683 -0.8797122261881957 -0.8796953562107935 -0.879712101395546 
0.401050563071816 -0.4010592928412299 -0.4010602119165522 -0.4010606187031134 -0.4010592017139125 -0.4010560095115631 -0.4010597821456194 
0.6748167125800291 -0.6748318795627335 -0.6748295655179062 -0.6748244696833685 -0.674831557841575 -0.6748168441450227 -0.6748317221044653 
0.401050563071816 -0.4010592928412299 -0.4010602119165522 -0.4010606187031134 -0.4010592017139125 -0.4010560095115631 -0.4010597821456194 
0.6748167125800291 -0.6748318795627335 -0.6748295655179062 -0.6748244696833685 -0.674831557841575 -0.6748168441450227 -0.6748317221044653 
0.8796842919357521 -0.8797123120871732 -0.8797206095187624 -0.8797172863928683 -0.8797122261881957 -0.8796953562107935 -0.879712101395546 
-0.4687279164347758 -0.2191954666782284 -0.19224297961949 -0.09696741999629652 1.535459746470708 -0.2323867363564223 -0.09403830248109915 
-0.7504459935369149 0.3091493948370827 -0.337027022691738 1.310652597848008 0.5822171527817532 -0.4001614585419506 -0.1742207452884603 
0.401050563071816 -0.4010592928412299 -0.4010602119165522 -0.4010606187031134 -0.4010592017139125 -0.4010560095115631 -0.4010597821456194 
0.5429239460704752 -0.1196867782881057 -0.1040510426411528 -0.0506621526861635 -0.05792419892710515 -0.127401337728229 -0.04907348961025899 
-0.8584926495261183 0.2069963535648344 1.804224674642153 -0.216328748254608 -0.243061201151944 -0.4697349875118266 -0.210369891803464 
0.8796842919357521 -0.8797123120871732 -0.8797206095187624 -0.8797172863928683 -0.8797122261881957 -0.8796953562107935 -0.879712101395546 
0.8796842919357521 -0.8797123120871732 -0.8797206095187624 -0.8797172863928683 -0.8797122261881957 -0.8796953562107935 -0.879712101395546 
-0.2715584738722121 0.7542429977290381 -0.1040510426411528 -0.0506621526861635 -0.05792419892710515 -0.127401337728229 -0.04907348961025899 
-0.2715584738722121 -0.1196867782881057 0.7804510810971923 -0.0506621526861635 -0.05792419892710515 -0.127401337728229 -0.04907348961025899 
-0.6232964569545497 1.660648694237336 -0.2689771268642726 -0.1396585200248373 -0.1580887451203666 -0.3219287469790112 -0.1355797272685665 
0.8796842919357521 -0.8797123120871732 -0.8797206095187624 -0.8797172863928683 -0.8797122261881957 -0.8796953562107935 -0.879712101395546 
-0.2715584738722121 -0.1196867782881057 -0.1040510426411528 -0.0506621526861635 -0.05792419892710515 0.7416776662924058 -0.04907348961025899 
-0.2715584738722121 0.7542429977290381 -0.1040510426411528 -0.0506621526861635 -0.05792419892710515 -0.127401337728229 -0.04907348961025899 
-0.6232964569545497 -0.3046093329314958 -0.2689771268642726 -0.1396585200248373 1.38192891474372 -0.3219287469790112 0.7037611283332336 
-0.4687279164347758 -0.2191954666782284 1.340197708894231 -0.09696741999629652 -0.1102690735282441 -0.2323867363564223 -0.09403830248109915 
0.6748167125800291 -0.6748318795627335 -0.6748295655179062 -0.6748244696833685 -0.674831557841575 -0.6748168441450227 -0.6748317221044653 
0.401050563071816 -0.4010592928412299 -0.4010602119165522 -0.4010606187031134 -0.4010592017139125 -0.4010560095115631 -0.4010597821456194 
0.6748167125800291 -0.6748318795627335 -0.6748295655179062 -0.6748244696833685 -0.674831557841575 -0.6748168441450227 -0.6748317221044653 
0.401050563071816 -0.4010592928412299 -0.4010602119165522 -0.4010606187031134 -0.4010592017139125 -0.4010560095115631 -0.4010597821456194 
0.5429239460704752 -0.1196867782881057 -0.1040510426411528 -0.0506621526861635 -0.05792419892710515 -0.127401337728229 -0.04907348961025899 
0.6748167125800291 -0.6748318795627335 -0.6748295655179062 -0.6748244696833685 -0.674831557841575 -0.6748168441450227 -0.6748317221044653 
0.5429239460704752 -0.1196867782881057 -0.1040510426411528 -0.0506621526861635 -0.05792419892710515 -0.127401337728229 -0.04907348961025899 
0.5429239460704752 -0.1196867782881057 -0.1040510426411528 -0.0506621526861635 -0.05792419892710515 -0.127401337728229 -0.04907348961025899 
0.401050563071816 -0.4010592928412299 -0.4010602119165522 -0.4010606187031134 -0.4010592017139125 -0.4010560095115631 -0.4010597821456194 
0.6748167125800291 -0.6748318795627335 -0.6748295655179062 -0.6748244696833685 -0.674831557841575 -0.6748168441450227 -0.6748317221044653 
-0.2715584738722121 0.7542429977290381 -0.1040510426411528 -0.0506621526861635 -0.05792419892710515 -0.127401337728229 -0.04907348961025899 
1.392772011910071 -1.392773212422005 -1.392740569325808 -1.392738888087967 -1.392764256201483 -1.392761382242901 -1.392772212770586 
1.042580553478489 -1.042596577009953 -1.042608687583921 -1.042609871630564 -1.042596018150823 -1.042591864697598 -1.042595749410701 
0.8796842919357521 -0.8797123120871732 -0.8797206095187624 -0.8797172863928683 -0.8797122261881957 -0.8796953562107935 -0.879712101395546 
0.5429239460704752 -0.1196867782881057 -0.1040510426411528 -0.0506621526861635 -0.05792419892710515 -0.127401337728229 -0.04907348961025899 
0.401050563071816 -0.4010592928412299 -0.4010602119165522 -0.4010606187031134 -0.4010592017139125 -0.4010560095115631 -0.4010597821456194 
-0.4687279164347758 -0.2191954666782284 -0.19224297961949 -0.09696741999629652 -0.1102690735282441 1.261358055053449 -0.09403830248109915 
0.401050563071816 -0.4010592928412299 -0.4010602119165522 -0.4010606187031134 -0.4010592017139125 -0.4010560095115631 -0.4010597821456194 
0.401050563071816 -0.4010592928412299 -0.4010602119165522 -0.4010606187031134 -0.4010592017139125 -0.4010560095115631 -0.4010597821456194 
0.5429239460704752 -0.1196867782881057 -0.1040510426411528 -0.0506621526861635 -0.05792419892710515 -0.127401337728229 -0.04907348961025899 
-0.2715584738722121 0.7542429977290381 -0.1040510426411528 -0.0506621526861635 -0.05792419892710515 -0.127401337728229 -0.04907348961025899 
0.401050563071816 -0.4010592928412299 -0.4010602119165522 -0.4010606187031134 -0.4010592017139125 -0.4010560095115631 -0.4010597821456194 
-0.2715584738722121 0.7542429977290381 -0.1040510426411528 -0.0506621526861635 -0.05792419892710515 -0.127401337728229 -0.04907348961025899 
0.6748167125800291 -0.6748318795627335 -0.6748295655179062 -0.6748244696833685 -0.674831557841575 -0.6748168441450227 -0.6748317221044653 
0.401050563071816 -0.4010592928412299 -0.4010602119165522 -0.4010606187031134 -0.4010592017139125 -0.4010560095115631 -0.4010597821456194 
0.401050563071816 -0.4010592928412299 -0.4010602119165522 -0.4010606187031134 -0.4010592017139125 -0.4010560095115631 -0.4010597821456194 
0.5429239460704752 -0.1196867782881057 -0.1040510426411528 -0.0506621526861635 -0.05792419892710515 -0.127401337728229 -0.04907348961025899 
0.401050563071816 -0.4010592928412299 -0.4010602119165522 -0.4010606187031134 -0.4010592017139125 -0.4010560095115631 -0.4010597821456194 
-0.1691694807104323 -0.3795890340337128 -0.337027022691738 -0.1792994567942802 1.255539436688614 -0.4001614585419506 0.6303772223898335 
0.401050563071816 -0.4010592928412299 -0.4010602119165522 -0.4010606187031134 -0.4010592017139125 -0.4010560095115631 -0.4010597821456194 
0.401050563071816 -0.4010592928412299 -0.4010602119165522 -0.4010606187031134 -0.4010592017139125 -0.4010560095115631 -0.4010597821456194 
2.545531711799992 -2.545482741398689 -2.54546061668816 -2.545499639834695 -2.545519096170536 -2.545527015337515 -2.545475912667657 
0.6748167125800291 -0.6748318795627335 -0.6748295655179062 -0.6748244696833685 -0.674831557841575 -0.6748168441450227 -0.6748317221044653 
0.401050563071816 -0.4010592928412299 -0.4010602119165522 -0.4010606187031134 -0.4010592017139125 -0.4010560095115631 -0.4010597821456194 
-0.4687279164347758 1.286397656813794 -0.19224297961949 -0.09696741999629652 -0.1102690735282441 -0.2323867363564223 -0.09403830248109915 
-0.2715584738722121 -0.1196867782881057 -0.1040510426411528 -0.0506621526861635 -0.05792419892710515 0.7416776662924058 -0.04907348961025899 
0.8796842919357521 -0.8797123120871732 -0.8797206095187624 -0.8797172863928683 -0.8797122261881957 -0.8796953562107935 -0.879712101395546 
0.401050563071816 -0.4010592928412299 -0.4010602119165522 -0.4010606187031134 -0.4010592017139125 -0.4010560095115631 -0.4010597821456194 
-0.9524701746180978 -0.5070151347936468 -0.4539638065676279 -0.2510942896486011 2.838657546478216 -0.5324519710380843 -0.2443526926421632 
0.401050563071816 -0.4010592928412299 -0.4010602119165522 -0.4010606187031134 -0.4010592017139125 -0.4010560095115631 -0.4010597821456194 
0.401050563071816 -0.4010592928412299 -0.4010602119165522 -0.4010606187031134 -0.4010592017139125 -0.4010560095115631 -0.4010597821456194 
-0.2715584738722121 -0.1196867782881057 0.7804510810971923 -0.0506621526861635 -0.05792419892710515 -0.127401337728229 -0.04907348961025899 
1.88908584714004 -0.6131589751391622 -0.5524408560960514 -0.3149067861105008 -0.3508880019245556 -0.6421165136507295 -0.3068277675907124 
0.401050563071816 -0.4010592928412299 -0.4010602119165522 -0.4010606187031134 -0.4010592017139125 -0.4010560095115631 -0.4010597821456194 
0.401050563071816 -0.4010592928412299 -0.4010602119165522 -0.4010606187031134 -0.4010592017139125 -0.4010560095115631 -0.4010597821456194 
1.177503097715588 -1.177505171692747 -1.177506337471025 -1.177510472661468 -1.177503409626853 -1.177506232638758 -1.177504268967738 
1.042580553478489 -1.042596577009953 -1.042608687583921 -1.042609871630564 -1.042596018150823 -1.042591864697598 -1.042595749410701 
1.668831222748356 -0.5070151347936468 -0.4539638065676279 -0.2510942896486011 -0.2812552383557119 -0.5324519710380843 -0.2443526926421632 
-0.2715584738722121 0.7542429977290381 -0.1040510426411528 -0.0506621526861635 -0.05792419892710515 -0.127401337728229 -0.04907348961025899 
-0.2715584738722121 -0.1196867782881057 -0.1040510426411528 -0.0506621526861635 0.8658738957821077 -0.127401337728229 -0.04907348961025899 
1.56123145057884 -1.561247843823287 -1.561205119953546 -1.561186198344504 -1.561230352015679 -1.561221463863527 -1.561245449748422 
2.292900315837238 -2.292848017117536 -2.292881731835186 -2.292874855819101 -2.292879244281586 -2.292892227432743 -2.292834432279078 
-0.6232964569545497 -0.3046093329314958 1.73415951738489 -0.1396585200248373 -0.1580887451203666 -0.3219287469790112 -0.1355797272685665 
0.6748167125800291 -0.6748318795627335 -0.6748295655179062 -0.6748244696833685 -0.674831557841575 -0.6748168441450227 -0.6748317221044653 
1.292544765174134 -1.292542185106193 -1.292525433385372 -1.292528671850552 -1.292537534324464 -1.292539214556941 -1.292541378305162 
1.56123145057884 -1.561247843823287 -1.561205119953546 -1.561186198344504 -1.561230352015679 -1.561221463863527 -1.561245449748422 
0.401050563071816 -0.4010592928412299 -0.4010602119165522 -0.4010606187031134 -0.4010592017139125 -0.4010560095115631 -0.4010597821456194 
0.2353615837132753 -0.2191954666782284 -0.19224297961949 -0.09696741999629652 0.7562420648252276 -0.2323867363564223 -0.09403830248109915 
-0.2715584738722121 -0.1196867782881057 0.7804510810971923 -0.0506621526861635 -0.05792419892710515 -0.127401337728229 -0.04907348961025899 
0.401050563071816 -0.4010592928412299 -0.4010602119165522 -0.4010606187031134 -0.4010592017139125 -0.4010560095115631 -0.4010597821456194 
0.401050563071816 -0.4010592928412299 -0.4010602119165522 -0.4010606187031134 -0.4010592017139125 -0.4010560095115631 -0.4010597821456194 
0.8796842919357521 -0.8797123120871732 -0.8797206095187624 -0.8797172863928683 -0.8797122261881957 -0.8796953562107935 -0.879712101395546 
0.5429239460704752 -0.1196867782881057 -0.1040510426411528 -0.0506621526861635 -0.05792419892710515 -0.127401337728229 -0.04907348961025899 
-0.2715584738722121 -0.1196867782881057 -0.1040510426411528 -0.0506621526861635 -0.05792419892710515 0.7416776662924058 -0.04907348961025899 
0.6748167125800291 -0.6748318795627335 -0.6748295655179062 -0.6748244696833685 -0.674831557841575 -0.6748168441450227 -0.6748317221044653 
-0.2715584738722121 -0.1196867782881057 0.7804510810971923 -0.0506621526861635 -0.05792419892710515 -0.127401337728229 -0.04907348961025899 
0.401050563071816 -0.4010592928412299 -0.4010602119165522 -0.4010606187031134 -0.4010592017139125 -0.4010560095115631 -0.4010597821456194 
1.368704020969981 -0.3795890340337128 -0.337027022691738 -0.1792994567942802 -0.2021574028766991 -0.4001614585419506 -0.1742207452884603 
0.6748167125800291 -0.6748318795627335 -0.6748295655179062 -0.6748244696833685 -0.674831557841575 -0.6748168441450227 -0.6748317221044653 
-0.2715584738722121 -0.1196867782881057 -0.1040510426411528 -0.0506621526861635 0.8658738957821077 -0.127401337728229 -0.04907348961025899 
-0.8584926495261183 2.15416533468444 -0.3982527209173803 -0.216328748254608 -0.243061201151944 -0.4697349875118266 -0.210369891803464 
0.8796842919357521 -0.8797123120871732 -0.8797206095187624 -0.8797172863928683 -0.8797122261881957 -0.8796953562107935 -0.879712101395546 
0.401050563071816 -0.4010592928412299 -0.4010602119165522 -0.4010606187031134 -0.4010592017139125 -0.4010560095115631 -0.4010597821456194 
1.481552479740281 -1.481561330639648 -1.481519696279605 -1.48151013975849 -1.48154773466368 -1.481540800609151 -1.48155976309383 
0.401050563071816 -0.4010592928412299 -0.4010602119165522 -0.4010606187031134 -0.4010592017139125 -0.4010560095115631 -0.4010597821456194 
0.8796842919357521 -0.8797123120871732 -0.8797206095187624 -0.8797172863928683 -0.8797122261881957 -0.8796953562107935 -0.879712101395546 
-0.4687279164347758 1.286397656813794 -0.19224297961949 -0.09696741999629652 -0.1102690735282441 -0.2323867363564223 -0.09403830248109915 
0.401050563071816 -0.4010592928412299 -0.4010602119165522 -0.4010606187031134 -0.4010592017139125 -0.4010560095115631 -0.4010597821456194 
0.5429239460704752 -0.1196867782881057 -0.1040510426411528 -0.0506621526861635 -0.05792419892710515 -0.127401337728229 -0.04907348961025899 
0.6748167125800291 -0.6748318795627335 -0.6748295655179062 -0.6748244696833685 -0.674831557841575 -0.6748168441450227 -0.6748317221044653 
0.401050563071816 -0.4010592928412299 -0.4010602119165522 -0.4010606187031134 -0.4010592017139125 -0.4010560095115631 -0.4010597821456194 
0.6748167125800291 -0.6748318795627335 -0.6748295655179062 -0.6748244696833685 -0.674831557841575 -0.6748168441450227 -0.6748317221044653 
1.042580553478489 -1.042596577009953 -1.042608687583921 -1.042609871630564 -1.042596018150823 -1.042591864697598 -1.042595749410701 
-0.9524701746180978 -0.5070151347936468 -0.4539638065676279 -0.2510942896486011 1.054575482607744 -0.5324519710380843 2.125902855351179 
0.6748167125800291 -0.6748318795627335 -0.6748295655179062 -0.6748244696833685 -0.674831557841575 -0.6748168441450227 -0.6748317221044653 
0.401050563071816 -0.4010592928412299 -0.4010602119165522 -0.4010606187031134 -0.4010592017139125 -0.4010560095115631 -0.4010597821456194 
0.6748167125800291 -0.6748318795627335 -0.6748295655179062 -0.6748244696833685 -0.674831557841575 -0.6748168441450227 -0.6748317221044653 
0.401050563071816 -0.4010592928412299 -0.4010602119165522 -0.4010606187031134 -0.4010592017139125 -0.4010560095115631 -0.4010597821456194 
0.401050563071816 -0.4010592928412299 -0.4010602119165522 -0.4010606187031134 -0.4010592017139125 -0.4010560095115631 -0.4010597821456194 
-0.2715584738722121 -0.1196867782881057 0.7804510810971923 -0.0506621526861635 -0.05792419892710515 -0.127401337728229 -0.04907348961025899 
1.379023124864093 -0.5622724408440918 -0.5051186478812251 0.4391408581313972 -0.3171003935211773 -0.5895963385846985 -0.276432982309615 
1.760590863334709 -1.760612865503099 -1.760598470545742 -1.760554419250638 -1.76059301365349 -1.760588706348067 -1.760607455945468 
0.401050563071816 -0.4010592928412299 -0.4010602119165522 -0.4010606187031134 -0.4010592017139125 -0.4010560095115631 -0.4010597821456194 
-0.2715584738722121 -0.1196867782881057 0.7804510810971923 -0.0506621526861635 -0.05792419892710515 -0.127401337728229 -0.04907348961025899 
0.6748167125800291 -0.6748318795627335 -0.6748295655179062 -0.6748244696833685 -0.674831557841575 -0.6748168441450227 -0.6748317221044653 
1.177503097715588 -1.177505171692747 -1.177506337471025 -1.177510472661468 -1.177503409626853 -1.177506232638758 -1.177504268967738 
-1.178011966632115 -0.6603439785905318 -0.5964909923070892 3.385645168665042 -0.3828568960688244 -0.6907339975004475 -0.3357178463773794 
0.6748167125800291 -0.6748318795627335 -0.6748295655179062 -0.6748244696833685 -0.674831557841575 -0.6748168441450227 -0.6748317221044653 
0.5429239460704752 -0.1196867782881057 -0.1040510426411528 -0.0506621526861635 -0.05792419892710515 -0.127401337728229 -0.04907348961025899 
2.247939153661111 -2.523539564671488 -2.523522342568546 -2.523558415994438 -2.247939440934439 -2.523585274536052 -2.523531861729278 
0.401050563071816 -0.4010592928412299 -0.4010602119165522 -0.4010606187031134 -0.4010592017139125 -0.4010560095115631 -0.4010597821456194 
0.401050563071816 -0.4010592928412299 -0.4010602119165522 -0.4010606187031134 -0.4010592017139125 -0.4010560095115631 -0.4010597821456194 
0.6748167125800291 -0.6748318795627335 -0.6748295655179062 -0.6748244696833685 -0.674831557841575 -0.6748168441450227 -0.6748317221044653 
0.401050563071816 -0.4010592928412299 -0.4010602119165522 -0.4010606187031134 -0.4010592017139125 -0.4010560095115631 -0.4010597821456194 
-0.1691694807104323 -0.3795890340337128 -0.337027022691738 1.904681963800404 -0.2021574028766991 -0.4001614585419506 -0.1742207452884603 
-0.4687279164347758 -0.2191954666782284 1.340197708894231 -0.09696741999629652 -0.1102690735282441 -0.2323867363564223 -0.09403830248109915 
0.401050563071816 -0.4010592928412299 -0.4010602119165522 -0.4010606187031134 -0.4010592017139125 -0.4010560095115631 -0.4010597821456194 
0.401050563071816 -0.4010592928412299 -0.4010602119165522 -0.4010606187031134 -0.4010592017139125 -0.4010560095115631 -0.4010597821456194 
0.8796842919357521 -0.8797123120871732 -0.8797206095187624 -0.8797172863928683 -0.8797122261881957 -0.8796953562107935 -0.879712101395546 
0.6748167125800291 -0.6748318795627335 -0.6748295655179062 -0.6748244696833685 -0.674831557841575 -0.6748168441450227 -0.6748317221044653 
-0.2715584738722121 -0.1196867782881057 -0.1040510426411528 0.8806446958592987 -0.05792419892710515 -0.127401337728229 -0.04907348961025899 
0.401050563071816 -0.4010592928412299 -0.4010602119165522 -0.4010606187031134 -0.4010592017139125 -0.4010560095115631 -0.4010597821456194 
-0.4687279164347758 -0.2191954666782284 0.6150004831804765 -0.09696741999629652 -0.1102690735282441 -0.2323867363564223 0.7871553653843519 
0.6748167125800291 -0.6748318795627335 -0.6748295655179062 -0.6748244696833685 -0.674831557841575 -0.6748168441450227 -0.6748317221044653 
0.8796842919357521 -0.8797123120871732 -0.8797206095187624 -0.8797172863928683 -0.8797122261881957 -0.8796953562107935 -0.879712101395546 
-0.9524701746180978 -0.5070151347936468 -0.4539638065676279 -0.2510942896486011 -0.2812552383557119 -0.5324519710380843 2.949102079930254 
0.401050563071816 -0.4010592928412299 -0.4010602119165522 -0.4010606187031134 -0.4010592017139125 -0.4010560095115631 -0.4010597821456194 
0.401050563071816 -0.4010592928412299 -0.4010602119165522 -0.4010606187031134 -0.4010592017139125 -0.4010560095115631 -0.4010597821456194 
-0.2715584738722121 0.7542429977290381 -0.1040510426411528 -0.0506621526861635 -0.05792419892710515 -0.127401337728229 -0.04907348961025899 
-0.2715584738722121 -0.1196867782881057 0.7804510810971923 -0.0506621526861635 -0.05792419892710515 -0.127401337728229 -0.04907348961025899 
0.401050563071816 -0.4010592928412299 -0.4010602119165522 -0.4010606187031134 -0.4010592017139125 -0.4010560095115631 -0.4010597821456194 
0.401050563071816 -0.4010592928412299 -0.4010602119165522 -0.4010606187031134 -0.4010592017139125 -0.4010560095115631 -0.4010597821456194 
0.401050563071816 -0.4010592928412299 -0.4010602119165522 -0.4010606187031134 -0.4010592017139125 -0.4010560095115631 -0.4010597821456194 
0.401050563071816 -0.4010592928412299 -0.4010602119165522 -0.4010606187031134 -0.4010592017139125 -0.4010560095115631 -0.4010597821456194 
0.401050563071816 -0.4010592928412299 -0.4010602119165522 -0.4010606187031134 -0.4010592017139125 -0.4010560095115631 -0.4010597821456194 
-0.2715584738722121 -0.1196867782881057 0.7804510810971923 -0.0506621526861635 -0.05792419892710515 -0.127401337728229 -0.04907348961025899 
0.5429239460704752 -0.1196867782881057 -0.1040510426411528 -0.0506621526861635 -0.05792419892710515 -0.127401337728229 -0.04907348961025899 
0.401050563071816 -0.4010592928412299 -0.4010602119165522 -0.4010606187031134 -0.4010592017139125 -0.4010560095115631 -0.4010597821456194 
0.6748167125800291 -0.6748318795627335 -0.6748295655179062 -0.6748244696833685 -0.674831557841575 -0.6748168441450227 -0.6748317221044653 
0.8796842919357521 -0.8797123120871732 -0.8797206095187624 -0.8797172863928683 -0.8797122261881957 -0.8796953562107935 -0.879712101395546 
-0.401050563071816 -0.4010592928412299 -0.4010602119165522 -0.4010606187031134 -0.4010592017139125 -0.4010560095115631 0.4010597821456194 
0.6748167125800291 -0.6748318795627335 -0.6748295655179062 -0.6748244696833685 -0.674831557841575 -0.6748168441450227 -0.6748317221044653 
2.009531711085555 -2.009520563001853 -2.009559880087277 -2.009509219199738 -2.009520257854995 -2.009528215723447 -2.009509868794486 
0.401050563071816 -0.4010592928412299 -0.4010602119165522 -0.4010606187031134 -0.4010592017139125 -0.4010560095115631 -0.4010597821456194 
0.401050563071816 -0.4010592928412299 -0.4010602119165522 -0.4010606187031134 -0.4010592017139125 -0.4010560095115631 -0.4010597821456194 
1.292544765174134 -1.292542185106193 -1.292525433385372 -1.292528671850552 -1.292537534324464 -1.292539214556941 -1.292541378305162 
0.401050563071816 -0.4010592928412299 -0.4010602119165522 -0.4010606187031134 -0.4010592017139125 -0.4010560095115631 -0.4010597821456194 
0.8796842919357521 -0.8797123120871732 -0.8797206095187624 -0.8797172863928683 -0.8797122261881957 -0.8796953562107935 -0.879712101395546 
0.401050563071816 -0.4010592928412299 -0.4010602119165522 -0.4010606187031134 -0.4010592017139125 -0.4010560095115631 -0.4010597821456194 
0.5429239460704752 -0.1196867782881057 -0.1040510426411528 -0.0506621526861635 -0.05792419892710515 -0.127401337728229 -0.04907348961025899 
0.401050563071816 -0.4010592928412299 -0.4010602119165522 -0.4010606187031134 -0.4010592017139125 -0.4010560095115631 -0.4010597821456194 
0.401050563071816 -0.4010592928412299 -0.4010602119165522 -0.4010606187031134 -0.4010592017139125 -0.4010560095115631 -0.4010597821456194 
0.401050563071816 -0.4010592928412299 -0.4010602119165522 -0.4010606187031134 -0.4010592017139125 -0.4010560095115631 -0.4010597821456194 
0.401050563071816 -0.4010592928412299 -0.4010602119165522 -0.4010606187031134 -0.4010592017139125 -0.4010560095115631 -0.4010597821456194 
0.6748167125800291 -0.6748318795627335 -0.6748295655179062 -0.6748244696833685 -0.674831557841575 -0.6748168441450227 -0.6748317221044653 
-0.2715584738722121 -0.1196867782881057 -0.1040510426411528 -0.0506621526861635 -0.05792419892710515 0.7416776662924058 -0.04907348961025899 
-0.4687279164347758 -0.2191954666782284 -0.19224297961949 -0.09696741999629652 -0.1102690735282441 1.261358055053449 -0.09403830248109915 
0.401050563071816 -0.4010592928412299 -0.4010602119165522 -0.4010606187031134 -0.4010592017139125 -0.4010560095115631 -0.4010597821456194 
0.5429239460704752 -0.1196867782881057 -0.1040510426411528 -0.0506621526861635 -0.05792419892710515 -0.127401337728229 -0.04907348961025899 
-0.4687279164347758 1.286397656813794 -0.19224297961949 -0.09696741999629652 -0.1102690735282441 -0.2323867363564223 -0.09403830248109915 
0.401050563071816 -0.4010592928412299 -0.4010602119165522 -0.4010606187031134 -0.4010592017139125 -0.4010560095115631 -0.4010597821456194 
-0.2715584738722121 0.7542429977290381 -0.1040510426411528 -0.0506621526861635 -0.05792419892710515 -0.127401337728229 -0.04907348961025899 
1.980468300797167 -0.6603439785905318 -0.5964909923070892 -0.3443750111334612 -0.3828568960688244 -0.6907339975004475 -0.3357178463773794 
0.401050563071816 -0.4010592928412299 -0.4010602119165522 -0.4010606187031134 -0.4010592017139125 -0.4010560095115631 -0.4010597821456194 
0.5429239460704752 -0.1196867782881057 -0.1040510426411528 -0.0506621526861635 -0.05792419892710515 -0.127401337728229 -0.04907348961025899 
-0.2715584738722121 -0.1196867782881057 -0.1040510426411528 -0.0506621526861635 0.8658738957821077 -0.127401337728229 -0.04907348961025899 
-0.2715584738722121 -0.1196867782881057 0.7804510810971923 -0.0506621526861635 -0.05792419892710515 -0.127401337728229 -0.04907348961025899 
0.401050563071816 -0.4010592928412299 -0.4010602119165522 -0.4010606187031134 -0.4010592017139125 -0.4010560095115631 -0.4010597821456194 
0.8796842919357521 -0.8797123120871732 -0.8797206095187624 -0.8797172863928683 -0.8797122261881957 -0.8796953562107935 -0.879712101395546 
0.401050563071816 -0.4010592928412299 -0.4010602119165522 -0.4010606187031134 -0.4010592017139125 -0.4010560095115631 -0.4010597821456194 
0.401050563071816 -0.4010592928412299 -0.4010602119165522 -0.4010606187031134 -0.4010592017139125 -0.4010560095115631 -0.4010597821456194 
-0.1191770350160515 -0.5622724408440918 -0.5051186478812251 -0.2838769184299766 -0.3171003935211773 1.688699304665535 -0.276432982309615 
2.737059194196982 -2.737020998772736 -2.736967379999302 -2.737019810991276 -2.737045363370836 -2.737046050636257 -2.737022512177421 
-0.4687279164347758 -0.2191954666782284 -0.19224297961949 -0.09696741999629652 -0.1102690735282441 -0.2323867363564223 1.582505801750726 
1.728519332962572 -0.8559004192662352 -0.780576445442841 0.6457666157681939 -0.5213828745435785 -0.8914946199862056 -0.462220212782133 
-0.2715584738722121 -0.1196867782881057 -0.1040510426411528 -0.0506621526861635 -0.05792419892710515 0.7416776662924058 -0.04907348961025899 
1.042580553478489 -1.042596577009953 -1.042608687583921 -1.042609871630564 -1.042596018150823 -1.042591864697598 -1.042595749410701 
-0.2715584738722121 -0.1196867782881057 -0.1040510426411528 -0.0506621526861635 -0.05792419892710515 -0.127401337728229 0.8839706160633183 
1.166809042178457 -0.3046093329314958 -0.2689771268642726 -0.1396585200248373 -0.1580887451203666 -0.3219287469790112 -0.1355797272685665 
0.6748167125800291 -0.6748318795627335 -0.6748295655179062 -0.6748244696833685 -0.674831557841575 -0.6748168441450227 -0.6748317221044653 
0.401050563071816 -0.4010592928412299 -0.4010602119165522 -0.4010606187031134 -0.4010592017139125 -0.4010560095115631 -0.4010597821456194 
0.5429239460704752 -0.1196867782881057 -0.1040510426411528 -0.0506621526861635 -0.05792419892710515 -0.127401337728229 -0.04907348961025899 
0.401050563071816 -0.4010592928412299 -0.4010602119165522 -0.4010606187031134 -0.4010592017139125 -0.4010560095115631 -0.4010597821456194 
0.401050563071816 -0.4010592928412299 -0.4010602119165522 -0.4010606187031134 -0.4010592017139125 -0.4010560095115631 -0.4010597821456194 
0.401050563071816 -0.4010592928412299 -0.4010602119165522 -0.4010606187031134 -0.4010592017139125 -0.4010560095115631 -0.4010597821456194 
-0.2715584738722121 0.7542429977290381 -0.1040510426411528 -0.0506621526861635 -0.05792419892710515 -0.127401337728229 -0.04907348961025899 
1.292544765174134 -1.292542185106193 -1.292525433385372 -1.292528671850552 -1.292537534324464 -1.292539214556941 -1.292541378305162 
0.01254154195832093 -0.5070151347936468 -0.4539638065676279 -0.2510942896486011 -0.2812552383557119 1.476314197442395 -0.2443526926421632 
-0.2715584738722121 0.7542429977290381 -0.1040510426411528 -0.0506621526861635 -0.05792419892710515 -0.127401337728229 -0.04907348961025899 
-0.1191770350160515 -0.5622724408440918 -0.5051186478812251 0.4391408581313972 -0.3171003935211773 1.319474475353213 -0.276432982309615 
0.401050563071816 -0.4010592928412299 -0.4010602119165522 -0.4010606187031134 -0.4010592017139125 -0.4010560095115631 -0.4010597821456194 
0.8796842919357521 -0.8797123120871732 -0.8797206095187624 -0.8797172863928683 -0.8797122261881957 -0.8796953562107935 -0.879712101395546 
-0.2715584738722121 -0.1196867782881057 0.7804510810971923 -0.0506621526861635 -0.05792419892710515 -0.127401337728229 -0.04907348961025899 
0.6748167125800291 -0.6748318795627335 -0.6748295655179062 -0.6748244696833685 -0.674831557841575 -0.6748168441450227 -0.6748317221044653 
1.292544765174134 -1.292542185106193 -1.292525433385372 -1.292528671850552 -1.292537534324464 -1.292539214556941 -1.292541378305162 
-0.2715584738722121 0.7542429977290381 -0.1040510426411528 -0.0506621526861635 -0.05792419892710515 -0.127401337728229 -0.04907348961025899 
0.6748167125800291 -0.6748318795627335 -0.6748295655179062 -0.6748244696833685 -0.674831557841575 -0.6748168441450227 -0.6748317221044653 
0.401050563071816 -0.4010592928412299 -0.4010602119165522 -0.4010606187031134 -0.4010592017139125 -0.4010560095115631 -0.4010597821456194 
-0.2715584738722121 0.7542429977290381 -0.1040510426411528 -0.0506621526861635 -0.05792419892710515 -0.127401337728229 -0.04907348961025899 
0.8796842919357521 -0.8797123120871732 -0.8797206095187624 -0.8797172863928683 -0.8797122261881957 -0.8796953562107935 -0.879712101395546 
0.401050563071816 -0.4010592928412299 -0.4010602119165522 -0.4010606187031134 -0.4010592017139125 -0.4010560095115631 -0.4010597821456194 
0.5429239460704752 -0.1196867782881057 -0.1040510426411528 -0.0506621526861635 -0.05792419892710515 -0.127401337728229 -0.04907348961025899 
0.401050563071816 -0.4010592928412299 -0.4010602119165522 -0.4010606187031134 -0.4010592017139125 -0.4010560095115631 -0.4010597821456194 
0.5429239460704752 -0.1196867782881057 -0.1040510426411528 -0.0506621526861635 -0.05792419892710515 -0.127401337728229 -0.04907348961025899 
-0.2715584738722121 -0.1196867782881057 -0.1040510426411528 0.8806446958592987 -0.05792419892710515 -0.127401337728229 -0.04907348961025899 
0.6748167125800291 -0.6748318795627335 -0.6748295655179062 -0.6748244696833685 -0.674831557841575 -0.6748168441450227 -0.6748317221044653 
0.6748167125800291 -0.6748318795627335 -0.6748295655179062 -0.6748244696833685 -0.674831557841575 -0.6748168441450227 -0.6748317221044653 
0.6748167125800291 -0.6748318795627335 -0.6748295655179062 -0.6748244696833685 -0.674831557841575 -0.6748168441450227 -0.6748317221044653 
0.401050563071816 -0.4010592928412299 -0.4010602119165522 -0.4010606187031134 -0.4010592017139125 -0.4010560095115631 -0.4010597821456194 
0.5429239460704752 -0.1196867782881057 -0.1040510426411528 -0.0506621526861635 -0.05792419892710515 -0.127401337728229 -0.04907348961025899 
1.042580553478489 -1.042596577009953 -1.042608687583921 -1.042609871630564 -1.042596018150823 -1.042591864697598 -1.042595749410701 
0.5429239460704752 -0.1196867782881057 -0.1040510426411528 -0.0506621526861635 -0.05792419892710515 -0.127401337728229 -0.04907348961025899 
0.6748167125800291 -0.6748318795627335 -0.6748295655179062 -0.6748244696833685 -0.674831557841575 -0.6748168441450227 -0.6748317221044653 
0.401050563071816 -0.4010592928412299 -0.4010602119165522 -0.4010606187031134 -0.4010592017139125 -0.4010560095115631 -0.4010597821456194 
0.401050563071816 -0.4010592928412299 -0.4010602119165522 -0.4010606187031134 -0.4010592017139125 -0.4010560095115631 -0.4010597821456194 
1.919228519187881 -1.919233238993526 -1.919256089356967 -1.919202660921447 -1.919223286874921 -1.919227253364052 -1.919224586551801 
0.401050563071816 -0.4010592928412299 -0.4010602119165522 -0.4010606187031134 -0.4010592017139125 -0.4010560095115631 -0.4010597821456194 
1.177503097715588 -1.177505171692747 -1.177506337471025 -1.177510472661468 -1.177503409626853 -1.177506232638758 -1.177504268967738 
0.5429239460704752 -0.1196867782881057 -0.1040510426411528 -0.0506621526861635 -0.05792419892710515 -0.127401337728229 -0.04907348961025899 
0.401050563071816 -0.4010592928412299 -0.4010602119165522 -0.4010606187031134 -0.4010592017139125 -0.4010560095115631 -0.4010597821456194 
0.401050563071816 -0.4010592928412299 -0.4010602119165522 -0.4010606187031134 -0.4010592017139125 -0.4010560095115631 -0.4010597821456194 
0.401050563071816 -0.4010592928412299 -0.4010602119165522 -0.4010606187031134 -0.4010592017139125 -0.4010560095115631 -0.4010597821456194 
1.699635356522904 -1.699658723466455 -1.699631723474587 -1.699594704920624 -1.69963799619559 -1.699631074497219 -1.699654359250935 
-0.2715584738722121 -0.1196867782881057 -0.1040510426411528 -0.0506621526861635 -0.05792419892710515 -0.127401337728229 0.8839706160633183 
0.905194520444802 -0.2191954666782284 -0.19224297961949 -0.09696741999629652 -0.1102690735282441 -0.2323867363564223 -0.09403830248109915 
0.2353615837132753 0.5726784410935716 -0.19224297961949 -0.09696741999629652 -0.1102690735282441 -0.2323867363564223 -0.09403830248109915 
0.6748167125800291 -0.6748318795627335 -0.6748295655179062 -0.6748244696833685 -0.674831557841575 -0.6748168441450227 -0.6748317221044653 
1.817126408508192 -1.817144373341184 -1.817143277641825 -1.817094107448929 -1.817126815029714 -1.817125411715295 -1.817137893172877 
1.56123145057884 -1.561247843823287 -1.561205119953546 -1.561186198344504 -1.561230352015679 -1.561221463863527 -1.561245449748422 
-0.6232964569545497 -0.3046093329314958 -0.2689771268642726 -0.1396585200248373 -0.1580887451203666 1.626924454392891 -0.1355797272685665 
0.8796842919357521 -0.8797123120871732 -0.8797206095187624 -0.8797172863928683 -0.8797122261881957 -0.8796953562107935 -0.879712101395546 
0.6748167125800291 -0.6748318795627335 -0.6748295655179062 -0.6748244696833685 -0.674831557841575 -0.6748168441450227 -0.6748317221044653 
0.401050563071816 -0.4010592928412299 -0.4010602119165522 -0.4010606187031134 -0.4010592017139125 -0.4010560095115631 -0.4010597821456194 
0.401050563071816 -0.4010592928412299 -0.4010602119165522 -0.4010606187031134 -0.4010592017139125 -0.4010560095115631 -0.4010597821456194 
0.6748167125800291 -0.6748318795627335 -0.6748295655179062 -0.6748244696833685 -0.674831557841575 -0.6748168441450227 -0.6748317221044653 
-0.6232964569545497 1.072169897208507 0.4819997695993688 -0.1396585200248373 -0.1580887451203666 -0.3219287469790112 -0.1355797272685665 
3.374943768391055 -3.374949940493029 -3.374925545674558 -3.374940539819693 -3.374942842748165 -3.3749422502425 -3.37496084638249 
0.6748167125800291 -0.6748318795627335 -0.6748295655179062 -0.6748244696833685 -0.674831557841575 -0.6748168441450227 -0.6748317221044653 
0.401050563071816 -0.4010592928412299 -0.4010602119165522 -0.4010606187031134 -0.4010592017139125 -0.4010560095115631 -0.4010597821456194 
0.401050563071816 -0.4010592928412299 -0.4010602119165522 -0.4010606187031134 -0.4010592017139125 -0.4010560095115631 -0.4010597821456194 
0.8796842919357521 -0.8797123120871732 -0.8797206095187624 -0.8797172863928683 -0.8797122261881957 -0.8796953562107935 -0.879712101395546 
0.401050563071816 -0.4010592928412299 -0.4010602119165522 -0.4010606187031134 -0.4010592017139125 -0.4010560095115631 -0.4010597821456194 
0.401050563071816 -0.4010592928412299 -0.4010602119165522 -0.4010606187031134 -0.4010592017139125 -0.4010560095115631 -0.4010597821456194 
0.6748167125800291 -0.6748318795627335 -0.6748295655179062 -0.6748244696833685 -0.674831557841575 -0.6748168441450227 -0.6748317221044653 
0.401050563071816 -0.4010592928412299 -0.4010602119165522 -0.4010606187031134 -0.4010592017139125 -0.4010560095115631 -0.4010597821456194 
-0.2715584738722121 -0.1196867782881057 0.7804510810971923 -0.0506621526861635 -0.05792419892710515 -0.127401337728229 -0.04907348961025899 
0.6748167125800291 -0.6748318795627335 -0.6748295655179062 -0.6748244696833685 -0.674831557841575 -0.6748168441450227 -0.6748317221044653 
1.042580553478489 -1.042596577009953 -1.042608687583921 -1.042609871630564 -1.042596018150823 -1.042591864697598 -1.042595749410701 
0.6748167125800291 -0.6748318795627335 -0.6748295655179062 -0.6748244696833685 -0.674831557841575 -0.6748168441450227 -0.6748317221044653 
0.401050563071816 -0.4010592928412299 -0.4010602119165522 -0.4010606187031134 -0.4010592017139125 -0.4010560095115631 -0.4010597821456194 
0.401050563071816 -0.4010592928412299 -0.4010602119165522 -0.4010606187031134 -0.4010592017139125 -0.4010560095115631 -0.4010597821456194 
0.401050563071816 -0.4010592928412299 -0.4010602119165522 -0.4010606187031134 -0.4010592017139125 -0.4010560095115631 -0.4010597821456194 
0.401050563071816 -0.4010592928412299 -0.4010602119165522 -0.4010606187031134 -0.4010592017139125 -0.4010560095115631 -0.4010597821456194 
0.401050563071816 -0.4010592928412299 -0.4010602119165522 -0.4010606187031134 -0.4010592017139125 -0.4010560095115631 -0.4010597821456194 
0.6748167125800291 -0.6748318795627335 -0.6748295655179062 -0.6748244696833685 -0.674831557841575 -0.6748168441450227 -0.6748317221044653 
0.2865400532778292 -0.8797123120871732 -0.8797206095187624 -0.8797172863928683 -0.2865475493998258 -0.8796953562107935 -0.879712101395546 
-0.2715584738722121 -0.1196867782881057 -0.1040510426411528 -0.0506621526861635 -0.05792419892710515 -0.127401337728229 0.8839706160633183 
0.401050563071816 -0.4010592928412299 -0.4010602119165522 -0.4010606187031134 -0.4010592017139125 -0.4010560095115631 -0.4010597821456194 
0.5429239460704752 -0.1196867782881057 -0.1040510426411528 -0.0506621526861635 -0.05792419892710515 -0.127401337728229 -0.04907348961025899 
0.401050563071816 -0.4010592928412299 -0.4010602119165522 -0.4010606187031134 -0.4010592017139125 -0.4010560095115631 -0.4010597821456194 
0.401050563071816 -0.4010592928412299 -0.4010602119165522 -0.4010606187031134 -0.4010592017139125 -0.4010560095115631 -0.4010597821456194 
0.401050563071816 -0.4010592928412299 -0.4010602119165522 -0.4010606187031134 -0.4010592017139125 -0.4010560095115631 -0.4010597821456194 
1.699635356522904 -1.699658723466455 -1.699631723474587 -1.699594704920624 -1.69963799619559 -1.699631074497219 -1.699654359250935 
-0.8584926495261183 -0.4465124710896535 -0.3982527209173803 -0.216328748254608 -0.243061201151944 2.110619634887045 -0.210369891803464 
0.008768657792778417 -0.3046093329314958 -0.2689771268642726 0.6962928516154451 0.6632005376681437 -0.3219287469790112 -0.1355797272685665 
0.5429239460704752 -0.1196867782881057 -0.1040510426411528 -0.0506621526861635 -0.05792419892710515 -0.127401337728229 -0.04907348961025899 
1.392772011910071 -1.392773212422005 -1.392740569325808 -1.392738888087967 -1.392764256201483 -1.392761382242901 -1.392772212770586 
0.6748167125800291 -0.6748318795627335 -0.6748295655179062 -0.6748244696833685 -0.674831557841575 -0.6748168441450227 -0.6748317221044653 
0.401050563071816 -0.4010592928412299 -0.4010602119165522 -0.4010606187031134 -0.4010592017139125 -0.4010560095115631 -0.4010597821456194 
0.401050563071816 -0.4010592928412299 -0.4010602119165522 -0.4010606187031134 -0.4010592017139125 -0.4010560095115631 -0.4010597821456194 
-0.6232964569545497 -0.3046093329314958 -0.2689771268642726 -0.1396585200248373 -0.1580887451203666 1.626924454392891 -0.1355797272685665 
0.6748167125800291 -0.6748318795627335 -0.6748295655179062 -0.6748244696833685 -0.674831557841575 -0.6748168441450227 -0.6748317221044653 
0.401050563071816 -0.4010592928412299 -0.4010602119165522 -0.4010606187031134 -0.4010592017139125 -0.4010560095115631 -0.4010597821456194 
-1.708769573375017 -1.059391541370982 -0.9742530642067563 2.153610939843227 2.533485424416414 -1.09938293821343 -0.6042007920900742 
-0.2715584738722121 -0.1196867782881057 0.7804510810971923 -0.0506621526861635 -0.05792419892710515 -0.127401337728229 -0.04907348961025899 
